// List of model parameters:
//
// static const unsigned int conv_0_weight_rows      ( =    3 )
// static const unsigned int conv_0_weight_columns   ( =    3 )
// static const float conv_0_weight[3][3]                             #       size =     0.04 kB
// static const unsigned int conv_0_bias_size        ( =    1 )
// static const float conv_0_bias[1]                                  #       size =     0.00 kB
// static const unsigned int conv_1_weight_rows      ( =    3 )
// static const unsigned int conv_1_weight_columns   ( =    3 )
// static const float conv_1_weight[3][3]                             #       size =     0.04 kB
// static const unsigned int conv_1_bias_size        ( =    1 )
// static const float conv_1_bias[1]                                  #       size =     0.00 kB
// static const unsigned int conv_2_weight_rows      ( =    3 )
// static const unsigned int conv_2_weight_columns   ( =    3 )
// static const float conv_2_weight[3][3]                             #       size =     0.04 kB
// static const unsigned int conv_2_bias_size        ( =    1 )
// static const float conv_2_bias[1]                                  #       size =     0.00 kB
// static const unsigned int dense_0_weight_rows      ( =   10 )
// static const unsigned int dense_0_weight_columns   ( =  484 )
// static const float dense_0_weight[10][484]                         #       size =    19.36 kB
// static const unsigned int dense_0_bias_size        ( =   10 )
// static const float dense_0_bias[10]                                #       size =     0.04 kB
//                                                                                    ----------
//                                                                    # Total Size =    19.52 kB

static const unsigned int conv_0_weight_rows    = 3;
static const unsigned int conv_0_weight_columns = 3;
static const float conv_0_weight[3][3] = {{
   -0.035944764,      -0.3724523,      0.38351822}, {
     0.61558384,       0.4197463,      0.80393726}, {
      0.7880932,     -0.12303914,     0.005707742}
};

static const unsigned int conv_0_bias_size = 1;
static const float conv_0_bias[1] = {
     0.15315104};

static const unsigned int conv_1_weight_rows    = 3;
static const unsigned int conv_1_weight_columns = 3;
static const float conv_1_weight[3][3] = {{
     0.67757785,     0.078800626,       0.7739617}, {
     0.15951781,     -0.08682534,       0.2756605}, {
    -0.13138793,     -0.07763241,       0.3285093}
};

static const unsigned int conv_1_bias_size = 1;
static const float conv_1_bias[1] = {
   -0.041707303};

static const unsigned int conv_2_weight_rows    = 3;
static const unsigned int conv_2_weight_columns = 3;
static const float conv_2_weight[3][3] = {{
     -0.5710233,     -0.50327945,     -0.27987948}, {
     0.06474778,     -0.33822197,     -0.28830487}, {
     0.09198874,       0.4919598,       0.5607605}
};

static const unsigned int conv_2_bias_size = 1;
static const float conv_2_bias[1] = {
      0.7791493};

static const unsigned int dense_0_weight_rows    = 10;
static const unsigned int dense_0_weight_columns = 484;
static const float dense_0_weight[10][484] = {{
     0.19543666,        0.219119,      0.23013236,      0.17028935,      0.15398085, 
     0.13497016,      0.08387607,      0.10653779,      0.09741519,      0.15419376, 
     0.13887401,      0.09806951,     0.030468943,     0.062177066,     -0.01014097, 
    -0.06818592,    -0.034976155,     0.018156381,      0.08150818,     0.014482651, 
     0.04614495,      0.15046678,      0.26237184,      0.20594482,        0.152321, 
     0.11534141,     0.040983684,     -0.06995166,    -0.010915521,   -0.0071125333, 
    0.023440065,   -0.0130876275,     0.032587793,     0.039063793,    -0.023609325, 
   -0.036041982,     -0.08931339,    -0.014456881,     0.060926456,      0.18826546, 
     0.16790393,      0.11211857,     0.047047842,     0.041004054,       0.2297876, 
     0.21452534,     0.122473665,     0.012527355,  -0.00072949304,    -0.035638195, 
    -0.04141984,    -0.064081006,    -0.036291122,       0.0243299,      0.11145175, 
     0.17404471,      0.07585605,     0.064827204,     -0.09276706,    -0.040878147, 
     0.04699608,        0.046043,      0.11239313,     0.097137906,      0.16558446, 
     0.12066402,      0.18709117,        0.164286,      0.09482323,     0.062020052, 
    0.026646957,    -0.057537448,   -0.0012282626,    -0.065990314,    -0.053444047, 
   -0.045794867,    -0.017593114,    -0.033227313,     0.049609523,     0.036742344, 
    -0.02709607,     -0.11131341,     -0.09658639,     -0.14025576,    -0.006070057, 
     0.12755395,      0.25457704,        0.283596,       0.1786546,      0.19735505, 
     0.10557506,      0.11029175,     0.099494204,      0.02992242,      0.08865401, 
    0.024683096,    -0.117065884,      -0.2098296,     -0.11653398,     -0.07570999, 
   -0.048912607,     -0.04641054,    -0.087217234,     -0.07180118,    -0.100627944, 
   -0.050555546,    -0.012714712,      0.09632606,      0.17442025,      0.11924627, 
      0.2726669,      0.23598784,     0.112058744,     0.064213485,      0.10442525, 
     0.06984175,     0.025356652,    -0.035851404,     -0.13567911,     -0.08660848, 
    0.043089245,     0.055501793,     -0.04884214,    0.0054267123,    -0.027287623, 
   -0.010929129,     -0.16559361,     -0.17320968,    -0.048927613,      0.07751502, 
     0.10902145,      0.15156586,      0.22512953,      0.13626835,     0.044283237, 
  -0.0043221554,     0.040834785,     -0.04821196,      0.03178762,      0.03378063, 
      0.0723964,    -0.016168257,      -0.1042282,      -0.1615352,     -0.19182025, 
   0.0014145412,      -0.1718725,     -0.31740102,     -0.24095076,    -0.055875488, 
     0.12661476,      0.13349858,      0.07584596,      0.09571037,      0.16513176, 
     0.05844129,    -0.024669208,    -0.065589435,     -0.07473154,    0.0069059916, 
      0.0762455,      0.08328304,      0.15228856,      -0.0567381,     -0.33058208, 
    -0.38914984,     -0.23763655,     -0.10430561,      -0.1727722,     -0.30250043, 
    -0.17617205,     -0.23053327,     -0.17062788,     -0.10351772,     -0.06625326, 
     0.05931813,      0.22424287,      0.17355035,     0.026660616,    -0.035622086, 
    -0.07086254,    -0.046205647,     -0.06372814,     -0.14307922,     -0.18378127, 
    -0.19771966,     -0.52966994,     -0.65959066,     -0.48755097,     -0.35509247, 
    -0.20491697,      -0.4119802,     -0.37481752,     -0.13690746,    -0.048865553, 
    0.015434366,     0.094672374,      0.07355818,       0.3242756,       0.2429574, 
   -0.021256339,     -0.04926808,     0.029335769,     0.115315184,      0.09649849, 
    -0.14755775,     -0.30282438,     -0.25383306,     -0.12719208,     -0.20335652, 
    -0.20598567,     -0.26773423,     -0.28675517,     -0.20293482,     -0.21805643, 
    -0.48536384,     -0.47648612,    -0.031100007,      0.06170544,     0.036979236, 
     0.33213288,     0.053240698,     -0.13499579,    -0.039902914,      0.07037977, 
      0.0747851,     0.034598842,     -0.26143417,     -0.52902514,     -0.30920744, 
    -0.18534294,     -0.08024999,     -0.23963726,     -0.19638881,     -0.22684464, 
   -0.055904865,      -0.2270639,      -0.5259396,      -0.9011883,      -0.7172897, 
    -0.40122992,     -0.33066815,      0.21847957,     -0.07454698,      -0.2792559, 
    -0.20800482,    -0.111913525,     -0.10316612,    -0.024981875,      -0.5279967, 
    -0.31790948,    0.0042758305,     -0.29260105,     -0.41609943,     0.060254183, 
    -0.06584622,     -0.19828925,      0.13025571,     0.022071138,     -0.48382983, 
     -0.7222779,      -0.6265414,     -0.39082375,     -0.41038898,      0.14166808, 
    -0.22297783,     -0.33148718,      -0.3343609,     -0.14345302,      0.04391864, 
    -0.24924505,      -0.4652422,    -0.019686406,     -0.04754158,     -0.43887618, 
    0.040078398,      0.34637937,     -0.08074801,     -0.05401432,      0.21732573, 
     0.16731396,     -0.42320946,       -0.404192,     -0.20514114,      -0.3779502, 
    -0.38001376,     0.046253078,     -0.15848376,     -0.21310456,     -0.16878517, 
     -0.1377383,     -0.33462754,      -0.6539992,     -0.18703094,     0.051481813, 
    -0.18779443,     -0.07234881,      0.44457942,      0.43166667,     -0.04032376, 
   -0.036882028,      0.12336001,      0.10762431,     -0.15644199,       -0.575726, 
    -0.38043657,      -0.3298411,      -0.5166253,    -0.013625558,     -0.16962366, 
    -0.27021435,     -0.20798676,     -0.07023089,     -0.41477272,      -0.3752361, 
   -0.064155385,     -0.06277665,     -0.23683216,    -0.008839975,       0.4006414, 
      0.1851217,      -0.0548207,    -0.016626872,      0.27205834,      0.08918912, 
     -0.2350479,     -0.55173063,     -0.49844444,     -0.25627837,     -0.46643224, 
     0.16120215,    -0.092082255,     -0.17624694,     -0.20383564,      -0.2210182, 
    -0.45646667,     -0.10494989,     0.020208344,     -0.00927964,    -0.052702922, 
     0.10787319,      0.28838345,     0.011374658,     0.041144002,      0.22823869, 
     0.18062083,    -0.031702343,     -0.17564909,      -0.3686472,     -0.24821532, 
    -0.12597428,      -0.3130299,      0.10226435,    -0.023193004,     -0.19765143, 
     -0.2712601,      -0.4037725,     -0.50492525,     -0.17401406,      0.05761021, 
  -0.0037151796,     -0.17274022,      0.07006436,      0.12262835,      0.13990414, 
     0.11790178,      0.15822834,      0.05883404,     0.020117735,      0.05149902, 
    0.053444948,      0.15476537,     -0.03895266,     -0.17561473,       0.0454057, 
    -0.17012148,     -0.19774255,      -0.3570549,     -0.50424975,     -0.34470966, 
    0.008788854,     0.091950074,    -0.113589264,       -0.155728,     0.070772536, 
     0.21286723,       0.2142732,     0.067366876,    -0.050981406,     0.024369793, 
    0.038743813,     -0.08749899,       0.1286841,      0.14433926,       0.1023733, 
   -0.033854622,     -0.08068101,     -0.11679962,     0.057386458,     -0.14933035, 
     -0.4150227,     -0.37690344,     -0.06757436,    -0.070137374,      -0.1993499, 
    -0.11556783,      0.07577968,      0.17958276,      0.21536155,      0.09208972, 
    0.011600072,     0.048778765,     0.080873504,      0.09503447,      0.07040839, 
     0.13657314,     0.106655575,      -0.0408348,     -0.10379091,    -0.109586865, 
   -0.009512975,     -0.17323357,     -0.63114417,      -0.6202368,     -0.26119533, 
    -0.07831678,     -0.07910117,     0.055983536,      0.21568462,      0.24932954, 
     0.16026458,     -0.00591127,     -0.10434983,     -0.03712687,    0.0023735748, 
     0.26347426,      0.22826986,      0.22941211,      0.14172132,      0.16802472, 
     -0.2001181,      -0.2399204,     -0.17302011,    -0.117508434,      -0.2136211, 
    -0.63491976,      -0.5001966,     -0.20031486,     -0.07120657,      -0.1637762, 
    0.005562808,      0.26583016,      0.12563883,      0.19294141,     0.100850284, 
     0.16036193,      0.28372717,      0.48296252,        0.544962,       0.3853344, 
     0.33799955,      0.22980186,     -0.13507102,     -0.20749088,     -0.16706672, 
     0.06691204,      0.19377697,      -0.0776593,     -0.70923233,      -0.8878983, 
     -0.6465523,     -0.16697103,      0.12265105,      0.22914131,      0.48842573, 
      0.5609115,       0.5476579,       0.6177978,       0.7487958,       0.7774106, 
     0.70854723,       0.5724561,      0.47930387,       0.3143406}, {
     0.11634402,      0.10567691,     0.007921318,       -0.085061,     -0.16359635, 
    -0.20703107,     -0.26920974,     -0.29207903,     -0.24814759,     -0.12809125, 
    -0.10591707,     -0.13643833,      -0.2290917,     -0.27231556,     -0.33304068, 
    -0.27762434,     -0.19560958,     -0.07959972,     0.021957582,     -0.01279071, 
   -0.023556696,   -0.0114878565,     0.117075354,      0.06740627,     0.045948513, 
   -0.028805666,     -0.09281603,      -0.1641497,    -0.046645585,   -0.0059112636, 
    0.015199102,     0.009225548,    -0.064524285,    -0.124791674,     -0.11992108, 
    -0.09413895,    -0.038129702,     -0.12489651,     -0.01243659,     0.014746499, 
    0.077835284,       0.0926525,      0.14854199,     0.062183224,      0.08257737, 
     0.09298236,    -0.063221164,     -0.07704552,     -0.11879653,      -0.1071476, 
    -0.12285559,     -0.13243309,     -0.11634934,     -0.06558167,     -0.12049934, 
    -0.18812717,     -0.16166195,     -0.12811701,     -0.10519617,     -0.16208091, 
     -0.1634954,    -0.023377258,      0.03803168,    -0.014502556,     0.044807605, 
     0.10691397,    -0.017551925,     -0.08640459,     -0.12476413,     -0.06783843, 
    -0.10611748,     -0.21152277,     -0.16473083,     -0.09125729,    -0.095203534, 
    -0.11900791,      -0.1393095,      -0.2002297,     -0.18646356,     -0.18119165, 
    -0.26781705,      -0.1869637,     -0.14370412,    -0.008315938,    -0.075516194, 
    -0.11655967,    -0.029813275,    -0.032383557,     0.008366618,    -0.025236864, 
     0.04167504,     0.058138356,     0.007687422,     -0.04677344,     -0.13018478, 
    -0.24032512,      -0.2646751,     -0.10933826,     -0.10568491,    -0.086158045, 
    -0.12629241,     -0.13810688,     -0.29862365,      -0.3294734,     -0.13906443, 
    -0.08206969,     -0.12108887,    -0.034313746,    -0.038907174,    -0.048512664, 
   -0.050276972,   -0.0065775816,    -0.001945308,      0.03038517,    -0.016590742, 
    -0.02608852,     0.008090542,     0.013847532,    -0.042842507,     -0.13878785, 
    -0.08325417,     0.068542555,     0.012074102,     0.024907999,     -0.11736319, 
    -0.11531452,     -0.17602172,     -0.20794588,      -0.1616008,     -0.10115851, 
    -0.15088035,     -0.12397602,     -0.08423334,     -0.08882804,     -0.11125591, 
    -0.13256097,     -0.07621421,    -0.045234114,      0.09971754,     0.007926557, 
    -0.15014859,     -0.10943314,    -0.055109926,     0.019933157,     -0.11128959, 
    -0.04964154,     -0.15916193,     -0.14872496,     -0.10695886,  -4.6306912e-05, 
    0.013906449,     -0.05552677,    -0.008314412,     -0.06827734,    -0.044739597, 
   -0.059838235,    -0.038768023,     -0.02148753,     0.009522222,   -0.0023021994, 
     0.09786779,     0.053065646,     0.015980443,      0.03861388,      0.06995335, 
    0.068150975,      0.20230177,     -0.09852522,     -0.27888724,     -0.12497785, 
     0.10610222,      0.08305598,      0.05995571,      0.18109742,      0.10979088, 
     0.06254008,      0.03693939,      0.08276329,      0.13467303,      0.18276976, 
     0.09522733,     0.008916902,      0.12674299,      0.03053313,      0.07907663, 
   -0.080887824,      -0.0931914,     -0.10248059,     -0.06591176,     -0.34266168, 
    -0.31727704,     -0.02223871,       0.2466569,      0.19409777,      0.22113553, 
     0.15093942,      0.06982326,     0.091868095,      0.07194797,     0.102735914, 
     0.20067313,      0.10713197,     -0.06372039,     -0.16692862,    0.0155218365, 
    0.051931508,      0.19500577,     0.029832872,     -0.21769452,     -0.19642754, 
    -0.39828712,      -0.5155375,     -0.36107534,    -0.073791824,      0.12872955, 
     0.12784469,     -0.05184447,    -0.036083106,    -0.058999106,    -0.042494852, 
    0.040940065,       0.1447591,      0.08242611,     0.053857557,     -0.08379325, 
    -0.01270265,      0.13140938,        0.165945,      0.16969703,     -0.16668385, 
     -0.3571089,     -0.29348364,      -0.5634817,      -0.5199932,      -0.4897083, 
     -0.1663998,     0.031201318,    -0.052089382,   -0.0141152395,      0.08439827, 
     0.13062866,      0.17179263,   -0.0071514538,     -0.04523167,   -0.0011757171, 
    0.031009996,     0.023115845,      0.18096742,      0.34818816,      0.28593728, 
    0.051593143,     -0.21174343,     -0.35557792,     -0.33671615,      -1.0909486, 
     -0.6621108,     -0.34764722,     -0.21544842,    -0.045426447,     0.013599419, 
     0.19114096,      0.22184329,      0.21068867,      0.13210736,    -0.027220685, 
    -0.09931401,      -0.1661175,    -0.099487565,      0.10205377,       0.3409639, 
     0.42486376,      0.15796316,     -0.14845482,      -0.5025992,      -0.4276674, 
    -0.15300466,      -1.0576886,      -1.0842276,      -0.6307995,     -0.27899545, 
    -0.01602149,       0.2726546,       0.2388375,     0.040912192,      0.07835148, 
     0.14007196,     -0.05517445,      -0.1139635,     -0.13810793,      -0.1322316, 
     0.08667981,      0.38287938,      0.38190153,     0.058379177,     -0.46042016, 
    -0.56447065,     -0.17338073,      -0.1826685,     -0.88123745,     -0.63194984, 
     -0.6104814,     -0.38727698,      0.10864538,      0.29778922,      0.25775644, 
    0.119756475,     0.048957027,     0.122182004,    -0.049535464,    -0.119705334, 
   -0.059624948,    -0.008451934,      0.18105747,      0.46081942,      0.33166695, 
   -0.022229113,      -0.3877048,       -0.464171,      -0.0900086,      0.18823375, 
    -0.06659089,      -0.3785327,     -0.32886916,     -0.09038876,       0.3534636, 
     0.45978144,      0.22458237,     0.036338057,     0.010452681,     -0.02298396, 
   -0.022050826,     0.015363056,      0.17342253,      0.24463703,      0.26062277, 
     0.32774773,       0.2116517,     -0.05484571,      -0.3969463,     -0.35378003, 
    0.031244747,     -0.21045096,      -0.5755662,     -0.44681516,      -0.2886399, 
     0.10693605,      0.46516424,       0.4007462,      0.20387468,      0.14307271, 
     0.05502784,      0.11227957,      0.12147556,       0.1770704,       0.3083448, 
      0.2543083,      0.19132075,      0.22172347,      0.23584613,      0.06839103, 
    -0.06466474,      0.11798778,      0.23309976,     -0.10207432,     -0.32937306, 
    -0.32816312,     -0.13413736,      0.25317943,       0.3729006,      0.18043454, 
     0.10212463,      0.08740487,      0.15190825,      0.24525113,       0.2883608, 
      0.3699965,      0.36407745,      0.10556343,      0.12610763,      0.14384644, 
      0.2375025,     0.004912844,     0.056526773,    -0.024525896,     -0.17660536, 
    -0.16292529,     -0.34079698,     -0.27434102,     0.116698794,      0.39032397, 
     0.22940105,      0.15418401,      0.01435382,      0.07077421,      0.15594941, 
     0.21379693,       0.3412839,      0.35756764,      0.29118636,      0.14176854, 
     0.12880099,      0.24213782,       0.2318999,     0.052948497,    -0.019152597, 
    -0.26027247,      -0.3933348,     -0.36048344,     -0.33462447,    -0.094076514, 
     0.15317398,      0.13994008,     0.066593595,      0.05555267,     0.098982595, 
     0.12516116,       0.2196225,      0.25538802,     0.045989856,    -0.007690126, 
   -0.053544648,     0.055618998,      0.20088151,      0.32978165,      0.22132191, 
     0.19646445,     -0.17869009,      -0.4727992,     -0.47991925,     -0.20706627, 
   -0.054720476,      0.18697111,      0.29024538,     0.015073236,     0.036711603, 
    -0.13329189,    -0.088884726,    -0.001487122,       0.0958486,      0.20641054, 
   -0.038923845,    -0.091129616,     0.061676234,      0.21218517,      0.19940972, 
      0.1841389,      0.30268267,    -0.017966744,     -0.35386226,      -0.2357512, 
      0.0499995,      0.24267034,       0.4405527,      0.15039694,     -0.20030093, 
        -0.2884,     -0.16672276,     0.027342618,     0.014509937,     0.064127885, 
     0.06476368,      0.10282806,     -0.07734001,    -0.045225956,      0.14646421, 
     0.21203212,       0.0971045,      0.14556849,      0.33764988,       0.2661219, 
     0.18410031,      0.15040503,      0.18334673,        0.354295,    -0.033780713, 
     -0.6153415,     -0.65289855,      -0.4937188,     -0.34661448,     -0.18618576, 
    0.042652514,       0.0605652,      0.09348508,      0.12599698}, {
    -0.24098836,      -0.2217674,     -0.05488024,      0.07406554,      0.29059896, 
      0.5034356,      0.57274973,      0.53200775,      0.36340848,      0.22603348, 
     0.06546681,    -0.023006052,     -0.11445018,     -0.11462913,     -0.20542547, 
    -0.20127465,     -0.33016858,     -0.38659346,      -0.4260311,     -0.42740753, 
    -0.47485283,     -0.36867052,     -0.31876236,     -0.16230872,    -0.043267775, 
     0.03538569,      0.17939447,      0.34095845,        0.330351,      0.19312783, 
   0.0026000242,   -0.0009485412,     -0.07330891,    -0.040554002,     -0.06409876, 
   -0.037880663,     -0.08031073,     0.007755801,     0.024165638,     -0.04849783, 
    -0.09346016,      -0.2167232,     -0.35172296,      -0.3021554,     -0.23115934, 
    -0.18946595,    -0.029483093,      0.16392733,      0.27195895,      0.33286285, 
     0.27452192,      0.14701383,     0.078604475,      0.01900291,     -0.06572167, 
    -0.09475814,      -0.1777033,     -0.14269072,     -0.11946907,    -0.058326036, 
   -0.015042062,     -0.09318117,      -0.1287496,     -0.18467681,     -0.22044308, 
    -0.23902102,     -0.19786373,    -0.093343765,      0.06734275,      0.11843346, 
     0.20983799,      0.35656232,       0.3113328,      0.11891891,    -0.042451456, 
    -0.09949195,    -0.070690624,     -0.09224958,     -0.15661705,     -0.15422003, 
    -0.07809837,    -0.008016522,     -0.13912937,     -0.14789245,    -0.119364254, 
    -0.18370391,      -0.2631476,      -0.2854695,     -0.13025586,    -0.111457966, 
   -0.036920197,      0.11694543,      0.26230147,      0.15435606,      0.14194536, 
     0.09807049,      0.09589993,    -0.041056138,     -0.13708901,      -0.2040097, 
    -0.22132753,     -0.08552925,      -0.0639723,     -0.08663541,     -0.11287606, 
    -0.11754862,    -0.027453253,    -0.050128568,      -0.1481895,     -0.21218874, 
    -0.17824487,     -0.14367115,     0.031925853,      0.20164923,      0.23647824, 
     0.22741608,      0.13977143,      0.08601597,      0.04094323,    -0.005693108, 
    -0.03517322,     -0.01434703,      -0.1742402,     -0.23069347,     -0.13742733, 
    -0.08864384,     -0.18773252,     -0.21228918,      -0.1662801,     -0.11175884, 
   -0.116272084,     -0.13222405,      -0.2436996,     -0.07045055,      0.06426363, 
     0.17975043,      0.24677628,      0.28886384,     0.102663726,     -0.02415409, 
   -0.101824984,    -0.084742956,    -0.005689988,     -0.08893715,     -0.10108704, 
      0.0217635,       0.1200411,     0.062819436,   -0.0007170711,     -0.12533097, 
    -0.10002876,    -0.037496857,     -0.16502792,     -0.12502524,     -0.23571764, 
   0.0074231317,      0.16379678,      0.27660096,      0.23112346,      0.03241724, 
    -0.11676032,      -0.1413524,    -0.097850315,     -0.22131796,     -0.20677732, 
     -0.1592127,     -0.28902557,     -0.06715476,     -0.10979836,     -0.26860854, 
    -0.19043382,   -0.0010189328,    -0.021210104,     -0.08076712,     -0.13940856, 
    -0.06151789,     -0.34135616,     -0.20178273,       0.0414238,      0.24068299, 
     0.21515287,    -0.013098318,      0.04186432,      0.16817237,      0.21124329, 
     0.04735166,     0.014773445,    0.0010191709,    -0.067088716,    -0.063832566, 
    -0.20210148,     -0.20986442,     -0.21608208,      -0.3049133,     -0.10943163, 
   -0.019389667,     0.005035324,     0.003302072,     -0.42365378,     -0.27022552, 
     0.07823629,      0.28312415,      0.30787075,      0.21391489,      0.07477602, 
     0.09315224,      0.24015741,       0.2283828,      0.24446948,       0.2091623, 
     0.07986526,    -0.053155348,     0.014040728,     -0.14448456,     -0.13545746, 
    -0.08492131,     -0.07405984,    -0.027622558,      0.03726285,     0.072784536, 
    -0.22027287,     0.012833746,      0.27636462,      0.40040746,      0.30810723, 
     0.19321086,     0.005455575,      0.03290668,       0.1508684,      0.10125323, 
     0.15448423,      0.14688382,      0.28553948,      0.17255382,    -0.059523538, 
    -0.15781006,     -0.15768698,     -0.08992621,      0.06276434,    -0.036430128, 
     0.11158278,      0.11143878,     0.110724166,      0.26461273,      0.31939802, 
      0.3201766,      0.30179313,      0.22262968,      0.18756533,      0.19010308, 
     0.16728312,     0.058834765,     0.123631135,      0.13141319,      0.19293411, 
    0.083542116,     0.044258606,    -0.110611625,    -0.087320566,     0.017833726, 
     0.04947166,     0.020081993,     0.040944066,    -0.028382646,      0.19093494, 
     0.19257194,      0.11487779,      0.22229573,      0.10450856,      0.18652518, 
     0.15702291,      0.21911958,       0.1805818,     0.065276906,      0.11429512, 
     0.21889305,       0.2724398,      0.06717148,      0.09897673,      0.13888207, 
     0.02153708,    -0.064806744,     0.046739392,      0.19018978,      0.20994915, 
     0.22763665,      0.10801189,      0.06074084,     0.019014604,      0.13436565, 
     0.22279628,      0.20166017,      0.15201834,      0.15294679,     0.010711036, 
    0.022623962,      0.12233212,      0.05729265,     0.082160436,     0.106625415, 
      0.2736859,      0.17594343,     0.089032084,      0.07282633,      0.10218636, 
      0.2555653,      0.24204446,    -0.009767272,     0.029479576,    -0.018920975, 
   -0.035370406,      0.19969364,      0.23730165,      0.21313076,      0.14434695, 
     0.13024896,      -0.0402299,      0.05032549,      0.11053661,     -0.07233218, 
     -0.1272401,      0.11883018,      0.27150008,      0.23420452,    -0.051729154, 
    0.007869697,       0.1780788,      0.22025232,      0.20166834,    -0.033728976, 
   -0.025084907,    -0.038410306,    -0.009735844,     0.044182077,     0.061836537, 
     0.11726764,      0.14187305,     0.107673444,       0.1831573,      0.17513883, 
    0.019797804,     -0.22213669,   -0.0040900316,      0.25958624,        0.282655, 
     0.15125364,    0.0012539291,      0.10155187,      0.26187715,      0.21375255, 
     0.10626624,     -0.12367405,      0.09871206,     0.064672805,    -0.032865055, 
    -0.13916692,     -0.11754311,     0.020526536,      0.11307253,     0.066171676, 
    0.016436504,      0.02368217,    -0.021608206,      -0.0506279,    -0.039138876, 
     0.21626991,      0.10783292,      0.14682375,      0.14842553,      0.25710797, 
     0.35216674,      0.21959943,     -0.06340918,     -0.40449616,    -0.054342326, 
  -0.0086792605,     -0.08962139,     -0.14085764,    -0.021021983,     0.023989027, 
   -0.053105015,     -0.10848815,     -0.17325424,     -0.14215666,    -0.056107245, 
    -0.12954122,    -0.085661225,     0.065035395,      0.12417855,      0.07992014, 
   0.0041899243,      0.14902136,       0.2844308,      0.18126245,     -0.14277638, 
    -0.45433637,     -0.28627685,     -0.32366064,     -0.31206006,     -0.15796083, 
   -0.090547465,     0.010757405,       0.0320359,     -0.16021061,     -0.21154664, 
    -0.07661858,     0.007728188,    -0.016041733,     -0.06474417,     -0.05038492, 
   -0.020897971,      0.05584656,      0.19009507,       0.3580711,      0.26386458, 
    -0.11543943,     -0.33559874,     -0.43471238,     -0.43131465,      -0.3641222, 
     -0.2500863,     -0.09848666,     -0.10776269,     -0.30532318,     -0.27997562, 
    -0.19271113,     -0.11994443,     0.062496442,     -0.00993335,     -0.20236002, 
   -0.018787961,      -0.0658609,     -0.20120518,    -0.027859192,      0.28405818, 
     0.19999497,    -0.020447072,    -0.018062403,     0.042172346,     -0.19315566, 
      -0.624441,     -0.51881284,     -0.37893426,     -0.44529122,     -0.56414735, 
    -0.41748133,      -0.2881873,   -0.0017337373,     0.086513914,     0.082125135, 
    0.054724056,    -0.016746042,    -0.006693535,    -0.052202992,     0.038175207, 
    0.013535425,     -0.21253635,     -0.44895378,      -0.2530163,    -0.085455626, 
   -0.028096128,     -0.13799356,       -0.577675,      -0.6493143,       -0.576775, 
     -0.5237009,     -0.29563302,     -0.08348936,     -0.06137833,     0.014905444, 
     0.13924515,      0.28472707,      0.28727067,      0.19739136,        0.265256, 
     0.27526084,      0.25617522,     -0.07689638,     -0.17948782,     -0.31634808, 
     -0.3167624,     -0.29593796,      -0.3155685,      -0.3948846}, {
    -0.13547914,    -0.052928828,    -0.018442137,     0.022289082,     0.034435656, 
    0.111134954,      0.21659683,      0.27066806,      0.29274628,      0.31713542, 
     0.24896045,      0.23456565,     0.052945014,    -0.011914405,     -0.06810725, 
    -0.15551393,     -0.20507511,      -0.2697134,     -0.32702765,     -0.33279166, 
     -0.3751493,     -0.32728446,     -0.07737407,     0.007193575,    -0.030407611, 
    -0.00629458,      0.11018942,      0.12730172,     0.096847296,       0.0892078, 
     0.11852285,      0.13631424,       0.1288618,      0.07681342,     0.023912562, 
   -0.045338776,      -0.0629358,    -0.073648274,     -0.09448017,     -0.12877098, 
    -0.14815204,     -0.19197173,     -0.20548204,     -0.27705356,   -0.0008456365, 
  -0.0004614834,     -0.09351258,     -0.09338573,    -0.003885168,     -0.00055225, 
    0.026723009,     0.111397356,     0.054593146,     0.057744816,      0.12419373, 
     0.05086584,    -0.008325448,     -0.11116555,     -0.12914377,     -0.14521314, 
   -0.057961263,      -0.0834828,     -0.13247068,     -0.11807788,     -0.14049806, 
   -0.114625625,    -0.025686037,       -0.070632,    -0.040738102,      0.04249622, 
     0.03306242,     0.093036495,     0.054193214,      0.13590695,       0.1836263, 
     0.21314351,     0.107136406,       0.0392866,     0.049651165,     -0.03883491, 
    -0.09947414,     -0.06709932,    0.0052567543,    -0.067094564,      -0.1908351, 
    -0.23647483,     -0.25511715,      -0.2377098,     -0.17558332,     -0.16905238, 
    -0.11931655,    -0.048539575,    -0.004972405,      0.09272139,     0.039260637, 
   -0.018843759,     0.084495544,      0.20541263,      0.03277668,      0.04822502, 
   -0.044007592,    -0.026360234,     0.052401308,    -0.082552515,      -0.0913406, 
    -0.13385366,     -0.22352424,     -0.23925608,     -0.21928747,     -0.19673513, 
     -0.2861887,      -0.2788244,     -0.10786566,     -0.02105212,    -0.013659842, 
   -0.009365246,       0.0405122,      0.16485916,      0.17818776,      0.06028959, 
    -0.09057843,     -0.07106809,      0.07484383,       0.0489313,     0.008665972, 
    -0.04968587,    -0.097651325,     -0.16317365,     -0.20941107,     -0.13863209, 
    -0.15332122,     -0.21833359,     -0.39687264,     -0.20302273,    -0.031107169, 
     0.07972982,      0.07745177,       0.1496714,    -0.019627463,     -0.07990013, 
    0.115627505,       0.2134408,      0.08284439,    -0.055916507,    -0.006966193, 
    -0.03214474,     -0.12907408,     -0.17299847,     -0.10959064,      -0.1047115, 
     -0.2575588,     -0.32484344,     -0.40530428,      -0.3062758,      -0.3446352, 
    -0.24859104,     -0.12715358,      0.09388655,      0.17236117,     0.023549385, 
     0.08014182,      0.15829313,      0.16531178,      0.21528642,     -0.02973612, 
   -0.057272714,     -0.07293201,    -0.122623004,   -0.0104735335,     0.022427425, 
    -0.03713662,     -0.15496746,     -0.23609266,      -0.4646692,      -0.5394985, 
     -0.4937938,     -0.43001783,     -0.36655763,     -0.18536341,    -0.025370583, 
     0.02272181,      0.18501002,      0.23263568,      0.12259076,       0.0899256, 
        0.13385,     0.111480534,      0.04484812,   1.6046251e-05,     -0.14110842, 
    -0.25956872,     -0.15695077,     0.008789147,     -0.07324259,     -0.21414657, 
    -0.30822343,     -0.41235733,       -0.350623,     -0.27316722,      -0.1835468, 
   -0.012837507,      0.13835043,      0.18876117,      0.18561734,       0.2657306, 
     0.18906121,      0.13671656,     0.124933496,     0.025780255,     -0.01444687, 
    -0.08863866,     -0.11519738,      0.03095434,    -0.042744827,     0.025794957, 
   -0.023111388,     -0.08363995,     -0.08764532,     -0.15972666,    -0.071509376, 
   -0.065408714,      0.07603946,     0.123149626,      0.17516035,      0.18519723, 
    0.124321125,     0.033361863,     0.093670525,      0.18759632,      0.12750998, 
     0.07642753,     -0.11698448,     -0.19324476,    -0.110240035,    -0.113002755, 
    0.011730367,     0.052364036,      -0.0674006,     -0.16346541,     -0.04908051, 
     0.05505626,      0.05690853,      0.09369191,     0.108585544,      0.18013225, 
     0.16848761,      0.23804767,      0.19424738,     0.112998694,       0.1575612, 
    0.091343544,      0.11524274,     0.013671697,     0.037054557,     0.016981306, 
    -0.16587688,     -0.13660365,      0.19079724,     0.110668674,     0.006625464, 
     0.04608699,     0.052515514,      0.15575816,      0.06453558,      0.05320551, 
     0.10101101,       0.2384669,      0.26945773,      0.26232046,       0.0924075, 
     0.07518896,     -0.07016194,    -0.011373594,     0.028782234,      0.08614488, 
    -0.04778608,      -0.1773005,    -0.052901477,     0.023639945,      0.06346291, 
     0.11864297,     -0.06745126,      -0.0562561,      0.10986274,     0.085954346, 
    0.027472582,     0.017250184,      0.13237743,      0.15488796,      0.24515538, 
     0.32496652,       0.3955936,      0.20690064,      0.07017613,    -0.050581533, 
   -0.084743135,     -0.18876809,     -0.21323276,     -0.11322082,     -0.06519556, 
   -0.022286566,      0.09833714,     -0.04501681,     -0.19431444,    -0.073217034, 
   -0.023665482,     0.071206585,     -0.05933533,     0.052419584,     0.040989485, 
     0.20038006,        0.373541,       0.5268078,      0.35568237,      0.16853395, 
   -0.059115063,    0.0066773198,      0.03734926,     0.010267869,     0.061930835, 
     0.19368003,     0.041506253,     0.078939356,     0.021790482,      0.08037275, 
  -0.0028658488,     -0.20241655,    -0.058094326,    0.0092743505,    -0.037176732, 
    -0.06828442,     0.076478355,      0.13045885,      0.33640867,       0.4250769, 
     0.22507614,      0.09101389,     0.013822125,       0.0846619,      0.17519082, 
      0.1463438,     0.101195395,      0.18131743,    0.0012611996,     -0.15739447, 
    0.020716561,     0.019521125,     -0.08524741,      -0.1084175,     0.066797115, 
     0.05552687,     -0.17065506,    -0.085441396,     0.050684076,      0.13712133, 
     0.16053009,      0.20312457,       0.2592385,      0.19125633,      0.16046795, 
     0.16383278,      0.20148373,     0.055568792,      0.04151234,      0.16254953, 
    0.019593863,      0.15051313,    -0.029894205,     -0.20015554,     -0.29769906, 
    -0.21810845,    0.0014674189,     -0.05007051,      -0.2755958,     -0.18249698, 
   -0.023807483,        0.065407,     0.112487994,      0.21963905,      0.18186897, 
     0.21646081,      0.16874951,       0.1338719,      0.14447892,      0.08762571, 
    0.043387465,     0.041921508,     -0.01834895,  -1.1300277e-05,     -0.17978548, 
    -0.13664728,     -0.24694023,     -0.26835135,     -0.16078947,     -0.35986158, 
    -0.38302377,      -0.2258862,     0.027146371,      0.05341642,      0.15877081, 
     0.22520292,      0.23179299,      0.13743287,      0.10165894,     0.074926786, 
     0.09721193,     0.087292686,     0.081110954,    -0.026902165,    -0.021813912, 
  -0.0055012233,     -0.21223804,     -0.43689257,      -0.2892516,     -0.16265918, 
    -0.16751134,     -0.36447716,     -0.41824448,      -0.0991815,    -0.047509477, 
    0.053099304,      0.06285957,      0.07801103,      0.27304223,       0.3136574, 
     0.20637618,      0.21830533,      0.18689021,      0.06788482,     0.096301556, 
      0.1331001,    -0.053814735,     -0.21392792,     -0.15082508,     -0.12959123, 
    -0.09699301,    -0.055309147,     -0.17039146,      -0.4085618,       -0.371108, 
    -0.17594646,    -0.090805456,      0.07543788,      0.32314685,        0.304908, 
      0.2845561,      0.26541567,      0.23176424,      0.20840354,      0.15490057, 
     0.19283628,      0.20416628,     0.043853886,      -0.0204966,    -0.030884478, 
    -0.11467684,     -0.16833346,    -0.078911155,       -0.258895,     -0.28188863, 
    -0.19078135,     -0.22262093,      -0.2699211,     -0.21327288,    -0.082399584, 
     0.10273644,      0.04522435,      0.12832049,      0.13268934,       0.3005811, 
      0.1148176,      0.03529368,     0.109380774,     -0.06745104,      -0.3351373, 
    -0.25853783,      -0.3007377,      -0.2208713,     -0.16978146,    -0.029097753, 
     -0.1698648,     -0.12420965,     -0.12730093,     -0.22584607}, {
     0.35451382,       0.4211711,       0.3639778,      0.32010296,      0.27669516, 
     0.11175208,     -0.11452636,     -0.29500115,      -0.4257837,      -0.5977618, 
     -0.6452389,      -0.6220053,      -0.5188486,     -0.36851135,     -0.26167133, 
   -0.061670646,      0.12109904,      0.31999514,       0.4043597,      0.48181823, 
      0.4327649,      0.38124716,      0.43704644,       0.4499413,      0.47230625, 
      0.4012798,      0.36897087,        0.184195,      0.04765308,     -0.13077436, 
    -0.20470251,     -0.34459832,      -0.3315598,     -0.25597426,     -0.12062857, 
    -0.08315598,     0.031696115,     0.036666762,      0.11888245,      0.14520577, 
      0.2864802,      0.32014954,      0.34933895,      0.36219653,      0.41732383, 
     0.44620878,       0.4393996,       0.2806367,      0.22961034,         0.06379, 
    0.009351439,     -0.07672965,      -0.1997478,     -0.31299818,     -0.43901268, 
    -0.41679436,     -0.33543786,     -0.13665608,     0.043003283,    -0.016045313, 
    -0.07407142,     0.027261302,      0.10904896,      0.19207534,      0.24445137, 
     0.26979557,      0.40835196,      0.37592798,       0.2748449,       0.2412388, 
    0.114558384,   0.00076822634,      0.03326149,     -0.05394986,     -0.14096509, 
     -0.2126487,      -0.3072256,     -0.38268822,       -0.332166,     -0.18556792, 
    -0.06623227,    -0.079974994,      -0.0640913,      0.03646275,      0.11318698, 
      0.1415883,      0.24094804,      0.26536646,      0.34482235,       0.2850191, 
     0.29807138,      0.21308729,      0.12308127,      0.06985252,     -0.06476129, 
    -0.03906866,      -0.1600865,     -0.22270742,       -0.332376,     -0.25897977, 
    -0.20188531,     -0.11697484,    -0.117835835,     -0.13126332,    0.0023281989, 
    0.018663796,       0.0356748,     0.050970268,      0.13997136,        0.261949, 
     0.27604672,      0.25605935,      0.14317386,      0.22273295,      0.13569862, 
     0.11408082,     0.019753706,     -0.04313147,     -0.14878272,     -0.15447901, 
    -0.19989772,     -0.23393251,     -0.23142333,     -0.21857542,     -0.23300798, 
    -0.22383185,     -0.09329297,      0.01545213,     -0.02342269,   -0.0045307237, 
     0.15371881,      0.22312383,      0.17957026,       0.2384607,      0.13588779, 
     0.11139613,     0.056260448,     0.014999897,     0.044824425,     -0.07153701, 
    -0.18429407,     -0.21581124,     -0.21198829,    -0.015320111,     -0.10206509, 
    -0.30481863,     -0.16648239,    -0.062381107,      0.04507581,     -0.07895126, 
    -0.09051975,      0.05173476,      0.14975728,      0.08200312,      0.20170538, 
     0.18811145,      0.18225576,      0.09674757,       0.1207053,      0.11738037, 
     0.16115555,      0.02874303,     -0.20513815,     -0.13364093,     0.093374975, 
     -0.1273726,     -0.19491479,     -0.13743351,     -0.14203966,    -0.054292977, 
    -0.09061669,     -0.26162943,     -0.07300479,      0.00297548,   -0.0014362397, 
    0.007809147,      0.23545238,      0.16858543,      0.12706202,      0.08874991, 
     0.12602752,         0.08081,      0.08751327,     0.017418915,     -0.10149601, 
   -0.028266886,     0.094566286,     0.034217015,     -0.10871558,     0.048685264, 
   -0.061534863,      -0.2474144,     -0.24747169,     -0.11663366,     -0.06949397, 
     0.03118511,      0.11755267,       0.1705248,      0.37500545,       0.2554715, 
     0.16063899,   -0.0059007285,    -0.005459422,     0.037376687,      0.05852366, 
    -0.16566312,     -0.36611918,     0.034234937,      0.09299195,       0.1454564, 
     0.09573431,     0.026637703,     -0.15536535,     -0.25230858,     -0.26159015, 
    -0.15068509,      0.12726602,      0.18184556,      0.19133475,     0.095158294, 
     0.34924817,       0.3011685,      0.17667793,     0.083869934,    -0.022744423, 
    0.036619436,      0.05726531,      -0.1744664,      -0.2183722,     0.022804357, 
     0.15657754,      0.06950437,     0.045624092,     -0.05587442,     0.040108837, 
    -0.20319617,      -0.3251071,   -0.0023739417,      0.13392186,       0.2621127, 
     0.14784408,      0.12716006,      0.09984468,      0.09131559,      0.08823299, 
    0.055140484,    -0.017084489,    -0.033588633,    -0.048014082,     -0.16980314, 
   -0.037589386,     0.004516956,     0.036717743,      0.11830175,     0.051069453, 
      0.0660652,      -0.2346241,     -0.31404513,     -0.10610893,     0.110218406, 
   -0.036456056,     -0.03577299,     0.028497469,     0.099240616,     0.007243977, 
   -0.094741344,     -0.04091326,     -0.09912585,     0.015121384,     -0.11137968, 
    -0.27497378,     0.025505902,    -0.040814333,     -0.11022294,    -0.026985478, 
    0.080505095,     0.041461054,      0.05030756,     -0.08220113,      -0.2524236, 
    0.020548116,      0.12632923,     -0.03259325,     -0.19606729,      -0.1049111, 
     0.12523177,       0.0629096,    -0.009137889,      0.08604733,     -0.08256734, 
    -0.26427007,     -0.37172288,     -0.47024542,     -0.11227283,       0.0505151, 
     0.05359591,      0.05638904,    -0.046021946,     -0.12264268,       0.1305214, 
    -0.11783713,     -0.22087903,     -0.10323481,      -0.0843067,     -0.19086784, 
    -0.14845155,     -0.03060296,      0.07047133,      0.18131202,      0.08638155, 
    -0.11459438,     -0.35106024,      -0.5785873,     -0.73528385,     -0.50993747, 
    -0.14181975,    -0.025465418,     0.035886034,     0.042354003,     -0.14613618, 
    -0.10955899,     -0.18370505,      -0.5260134,     -0.42197788,       -0.305233, 
    -0.35448354,     -0.20596422,     -0.08444415,     0.023762556,      0.06441424, 
     0.08390624,      -0.0577311,     -0.36897734,      -0.5697353,     -0.39521292, 
    -0.08847977,     -0.21040058,     -0.27734083,     0.042688835,     -0.08023561, 
     -0.2142477,     -0.23188172,    -0.122420326,       -0.409643,     -0.47279567, 
    -0.35128197,      -0.3322273,     -0.32802892,     -0.37145975,     -0.37991408, 
     -0.2943198,     -0.19514208,      0.10062337,     -0.27600724,      -0.3711718, 
    -0.26319358,    0.0019154405,       0.1550942,     0.016631221,     -0.10956477, 
    -0.19881164,     -0.21890016,     -0.47021332,     -0.42261928,      -0.3115317, 
    -0.23488547,    -0.044120584,     0.029207604,     -0.14166059,    -0.095859155, 
    -0.30157667,     -0.27126765,     -0.17999618,    -0.024018953,      0.11763197, 
   -0.049575668,     -0.17252065,     -0.07871796,     0.024177272,     0.071922466, 
   -0.005083345,    -0.074607894,     -0.05288212,     -0.09765205,     -0.28493837, 
     -0.3392975,      -0.3202412,     -0.23905295,     -0.04199878,    -0.056119807, 
     0.03322178,     0.035521947,     -0.13334073,     -0.08539309,       0.1115458, 
     0.20177357,      0.27496865,      0.20832829,      0.09149496,     0.036018394, 
    0.012149485,      0.08979499,     0.051978417,     -0.04589042,     0.035350487, 
   -0.029935502,     -0.37306085,     -0.20466065,      -0.2904378,      -0.0323729, 
   -0.109638676,     0.029752612,      0.05493731,    -0.034636706,     0.025763417, 
    0.073995166,      0.16933371,      0.30751532,      0.27362177,       0.2855193, 
      0.1793181,     0.059794504,     0.022279967,      0.12683208,     0.057866607, 
    0.108332984,     0.109420784,    -0.024552591,    -0.063252464,      -0.2889651, 
    -0.08553073,       0.0778105,      0.18303636,      0.17491744,     0.019402849, 
     0.13630116,      0.12582554,     0.122086436,      0.23838693,      0.26125193, 
      0.3700797,       0.3458636,      0.19599272,     0.014514222,     0.061756715, 
     0.03028518,     0.042738575,     0.038344726,      0.03141606,    -0.007826155, 
    -0.18161178,     -0.15448119,     0.007782396,     0.053031534,     0.016839964, 
    0.008667471,     0.022764545,     0.007984745,    -0.023474986,    -0.056760907, 
    0.022536997,      0.17343818,      0.38689885,       0.3289273,       0.2921639, 
      0.2731419,        0.135631,     0.033494893,      0.13446718,      0.04191331, 
    -0.03612867,     0.047921654,    -0.057084568,      0.03471781,     -0.22450556, 
    -0.22651395,     -0.16313182,      -0.2454151,     -0.26042813,     -0.27652505, 
    -0.28407738,     -0.22545105,    -0.062434785,      0.08793728}, {
     -0.5971316,      -0.6840298,        -0.62305,      -0.6212924,     -0.51223516, 
    -0.42767042,     -0.39055505,     -0.35582042,      -0.2843512,     -0.10586142, 
    0.016104631,        0.251032,      0.44317412,       0.5279933,       0.5289701, 
     0.55124784,       0.4671795,       0.4342998,       0.3458205,      0.29586646, 
     0.24865898,     0.027613718,      -0.6349317,      -0.6145475,      -0.5195175, 
    -0.40263692,     -0.29348454,     -0.24244905,     -0.22946693,     -0.14223304, 
   -0.114759095,     -0.06443538,      0.03332916,      0.06813104,      0.18539631, 
     0.21321827,      0.25136253,      0.13431072,      0.04228746,     0.033935837, 
      0.1273626,       0.2870447,       0.3984689,       0.2062585,      -0.6055305, 
     -0.5438472,     -0.38287437,      -0.2956071,     -0.17586172,     -0.19368464, 
    -0.19893946,      -0.1361949,    -0.094744794,    -0.009022839,    0.0062065683, 
    0.081760116,      0.23495615,      0.27286932,      0.31061274,       0.1974885, 
     0.18465911,      0.12869942,      0.27107713,      0.36587286,      0.34472114, 
     0.21500543,      -0.6413936,     -0.51922405,     -0.37211734,     -0.23136608, 
    -0.12554805,     -0.18817073,    -0.120902546,     -0.07902569,     -0.08157664, 
  -0.0035319314,      0.07390033,      0.12160228,      0.22127798,      0.18125646, 
     0.28516352,       0.2542394,       0.2384599,       0.2176898,      0.28886953, 
     0.34261847,      0.25618833,      0.15781435,     -0.62666136,      -0.5031911, 
    -0.41678938,      -0.3153791,     -0.28236642,     -0.24956149,     -0.25224823, 
    -0.07227226,      0.08543741,     0.012981784,     0.016788132,       0.0704526, 
    0.012703744,      0.17673793,       0.2818612,       0.3031537,      0.22953795, 
     0.21715781,      0.29969722,       0.3772242,      0.26744464,      0.09741406, 
    -0.50053096,     -0.42131183,      -0.3377394,     -0.19013846,     -0.18660872, 
    -0.25655696,     -0.13180465,    -0.083793856,    -0.063065134,    -0.046769746, 
   0.0053503634,     0.052589413,      0.10484469,      0.17246519,      0.20555104, 
     0.28272268,         0.28013,       0.2337323,      0.20802225,      0.19864526, 
      0.2702034,      0.19270816,     -0.39600873,       -0.347421,     -0.23543042, 
    -0.16653003,      -0.2196539,     -0.18997537,     -0.13267067,     -0.04494803, 
    0.027333027,     -0.06854408,    -0.090164214,      0.08106316,       0.1638977, 
     0.17401846,      0.21723557,      0.23525314,      0.24566038,      0.26767838, 
     0.15510222,      0.30267745,      0.31667602,      0.11479468,     -0.37943742, 
     -0.3440599,     -0.15759763,     -0.15380344,     -0.23293659,     -0.21807225, 
    -0.16037801,    -0.074384116,     -0.03286116,    -0.060230944,    -0.017516242, 
    0.051903963,      0.20249704,      0.23049521,      0.20657915,      0.19577704, 
     0.16981885,      0.30961663,      0.35609174,      0.27149284,      0.15654323, 
   -0.060237423,     -0.30878487,     -0.27889097,     -0.21347505,     -0.20685531, 
   -0.047739685,     -0.12667918,     -0.19413409,     -0.04483756,    -0.047866944, 
    -0.07033041,     0.031227218,      0.08140096,       0.1526021,      0.11236539, 
     0.12214646,      0.15879577,      0.22155917,      0.40299168,      0.39614186, 
      0.2598969,     0.090101466,     -0.28491384,       -0.329216,     -0.31538165, 
    -0.36994427,     -0.11411237,    -0.061176337,      -0.1405237,     -0.16049945, 
    -0.16651583,      -0.0850676,     -0.08057639,     -0.04793149,     0.026740722, 
     0.18329334,      0.19076005,      0.09587516,     0.028986966,     0.122161984, 
      0.3554435,       0.5221602,      0.48295784,      0.28431332,     -0.07925767, 
    -0.48756593,     -0.35372266,     -0.21511047,     0.012197366,     0.008534859, 
    -0.10292315,    -0.105331026,     -0.18963206,     -0.08093397,     -0.10424187, 
    -0.15755579,     -0.14224978,     0.058080077,      0.13217077,      0.15825717, 
     0.12065082,      0.15601373,      0.21377912,       0.4125723,      0.48518407, 
     0.28773212,     -0.08977282,      -0.3797301,     -0.23537208,     -0.16529444, 
    -0.07369015,    -0.111987576,     -0.28841722,      -0.3299203,     -0.14628388, 
    -0.17867301,     -0.07505105,     -0.17030871,     -0.03236192,       0.0752889, 
    0.089895435,      0.09710944,    0.0030642026,     0.105335794,      0.19723468, 
     0.27722535,      0.29895675,      0.28448036,      0.11890208,     -0.31360397, 
   -0.104876466,     -0.03094172,    -0.043589193,    -0.036172047,     -0.23445512, 
    -0.34444857,     -0.26368374,    -0.017917054,    -0.005609452,     -0.03271173, 
    0.008368449,      0.12471206,      0.12625965,      0.06215042,      0.05121547, 
     0.05318347,      0.09414847,      0.24745111,      0.36407337,       0.3289655, 
     0.18253905,     -0.31590956,    -0.017264988,      0.10868453,     0.035852112, 
    0.076361306,     -0.14953135,     -0.10450691,     -0.09971945,     -0.03298556, 
    -0.09752471,     -0.04800429,    0.0034103664,      0.21326768,     0.075831085, 
   -0.024383966,     0.027240725,     0.013868491,      0.09098736,     0.102986574, 
     0.22313055,       0.3241805,      0.27679276,     -0.20615248,    -0.036818102, 
     0.20838752,      0.15183799,     -0.01850209,     0.027886149,      0.19619599, 
      0.1342074,      0.16072433,      0.09887789,      0.05733771,      0.13550837, 
     0.10208967,      0.12269387,      0.05360794,     0.051321015,      0.17733075, 
    0.046426434,       0.0621331,      0.15957332,       0.2280727,      0.37188324, 
    -0.28119254,     -0.11243123,      0.12389019,      0.18760376,    -0.026639905, 
    -0.05876646,     -0.06849397,      0.04167404,      0.14178938,      0.06566817, 
    0.033552583,     0.039605323,      0.12983008,      0.10341217,      0.03777511, 
   -0.016155995,    -0.002898691,     -0.05347882,      0.14280416,      0.14725803, 
      0.1857688,      0.18640046,       -0.348492,     -0.23295233,      0.11125439, 
      0.2695757,      0.22260907,      0.06433223,      0.05558962,      0.16032764, 
     0.28525648,      0.21431397,      0.18229832,      0.13245076,       0.1311595, 
    0.076103166,    -0.027969277,     -0.10542005,     -0.10512365,     0.016430516, 
     0.12467403,      0.07117075,      0.09605646,       0.1492244,     -0.35918698, 
     -0.3376009,    -0.016055811,      0.13847525,      0.17790523,       0.1051909, 
   -0.032711796,     0.049701735,      0.10597039,      0.17032331,     0.041759185, 
     0.19984417,      0.10223676,      0.08417882,     0.054442704,     -0.21072768, 
    -0.15551789,      0.02441987,    -0.087335445,    -0.023681879,    -0.025603514, 
    0.073783845,     -0.07815094,     -0.27874592,     -0.23660524,     0.004259836, 
     0.08399074,     0.049368292,      0.07607208,      0.10843556,      0.12786835, 
     0.13214283,     0.054256093,     0.085234426,     0.017055143,      0.04691095, 
   -0.058775235,     -0.11097649,    -0.056940958,     -0.28768268,     -0.09387095, 
    -0.06380411,      -0.1328499,     -0.21598133,     0.047548812,    -0.036775295, 
    -0.20559229,     -0.09508789,      0.06310065,      0.12591703,      0.13012828, 
    0.061930187,      0.14097773,     0.082761645,     0.046241827,    0.0039115227, 
    0.010600423,    -0.012748108,      0.03341719,     -0.10041171,     -0.18482469, 
     -0.3151636,     -0.19515239,      -0.1489496,      -0.2609835,     -0.47438505, 
    0.028874703,    0.0028374705,     -0.21328993,     -0.22932409,    -0.114341095, 
      0.1483734,       0.2040739,        0.217216,       0.1630841,       0.2273415, 
     0.13462095,  -0.00059046265,   -0.0085200425,    -0.023503833,     -0.11817255, 
    -0.16992703,      -0.2680962,     -0.25113836,     -0.16994363,      -0.2721179, 
    -0.57726514,      -0.5429467,     -0.04757443,      0.15071784,     0.088793375, 
    -0.10666682,     -0.24681611,     -0.32430035,     -0.26418108,    -0.028549703, 
      0.1037362,     0.023216126,     -0.12131089,   -0.0057676835,     0.100198574, 
      0.2156852,      0.06955449,     -0.09159726,     -0.19306104,     -0.17217007, 
     -0.3230483,      -0.4593995,     -0.46402204,     -0.47238985}, {
     0.47074276,      0.45816588,       0.3742441,       0.2526696,     0.054658655, 
    -0.03412175,     -0.10736678,     -0.18399633,     -0.16888122,     -0.16651152, 
    -0.10552907,     0.033653304,       0.1591039,      0.32218945,      0.32505772, 
     0.29708055,        0.320646,      0.20942004,      0.19510391,      0.30437037, 
      0.3886663,      0.41417244,       0.4158181,      0.30371886,      0.19761007, 
    0.048950084,     -0.04040258,     -0.09699139,     -0.13152163,     -0.22565404, 
    -0.26067093,      -0.2931785,      -0.1911049,     -0.17448156,     -0.08822856, 
   -0.024389835,      0.09374365,     0.071764745,     0.042981595,     0.017273229, 
  -0.0075992486,    -0.035265364,      0.12886098,      0.15818697,       0.3280125, 
     0.20047674,      0.10609945,     0.049962617,     -0.06433466,     -0.09641219, 
    -0.21116899,     -0.28963524,     -0.25350684,     -0.16106701,     -0.09176961, 
    -0.08758131,        0.041169,     0.017483179,     0.099325895,      0.09626437, 
     0.08854869,      0.11756636,     -0.06534295,     -0.17043208,    -0.028363742, 
     0.14870147,      0.30431193,       0.1540262,      0.05032832,    -0.018886048, 
    -0.20315497,     -0.19567013,     -0.28943983,     -0.14766854,     -0.16611144, 
    -0.14950582,     -0.16857576,     -0.06539886,     -0.12617004,     -0.10849044, 
    -0.18940248,     -0.19713928,     -0.14896238,     -0.14794426,     -0.09317325, 
    -0.09245044,    -0.107718416,     0.011326198,      0.25567552,       0.1963015, 
     0.06775364,     -0.12190417,     -0.12833892,    -0.038375523,     -0.08537223, 
   -0.091116495,      -0.1410557,     -0.22686079,     -0.12554634,    -0.052816473, 
   -0.115351275,     -0.26800397,     -0.09591725,      0.16802368,       0.2008992, 
      0.2222761,    0.0068172743,     -0.15131143,     -0.19745634,     -0.21374539, 
      0.2449908,      0.09954774,    -0.019461945,     -0.12796848,    -0.122779325, 
    -0.13140018,    -0.102089494,     -0.08315662,     -0.13612778,  -0.00032082727, 
   -0.055430133,     -0.19179724,     -0.14915037,     -0.07439551,       0.1031074, 
     0.20513044,      0.33503813,      0.19535325,      0.12033158,     -0.03451857, 
    -0.15513079,     -0.14894164,      0.16611373,      0.15464216,     0.027212245, 
   -0.053034924,     -0.10834642,    -0.107815385,     -0.13618985,    -0.060305614, 
   0.0072487113,     -0.10215387,     -0.16229737,     -0.14365603,    -0.015214386, 
   -0.111593515,     -0.05724536,    0.0080585405,      0.14644295,       0.1710785, 
     0.08276695,     -0.04002238,    -0.038678832,      0.06523191,       0.2155137, 
     0.23383036,      0.11211653,     -0.07198103,     -0.24818633,     -0.14497288, 
    -0.07631977,    -0.059211273,    -0.081635006,     -0.16067016,      -0.1104958, 
    -0.11246772,      0.06747972,      0.13625751,      0.12064385,      0.13390248, 
    0.073627464,     0.057827476,      0.13484243,     0.029634561,     0.052827124, 
     0.19406469,      0.25803682,       0.1772994,    -0.022160772,     -0.23586465, 
    -0.25052014,     -0.10227754,    -0.048702966,      0.10348313,     0.037565175, 
  -0.0068555903,      -0.3170538,     -0.13175936,      0.10304869,      0.15144722, 
     0.29913074,      0.19799457,      0.20193596,      0.24959789,      0.14057945, 
     0.01997929,      0.07155067,      0.33368313,      0.37893128,      0.17097163, 
    -0.09481075,     -0.23305595,     -0.18080305,     -0.05397816,       0.1456174, 
     0.22453827,     0.027719121,     -0.37714267,     -0.30529824,    -0.049373943, 
     0.06920218,       0.1719242,      0.24662578,       0.2946197,      0.27331355, 
     0.11788873,    -0.046527382,    -0.098550096,     0.086264364,      0.34922192, 
     0.40526012,      0.16220479,     -0.11963268,     -0.23000099,     -0.21982178, 
    -0.10073161,     0.009362663,      0.09255059,     -0.22138298,     -0.27695137, 
    -0.13017756,    -0.026517674,     0.062481493,      0.32501695,      0.31888783, 
     0.29074126,      0.16048233,       0.1764286,     0.057267647,       0.0043568, 
     0.10113303,      0.21301709,       0.3462398,      0.10435661,     -0.19051288, 
    -0.23364355,     -0.27989188,     -0.29909235,     -0.18175627,     -0.09377298, 
   -0.065190844,     -0.03130071,     0.097320676,     0.011896244,   -0.0037961318, 
     0.19075437,      0.19541857,      0.14304045,      0.27000007,      0.16962638, 
  -0.0048501957,     -0.06738091,    -0.060128987,     0.050457843,      0.28790674, 
     0.07215969,     -0.10930613,     -0.17049135,       -0.374032,     -0.37130323, 
    -0.21036355,    -0.102130815,     -0.36312622,    -0.079330295,      0.12152111, 
    -0.09038377,      0.13531764,      0.22538972,       0.1433829,      0.20163468, 
     0.19928277,      0.17203356,     -0.09761876,      -0.2581868,     -0.18195003, 
    -0.14923005,      0.17172952,     0.055248797,    -0.028246153,     -0.26148018, 
     -0.4306667,     -0.35436672,     0.063686095,     -0.35211253,     -0.30133313, 
    0.037132937,     -0.07456355,     -0.05921548,    -0.025542315,      0.01934498, 
     0.21475716,      0.28217044,      0.13938083,      0.08070842,     -0.16419014, 
     -0.1182517,     -0.09505888,    0.0145734595,      0.15450104,     0.005098935, 
  -0.0114637045,     -0.38182124,     -0.45702043,     -0.30390874,      -0.1767822, 
     -0.3663551,     -0.13089563,    -0.052511677,     -0.18576795,     -0.24284804, 
   -0.006737958,       0.1614893,      0.27585065,      0.19052856,    -0.018082961, 
    -0.13806888,       -0.229027,    0.0037072639,      0.06358356,       0.1436784, 
     0.14499706,      0.10760777,    -0.016204914,      -0.1782712,     -0.38101372, 
    -0.66999876,     -0.53302264,     -0.11077805,     0.002571519,    -0.105444156, 
    -0.31436667,      -0.1304523,     -0.02722255,     0.057458904,      0.16625796, 
     0.05544169,      -0.1278489,     -0.30312783,     -0.23673195,    -0.022733413, 
      0.1403877,      0.21506697,      0.26231745,      0.08726167,    -0.108749144, 
    -0.23776004,     -0.46871558,     -0.74496806,     -0.46681583,    -0.123287275, 
    -0.10070227,     -0.31064957,      -0.1700011,     -0.07510889,    -0.035809062, 
     0.13172342,     0.040840253,    -0.054209244,    -0.053568117,     -0.13716592, 
     -0.1732206,     0.081585504,       0.3567329,      0.32457796,      0.31196445, 
    0.055853337,      -0.3107752,      -0.4204458,      -0.5543126,     -0.97915816, 
     -0.6346877,    -0.058551632,      -0.1819953,     -0.16665189,    -0.102291234, 
    0.025808401,    -0.011752441,      0.06451307,     0.017920863,    -0.063499756, 
    -0.21371195,     -0.29518646,    -0.014376195,     0.120383225,      0.07425065, 
     0.10618762,      0.29830644,     0.059669502,     -0.19134033,     -0.41184068, 
    -0.45541662,     -0.99885505,      -1.4020296,      -0.7864971,     -0.09933988, 
    -0.07813292,     -0.04009172,     -0.06037758,       0.0843538,      0.10178584, 
   -0.096695565,     -0.25768057,     -0.38381025,     -0.19362593,     -0.03131812, 
     0.06116139,     0.023363693,     0.042528957,       0.4085765,       0.0904933, 
    -0.10031359,     -0.19749273,      -0.2988547,     -0.49296468,      -1.0310938, 
     -1.2881476,      -1.1658784,     -0.89875925,      -0.6402471,     -0.16610761, 
    0.017498316,     0.040595777,       -0.070382,     -0.23748048,    -0.097058445, 
    -0.18313421,      0.05975812,    0.0021337764,     0.033708703,       0.1895618, 
      0.5137286,      0.32965764,     0.013975735,     -0.13581339,     -0.24960247, 
    -0.19041613,      -0.2499281,     -0.56132686,     -0.70718855,     -0.85155547, 
    -0.91141087,     -0.76107293,       -0.604582,     -0.37204245,    -0.057332158, 
    0.080846205,     0.066151336,      0.09415754,     0.083388075,     0.009861605, 
     0.28367555,      0.29933906,       0.4769819,       0.5308404,       0.4341135, 
     0.11440984,      -0.0752264,      0.06165689,      0.16303465,      0.13356237, 
     0.35503024,      0.31492034,      0.23047432,       0.3920003,       0.5339291, 
      0.7232844,      0.63056433,      0.46834075,      0.41996902,       0.4287495, 
     0.31348363,       0.3608595,       0.4107587,      0.47216597}, {
    -0.16517514,     -0.21182765,     -0.15736872,    -0.122766666,     -0.18658958, 
    -0.19711435,     -0.19943269,     -0.23094372,     -0.21060595,      -0.2037069, 
    -0.24745592,     -0.19570021,     -0.22927175,     -0.30702356,      -0.4195428, 
    -0.40145323,     -0.36664584,      -0.3240609,      -0.3498122,     -0.25181946, 
     -0.2812724,      -0.2292357,     -0.16230945,     -0.18188435,     -0.06015432, 
   -0.093015976,     0.008764527,     0.033077154,     0.029248439,    -0.008443457, 
   -0.064864814,     -0.12919544,    -0.040479574,    -0.078691974,    -0.017091723, 
    -0.07685143,     -0.18573095,     -0.33896986,      -0.4243297,     -0.44471923, 
    -0.41814992,      -0.3766477,      -0.3428752,      -0.2823364,     -0.10752822, 
   -0.061853435,    -0.023279281,     0.089023076,      0.20420948,      0.17319128, 
     0.20630485,      0.15706417,      0.13427694,     0.031027572,      0.06908333, 
     0.06865545,     0.098340966,      0.07631477,      0.03550936,    -0.089830466, 
      -0.170626,     -0.21260576,     -0.23154156,     -0.30832916,       -0.307173, 
    -0.25228503,     -0.04693966,     0.029126137,     0.009972881,      0.09179901, 
     0.06711285,     0.078701414,      0.11424919,      0.12888008,       0.0778804, 
    0.103006706,      0.06355084,      0.10206272,     0.048189066,     0.096355885, 
      0.0704267,      0.06619433,      0.03378591,    0.0064485394,    -0.023181912, 
     -0.0751951,      -0.1574824,     -0.15374616,     0.013741297,     0.071934864, 
    0.058536436,      0.07237189,      0.06709011,       0.1006474,     0.098072335, 
      0.1059882,      0.08579237,      0.11245877,      0.11363949,      0.13988073, 
     0.17744103,       0.0885139,      0.12375472,      0.07855345,     0.021853792, 
    -0.05989435,     -0.16404548,     -0.22443004,      -0.1462388,     -0.13739575, 
     0.07776851,     -0.03670927,     0.035274185,      0.08997274,      0.11357132, 
     0.11656031,     0.023037875,     0.034610394,      0.06470292,      0.09147177, 
     0.14805818,      0.16257142,      0.15522341,     0.115700796,      0.12132414, 
     0.04981909,   -0.0048191734,    -0.020956779,    -0.104322605,     -0.11736878, 
    -0.20122361,     -0.22918211,     0.012664809,     -0.10747141,    -0.047358353, 
     0.09207258,      0.08400719,     0.014301289,    -0.055987574,     0.013999421, 
    0.072829366,       0.2042963,      0.16180469,      0.11397535,     0.072774075, 
       0.131198,      0.10946577,      0.08441316,     -0.03627289,    -0.070948884, 
    -0.12634037,     -0.16623205,     -0.16739817,     -0.12865055,     -0.09238929, 
    -0.04661793,      0.03427808,       0.1219109,      0.13414907,     0.044362355, 
    -0.08047567,     -0.11317998,    -0.124907225,       0.1245495,      0.34312615, 
     0.15235561,      0.13511984,    -0.008219675,       0.0812841,      0.10757369, 
    0.046915054,     -0.10653541,     -0.08820105,     -0.08567234,     -0.06117038, 
    -0.15289544,     -0.13963144,     0.082495786,     0.063246034,   -0.0030278356, 
     0.06714567,      0.18017037,   -0.0018493845,     -0.20915392,     -0.01974072, 
       0.156908,   -0.0002057163,    -0.086654805,    -0.039304107,     0.033988222, 
     0.19061133,      0.12504932,    -0.030199459,     -0.14306298,      -0.1957363, 
    -0.11162257,      -0.1993351,      -0.3102142,     -0.19756933,       0.0982611, 
     0.05991769,      0.21051623,      0.09773148,     -0.12302559,     0.022093408, 
    0.095057204,     0.034365866,    -0.052983582,      -0.0856002,     -0.21699603, 
    -0.27325478,     -0.23440383,     -0.12266136,     -0.14956135,     -0.34299687, 
     -0.1558813,     0.009009398,     -0.03192074,     -0.21751018,       -0.320088, 
    -0.18257445,      0.03604828,      0.10358701,       0.0370897,      -0.1315685, 
     0.01265453,      0.13167004,      0.12487665,    0.0034712742,      0.04906311, 
     -0.0717132,   -0.0031145813,     -0.14645863,     -0.17879906,      -0.3823569, 
    -0.26013714,     0.019969704,    -0.010332757,    -0.020712262,    -0.077416755, 
    -0.09966893,    -0.034894582,    -0.014936275,    -0.011448511,     0.024805887, 
     0.12655231,      0.25772732,      0.23496753,      0.10117622,    -0.006089859, 
     0.04206826,     -0.03400786,      0.11129053,     0.035855424,     -0.18020757, 
    -0.09994441,     -0.20195806,     -0.03404327,     0.084530406,     -0.06817054, 
   0.0021960705,     0.058637373,     -0.10458567,     -0.15804699,      -0.1290875, 
    -0.12129264,     -0.13537821,   -0.0126817785,      0.11413438,      0.15726745, 
     0.13608222,     0.080637924,      0.09933849,      0.16404875,      0.26333663, 
   -0.029674739,      -0.2956722,     -0.13091102,     -0.09537532,    -0.071132414, 
    -0.24137358,    -0.088249855,    0.0073566665,    -0.058395475,     -0.15532757, 
    -0.19605856,    -0.060480952,     -0.18745828,     -0.31172764,     -0.04740897, 
     0.12860271,       0.1445143,     0.025854666,     0.019143512,       0.2768878, 
     0.40066728,      0.19429421,     -0.03792061,     -0.08594576,      0.06630529, 
    -0.06036236,    -0.038876414,     -0.09605628,     -0.13971934,    -0.096236475, 
     -0.2113411,     -0.13137618,     -0.14936958,     -0.10600757,     -0.17791866, 
    0.009845544,     0.119994745,      0.08939319,    -0.051897924,    -0.032166388, 
      0.0733829,      0.23737966,      0.25862333,      0.13805416,   -0.0013118556, 
    0.027861249,     -0.27897015,     -0.47276303,      -0.1466713,    -0.054260656, 
   -0.051966835,     -0.08920051,       -0.206123,     -0.23514175,     -0.30052125, 
    -0.08346967,     -0.08618851,      0.10255667,      0.10509927,       0.1654571, 
     0.15372835,      0.17832999,      0.13547131,    -0.033647873,      0.10029116, 
     0.20779522,       0.1985176,    -0.012545393,      -0.3341079,     -0.16010201, 
      0.1409034,      0.09515199,     0.017366687,     -0.10465637,      -0.1085751, 
    -0.16560195,     -0.15084888,     -0.16725051,     -0.04994718,     -0.01389234, 
      0.1088222,      0.13780631,      0.17622112,     0.091894336,    -0.010767072, 
    0.027522705,     0.088921145,      0.10631183,        0.299002,      0.06283665, 
   -0.119677305,     -0.19266127,      -0.2369749,     -0.23702516,     -0.22535329, 
    -0.17763327,     -0.15681522,     -0.09049537,      0.06327463,     -0.16884969, 
     0.04486379,      0.12614518,      0.21581517,       0.1740987,      0.13425593, 
     0.08624083,     0.032403376,     -0.04650901,    -0.011188247,     -0.01915391, 
      0.1041371,      0.06359749,     -0.09892663,     -0.23417993,     -0.14883542, 
   -0.030198349,      0.06509453,      0.07928848,     0.036959097,      0.07504508, 
     0.13025072,     -0.02551888,      0.07839471,      0.13157386,      0.14813232, 
     0.11237342,     0.045742214,      0.06863104,    -0.017526288,    -0.038075883, 
      -0.086619,     0.050829295,       0.0562462,      0.07818328,       -0.156727, 
    -0.08865654,      0.14840095,      0.18828966,      0.06141485,      0.08560726, 
      0.1725063,      0.16916606,      0.16472954,     0.085431546,      0.20600778, 
     0.32359084,      0.18102367,      0.16492286,      0.12737133,      0.08288415, 
   -0.059691817,   -0.0040866304,     -0.11834946,     -0.06368647,       0.1865635, 
    -0.22400229,     -0.24654323,     0.028450606,      0.10116966,     0.032753352, 
     0.12599222,     0.033572808,      0.08590287,       0.1562275,     0.057554252, 
     0.09729953,       0.1967419,      0.19911078,       0.2170147,      0.21659918, 
      0.1711434,      0.06987372,     0.022821514,      -0.0673654,     -0.08693507, 
     0.06135864,       0.1013401,     -0.09788896,     -0.09645034,     0.024507673, 
     0.12661354,       0.1083479,      0.15252064,      0.22869828,       0.2145448, 
      0.1753356,     0.059700347,     0.013683293,    -0.031210734,      0.04044424, 
      0.1836235,      0.21822207,      0.20579447,      0.02040717,    -0.032055926, 
    -0.06564618,     -0.29497167,     -0.36960012,      -0.5561096,     -0.45360157, 
     -0.4244126,     -0.32440495,     -0.12046112,      0.16434892,      0.25977632, 
      0.4142392,       0.4393411,      0.36045012,      0.20142089}, {
     0.13172702,      0.15646163,      0.15296951,       0.1530992,     0.111186475, 
    0.043422323,     0.059804767,     0.062436044,     0.070986606,     0.025822451, 
    0.041961864,      0.04573806,     0.049426053,     0.057586662,      0.07487397, 
    0.086728856,      0.09378792,      0.08785541,     0.035014767,     0.026707271, 
    0.031148218,      0.08891572,      0.10619345,      0.16860287,      0.13405283, 
     0.15536104,      0.05265278,     0.010588058,    -0.020641949,    -0.013887795, 
     0.04997124,      0.04526086,     0.028411442,      0.03471037,    -0.023314819, 
    0.073449515,       0.1027132,      0.10880594,      0.18922664,      0.10627597, 
    0.071561754,     0.022858541,     0.043915965,      0.01844535,       0.1625854, 
     0.18829985,      0.25294054,      0.17191759,    -0.005556699,     -0.10904348, 
   -0.026625084,     0.017183082,     0.041695483,     0.025121316,     0.063500285, 
  -0.0136138955,    -0.060743414,    -0.004943303,     0.055381868,      0.08051077, 
    0.099341005,     0.055977248,      0.11352744,      0.12214186,     0.121832736, 
     0.08785379,      0.15862113,      0.25585145,      0.17992684,     0.055945322, 
     0.03907529,      0.02872621,    -0.034884702,     0.018362366,     0.049041852, 
     0.04200537,    0.0045386646,     0.029596547,    -0.041577037,   -0.0016519232, 
     0.08532011,     0.121165745,      0.07602302,      0.08019042,      0.08773054, 
    0.027114756,     0.089555256,       0.1524021,      0.17520696,      0.20525908, 
     0.10950729,     0.043226365,    -0.051409587,     -0.07658487,     0.039541442, 
   -0.011502529,    0.0014116933,   -0.0017870556,     0.035761137,    -0.087442294, 
    -0.12297753,     0.027064322,     0.087663375,      0.08390584,     0.053979974, 
     0.07839708,      0.17740506,      0.10806145,      0.13284159,      0.22428408, 
     0.21196969,      0.21433827,      0.20941779,     0.023568813,       -0.098863, 
   -0.069843285,       0.0403243,     -0.04021053,      0.06574753,      0.14471105, 
    0.016647298,     -0.17788237,     -0.12720767,     -0.09859857,     -0.16314349, 
    -0.10330448,    -0.030647198,     0.085787475,      0.06935394,     0.028748551, 
     0.14484037,      0.20306794,      0.25878325,      0.17323092,     0.054021534, 
    -0.07723644,     0.025370292,    -0.032488454,    -0.107842565,    -0.032367397, 
    -0.13045973,     -0.15806437,      0.08952655,    0.0015596726,      0.10502361, 
    0.065898575,     -0.07486033,    -0.052926794,    -0.082558565,    -0.027759526, 
    0.040244438,      0.05403798,      0.17190036,      0.17447133,      0.25338528, 
     0.15584612,     0.020604756,      0.02200271,    -0.035865523,     -0.09179822, 
    -0.06575105,     -0.13332298,     -0.09364712,     0.015735347,      0.08804261, 
     0.09595034,      0.10663311,       0.0413906,      0.09239781,     -0.04338693, 
     0.04461688,    0.0057853376,    -0.119121246,      0.08131729,      0.24895404, 
     0.23134558,       0.2696607,      0.21272916,      0.10130014,      0.09088402, 
    -0.06582635,       -0.157061,     -0.25035095,     -0.10247521,     -0.04982712, 
    -0.11295287,     0.061823625,      0.14015812,      0.14593235,       0.0347967, 
      0.1047243,      0.15148625,     0.059260376,     -0.29234532,      -0.3430113, 
    -0.07377376,     0.113102116,      0.13874601,      0.14760107,   0.00012952206, 
   -0.119751774,      -0.2834731,     -0.34074208,     -0.22112343,     -0.18447965, 
   -0.052638415,    -0.027104499,    -0.037704315,    -0.018956447,      0.04476594, 
   -0.005962468,    -0.022756292,      0.07337078,      0.27449197,      0.18108828, 
   -0.059220154,     -0.29707408,     -0.20346172,    -0.083321996,    -0.124879144, 
    -0.03294844,    -0.078151435,     -0.16280477,      -0.2600936,     -0.19647183, 
    -0.09501036,     -0.13761158,     -0.09294466,    -0.044951122,     -0.13460268, 
   -0.048909534,     0.051947407,    0.0147580225,     -0.04548456,    -0.028942753, 
     0.17316969,      0.10741701,    -0.120018646,     -0.22921476,     -0.18285012, 
    -0.14081012,     -0.17660764,    -0.040811397,    -0.018758088,     -0.07991145, 
    -0.15162216,     -0.15785503,     -0.03960886,    -0.122528076,      -0.1397672, 
   -0.060282897,      -0.1541704,    -0.042687673,      0.17712973,    -0.062894024, 
    -0.13922288,      0.13149443,      0.14040926,    -0.046216343,     -0.12554412, 
     -0.2665226,      -0.1935321,     -0.19558859,    -0.072505504,     0.023079649, 
     0.12113545,      0.15448543,    0.0032054114,   -0.0036640896,      0.07886504, 
    0.012281722,    0.0072902357,     -0.22551918,     -0.33966246,     0.022756143, 
     0.06792412,    -0.018040286,     -0.05906526,     -0.16903746,      -0.2209426, 
    -0.10054409,      0.12956984,    -0.021102456,     -0.02177337,     0.025946014, 
    0.011025314,      0.15835282,       0.2562909,      0.17303872,      0.06488942, 
    -0.08062497,    -0.059787307,     0.112948544,      0.03837453,     -0.38805145, 
    -0.45402217,      0.14242941,      0.11590051,     -0.14010783,       -0.391044, 
    -0.20046513,      0.19758236,     0.102937795,      0.07875248,      0.13847727, 
     0.06855026,     -0.06591725,     0.098388016,      0.23423634,      0.28135833, 
     0.09659693,     -0.06796095,     -0.14758721,     0.045227475,      0.02266343, 
    0.019004755,     -0.34698224,     -0.37012732,     -0.35561574,      -0.3457589, 
    -0.29814693,     -0.19694176,     -0.03541224,      0.16026562,     0.033164464, 
     0.07803657,     0.119056664,     0.050457746,    -0.026985858,     0.035959538, 
     0.22965983,      0.25860104,     0.065021016,     -0.16296402,      -0.1778902, 
     0.00953748,      0.11568083,    -0.035817683,     -0.30010557,     -0.68925244, 
    -0.40989813,     -0.18238771,    -0.027761683,       0.1308531,     -0.02863333, 
     -0.1532865,     0.030816961,     0.062629655,      0.13211526,   -0.0133826705, 
   -0.049279056,     0.035298627,      0.15346287,      0.14156678,     0.050262652, 
    -0.12544188,     -0.15139326,    -0.109474346,     -0.19097367,      -0.3220282, 
    -0.48692697,     -0.27293321,     -0.15276867,     -0.06442314,     -0.03776676, 
    -0.13333467,     -0.12056043,     0.014723718,     0.101238325,      0.15064679, 
     0.07116406,     0.015883654,     -0.11710083,       0.0776191,     0.090111054, 
      0.1321677,      0.13069673,    -0.044914603,      -0.2245259,     -0.18586536, 
    -0.09492547,     -0.22088093,     -0.21550672,     -0.08079581,     0.070515715, 
    -0.09296339,    -0.024440574,    -0.014230331,     -0.06384405,     0.014770669, 
  -0.0072835987,      0.04963577,      0.09055558,     0.012294524,     -0.04980698, 
   -0.014554165,     -0.03923504,    -0.035077296,    -0.028041588,     -0.21034864, 
    -0.34858152,     -0.24464834,    -0.081716724,     -0.08447456,     -0.21725112, 
   -0.015052777,    -0.021704482,     -0.06103561,    -0.037334878,     0.045803852, 
     0.12720789,     0.006895132,     0.018034741,     -0.05899901,    -0.010241612, 
     0.05349768,    0.0010542899,      0.04569442,     -0.08729934,     -0.25406137, 
     -0.3278192,     -0.20014314,     -0.22756763,      -0.2722167,       -0.211624, 
    -0.03538331,    -0.095636025,     0.047981698,     -0.00714217,     -0.05516694, 
    -0.12525983,     -0.07311815,    -0.059647344,     -0.13741139,     -0.31537843, 
    -0.22957286,    -0.029956853,     -0.07531295,      -0.0793648,     -0.07100359, 
    -0.12505732,     -0.40359047,     -0.42336652,     -0.34480867,     -0.38788852, 
    -0.37871993,     -0.39902005,     -0.43320858,    -0.045280855,     0.095585614, 
     0.05698013,      0.17897928,      0.25504303,      0.10057326,     -0.13562334, 
     -0.1076539,     -0.08115495,    -0.106985636,     -0.16370288,    -0.120420694, 
   -0.029306408,       0.0670864,     0.052921277,     -0.19792956,      -0.4266591, 
    -0.47322455,     -0.41160288,      -0.4611484,     -0.62329835,      -0.8884243, 
       -1.02882,      -0.7518242,     -0.45197442,     -0.43638206,      -0.6193575, 
    -0.61135894,     -0.44520736,    -0.061974682,   -0.0015587892,    -0.044925716, 
    -0.12216448,     -0.08024797,     -0.02118013,      0.12049476}, {
    0.018773578,     0.014861108,    -0.013453748,    -0.016010517,      -0.0893025, 
    0.008473178,    -0.010584262,      0.09111578,      0.17069939,       0.2618605, 
     0.24946399,      0.16814966,     0.099233285,     0.007454608,   -0.0036641494, 
   0.0073986403,     0.005580362,    -0.054254346,    -0.066618964,     0.031336494, 
     0.05093262,     0.122942895,    0.0080031715,    -0.074480705,     -0.10132952, 
    -0.22088099,     -0.24156271,       -0.224693,     -0.12634037,     0.094772406, 
     0.27104837,      0.33051887,       0.3226817,      0.19875918,      0.06872032, 
    -0.06252673,    -0.053605586,     -0.10715114,     -0.07892528,    -0.058808874, 
    -0.16880396,     -0.17076203,     -0.08016967,     0.006751885,     -0.07342099, 
   -0.115689084,     -0.18735969,     -0.30685887,     -0.30788988,     -0.19678462, 
    -0.11591694,     0.001510048,     0.085326366,      0.22772512,      0.23619491, 
     0.19016816,      0.13066594,     -0.01251679,    -0.037636027,    -0.033313498, 
     0.05049634,    -0.044573825,     -0.08465382,     -0.22394107,     -0.18583885, 
    -0.17323682,      -0.0671932,    -0.100448534,     -0.11538234,     -0.15474309, 
    -0.17628014,     -0.08904973,    -0.069376335,     -0.04680351,      0.08793014, 
     0.21283734,      0.23404302,        0.276033,      0.14703795,      0.09066301, 
     0.05282311,     0.022068271,      0.05708488,    -0.032475438,    -0.010954555, 
    -0.05656582,     -0.04907867,    -0.029597586,   -0.0012228929,     0.012493174, 
   -0.011415334,     -0.12741952,     -0.03909024,    -0.016454032,     -0.03899941, 
   -0.068358645,     0.049408257,      0.16372816,       0.1872589,      0.21363023, 
      0.2642874,       0.0720022,     -0.02303861,    -0.063107796,    -0.075106174, 
   -0.043802194,    -0.026977947,     -0.07131145,    -0.027494423,     0.020895174, 
     0.11540714,      0.13107906,    -0.035709444,      -0.2011248,     -0.17964835, 
    -0.12907694,     -0.09864232,     0.047242466,     0.044942055,      0.05435575, 
    0.014088702,      0.08933083,      0.08533313,    0.0036585939,    -0.040516227, 
     -0.0597079,     -0.02112834,     -0.02466928,     0.021497197,    -0.016073253, 
   -0.071260795,     0.050476633,      0.18990055,      0.10917491,   -0.0071272515, 
      -0.169078,     -0.09827334,     -0.11284627,      0.04138271,      0.22230206, 
     0.12660389,      0.16312292,    -0.046271205,      -0.1543243,      -0.1866659, 
    -0.07776503,    -0.016385252,     -0.01654027,     0.011026008,    -0.017129442, 
    0.007171752,     0.007673551,    -0.036863703,     0.058412917,      0.24513406, 
    0.083292104,     -0.13369752,     -0.22049418,     -0.06768756,     0.030264657, 
     0.11584243,      0.12868924,      0.31442198,      0.06955874,     -0.27537003, 
     0.13080133,    -0.026206229,     -0.06282752,     -0.04685078,    -0.078726366, 
    0.010767589,    0.0032698568,     0.043331616,    0.0021481377,      0.02419773, 
     0.19756944,      0.23376355,    -0.043985475,    -0.050580338,     -0.04426063, 
   -0.017536735,    -0.054696795,    -0.023686249,     0.024059484,     -0.21504793, 
      -0.261735,       0.1140299,      0.16132258,      0.16201104,      0.09782184, 
    0.013728614,     -0.17101619,     -0.17127727,    -0.021131726,      0.07937394, 
     0.05426898,      0.09480283,       0.2941636,     0.049515516,    -0.048502307, 
    -0.10053453,     -0.07382066,    -0.033843137,     -0.16393174,     -0.33052284, 
    -0.06654652,    -0.057861682,     0.015923886,     0.102943875,    -0.017215127, 
     0.05972253,     0.079543635,   -0.0068621296,     -0.05547213,     -0.12740692, 
   -0.024481164,      0.06352871,     -0.15151949,     -0.13241215,      0.13067904, 
    -0.04196416,      -0.1891329,     -0.12178508,     -0.21205929,     -0.17363809, 
     -0.3087017,     -0.18165866,    -0.080408506,     0.066316664,      0.06451459, 
     0.11264918,    0.0069035217,     0.053990394,    -0.049813684,    -0.027671862, 
     -0.1895384,     -0.20476376,     -0.16743821,     -0.10530678,     -0.17237099, 
    -0.17636847,       0.0318354,     -0.19806808,     -0.22299768,    -0.114426985, 
    -0.20196992,      -0.3595121,      -0.3871354,     -0.23495612,     -0.08208633, 
     0.02035418,      0.11112706,     0.029305823,     -0.14420846,    -0.019900488, 
     -0.0412159,      0.15305594,    -0.027193237,     -0.47096387,    -0.060539093, 
   -0.012731021,     -0.12313351,     -0.07226106,      0.03230919,      -0.1971714, 
    -0.08035462,    0.0116803935,     -0.06691837,     -0.28389984,     -0.42755806, 
    -0.15282921,    0.0053026984,      0.26343843,        0.305659,      -0.1486261, 
    -0.19882235,    -0.039610185,    -0.019968208,      0.10801492,      -0.3063952, 
    -0.54116577,     -0.14995746,     -0.16970891,     -0.14032406,     -0.13987374, 
     -0.0981429,     -0.16549248,     -0.06747736,     0.012519209,     -0.10813118, 
    -0.42130062,      -0.5700613,      -0.2825344,      0.11608422,      0.33800232, 
     0.16199034,    -0.052842695,     -0.09778068,    -0.104827665,      0.09941444, 
    0.023905175,     -0.85136783,      -0.7722689,     -0.21539639,      0.12966488, 
     0.03586256,     -0.08600415,     -0.06421872,     -0.13239759,    -0.044229466, 
    -0.18506725,     -0.24301144,     -0.44959515,      -0.4613985,     -0.21166186, 
     0.04072122,      0.14947803,    -0.028897956,     -0.08371445,      -0.1379878, 
   -0.120965585,      0.19122739,    0.0064781406,     -0.94132274,      -0.7122972, 
   -0.047716603,     0.115134664,     0.008447017,    -0.057156168,     0.011210688, 
    -0.07800397,    -0.107356906,     -0.17883453,     -0.19894786,     -0.16878763, 
    -0.20802034,      -0.2030469,     -0.15230674,    -0.029564776,   -0.0015082925, 
     0.05028414,    -0.013592493,     -0.12006623,     0.055837277,     -0.23939231, 
     -0.5869907,     -0.37840518,     -0.15059102,     0.025370352,     0.050490852, 
    0.073263615,      0.13524927,     0.019572394,     -0.10523668,     -0.13953811, 
    -0.10663763,    -0.005676644,    -0.111716636,    -0.121684246,     -0.06919688, 
    0.009932371,     0.025841145,     -0.14088944,     -0.22830558,       -0.252097, 
    -0.22839157,     -0.25765112,     -0.19830815,     0.029970208,     -0.05555223, 
      0.0297165,    -0.012836031,     0.019339489,      0.16640489,       0.0658796, 
   -0.014539864,    -0.024135292,     -0.09583615,    -0.039902955,    -0.044651877, 
     -0.1550212,    -0.009529155,      0.15491065,     0.062318474,     -0.04789175, 
    -0.10737617,   -0.0068965144,     0.063298084,     -0.17894077,      0.16538261, 
    0.069213085,   -0.0077829384,     -0.01273132,    -0.051240478,    -0.014676536, 
      0.1422172,     0.013186882,     -0.11094498,     0.018415552,     0.043939274, 
     0.08751396,    -0.035228226,    -0.047811065,      0.17161156,      0.21688603, 
     0.14678541,       0.0781106,     0.018350791,      0.04223624,      -0.2108067, 
    -0.11479668,     0.035518028,    -0.061870378,     -0.04439545,     -0.15096343, 
   -0.074577734,     0.080675505,      0.23550443,    -0.009712483,     0.054849982, 
     0.14444675,      0.09862986,     0.027376352,    -0.030017883,     0.042808816, 
     0.13689281,     0.061361987,       0.2157171,      0.19832523,     0.069174916, 
    0.032772202,     0.035048135,      0.17210534,       0.1012074,      0.10063022, 
     0.08828245,     -0.02379773,     -0.04633698,      0.11818639,      0.17375879, 
    0.123802304,      0.15061755,      0.25472432,      0.12735127,      0.18512295, 
     0.06676967,     0.123633526,   -0.0007648001,     0.006429521,     0.041999076, 
    -0.10105763,     -0.23742652,      -0.1519072,      0.05438102,       0.1724243, 
     0.23397352,       0.3001308,      0.17050324,      0.07357565,      0.12643714, 
     0.12815922,      0.12045779,      0.13667992,       0.1978624,      0.21953754, 
     0.12104433,      0.16764301,      0.20922476,      0.23676738,      0.19408551, 
      0.1767612,      0.22947057,     0.057724178,     0.102802254,      0.24534185, 
     0.31973937,      0.36966914,      0.31591588,      0.06291206,     -0.10779345, 
    -0.08873724,     -0.12461428,    -0.113331564,     -0.09496327}
};

static const unsigned int dense_0_bias_size = 10;
static const float dense_0_bias[10] = {
      0.2588393,     0.077695765,     -0.26997226,      -0.2767365,       0.3719262, 
      -0.473324,       0.3706171,     -0.12651612,       0.1490684,      0.10429309};

