// List of model parameters:
//
// static const unsigned int dense_0_weight_rows      ( =  256 )
// static const unsigned int dense_0_weight_columns   ( =  784 )
// static const float dense_0_weight[256][784]                        #       size =   802.82 kB
// static const unsigned int dense_0_bias_size        ( =  256 )
// static const float dense_0_bias[256]                               #       size =     1.02 kB
// static const unsigned int dense_1_weight_rows      ( =  128 )
// static const unsigned int dense_1_weight_columns   ( =  256 )
// static const float dense_1_weight[128][256]                        #       size =   131.07 kB
// static const unsigned int dense_1_bias_size        ( =  128 )
// static const float dense_1_bias[128]                               #       size =     0.51 kB
// static const unsigned int dense_2_weight_rows      ( =   64 )
// static const unsigned int dense_2_weight_columns   ( =  128 )
// static const float dense_2_weight[64][128]                         #       size =    32.77 kB
// static const unsigned int dense_2_bias_size        ( =   64 )
// static const float dense_2_bias[64]                                #       size =     0.26 kB
// static const unsigned int dense_3_weight_rows      ( =   10 )
// static const unsigned int dense_3_weight_columns   ( =   64 )
// static const float dense_3_weight[10][64]                          #       size =     2.56 kB
// static const unsigned int dense_3_bias_size        ( =   10 )
// static const float dense_3_bias[10]                                #       size =     0.04 kB
//                                                                                    ----------
//                                                                    # Total Size =   971.05 kB

static const unsigned int dense_0_weight_rows    = 256;
static const unsigned int dense_0_weight_columns = 784;
static const float dense_0_weight[256][784] = {{
   1.028833e-39,      1.0842e-39,     5.34073e-40,     2.60675e-40,     -1.9411e-39, 
   -1.29331e-40,    -6.79895e-40,     1.96695e-39,    -5.39088e-40,    -5.13684e-40, 
   1.069398e-39,     9.33022e-40,    5.732763e-34,   1.2738118e-32,   -1.715644e-32, 
  9.1861933e-35,   -1.578567e-39,    -1.88664e-39,   -1.253582e-39,     8.13395e-40, 
    3.29493e-40,     5.02293e-40,   -1.042228e-39,    1.539396e-39,     6.23658e-40, 
    8.41675e-40,     4.13652e-40,     -5.7823e-40,    1.553959e-39,   -1.022427e-39, 
  -1.455583e-39,   -1.227818e-39,     -9.5435e-40,     3.12515e-40,   -1.965433e-39, 
  1.8259192e-28,  -3.7356292e-27,  -3.0656137e-16,   3.9109574e-15,  -3.5570376e-16, 
  -0.0026520465,  -0.00073477306,   -0.0010893365,    -0.010449175,   1.0766056e-06, 
 -4.6780273e-18,  -1.1839541e-23,     7.35463e-40,    -8.78897e-40,    -8.57246e-40, 
     3.1173e-41,    -5.60929e-40,     7.07266e-40,     9.08987e-40,    1.514746e-39, 
   1.190367e-39,   -1.722231e-39,   -1.932662e-39,    -4.23418e-40,    1.266908e-39, 
    2.98806e-40,   -1.886226e-39,   2.3523777e-23,  -2.2234316e-23,   0.00091691554, 
   0.0059425007,     0.010741928,     0.010344796,   -0.0005239448,     0.007038878, 
 -0.00085862016,    -0.022119386,    -0.033384167,    -0.013220227,     0.021419283, 
  -0.0011149409,     0.026110154,     0.028752634,     0.011589286,   1.0995697e-20, 
   -5.10866e-40,   -1.462737e-39,   -1.312406e-39,    -5.70516e-40,      3.5615e-40, 
   1.346283e-39,     2.32041e-40,     5.33533e-40,    2.390311e-39,      0.01756451, 
    0.017768824,     0.012892284,    0.0041063516,     0.060262304,     0.090650484, 
     0.11614575,    -0.004259817,     -0.12123124,     -0.16811977,     -0.14543343, 
    -0.13385335,    -0.035180733,      0.08655877,      0.05560893,    0.0052374154, 
   0.0119602615,     0.022683585,     0.011416782,    0.0035863924,   -8.501915e-22, 
 -2.0511526e-23,    1.732366e-39,     1.00106e-39,  -2.2157603e-29,   3.3984602e-21, 
  1.3512329e-21,  -4.1917777e-14,   3.6855716e-05,  -3.3322776e-05,   0.00010927912, 
    0.005692291,      0.09135206,        0.160147,      0.19047777,     0.047681473, 
      0.0501616,   -0.0077139633,    -0.030537443,    0.0033618263,     0.052820146, 
     0.10657403,      0.01973166,    -0.054586098,    0.0106962025,     0.012120094, 
   -0.067657866,    -0.014065697,    0.0006223753,   2.6254831e-08,  -2.2503397e-11, 
    1.51982e-40,   -1.108298e-39,   4.5890783e-06,    9.545593e-07,   3.2183536e-06, 
   -0.019254064,    -0.072325185,    -0.099841475,     -0.29046032,     -0.24240236, 
   -0.039584894,    -0.018915478,      0.23267303,      0.16534592,     0.028523616, 
     0.16108216,     0.123922564,     0.087049656,     0.065744646,    -0.041800946, 
    -0.08259116,    -0.029947089,       0.0812594,    -0.050153855,     -0.05674596, 
   0.0012993416,  -7.4560616e-05,  -2.5673042e-08,    1.530623e-39,   1.4279174e-06, 
  4.5809968e-05,    4.926691e-07,  0.000105613406,     -0.09927874,     -0.20036098, 
    -0.19858001,     -0.33530506,     -0.10915768,     0.042492677,     0.121511996, 
      0.1940365,      0.18375315,      0.11461776,      0.22063747,      0.11869634, 
  -0.0059167347,      0.09713075,    -0.054616977,     -0.10594488,     -0.07675685, 
      0.1387758,    -0.017998565,     -0.10402011,    -0.017397838,    -4.42455e-22, 
     9.7973e-41,   -1.577387e-39,     0.009185907,   3.7135324e-05,  -3.0679943e-13, 
    0.024795221,     -0.16908492,      -0.2719554,     -0.26762357,    -0.010886389, 
    0.034282926,      0.12044543,      0.16001566,      0.02996018,     0.062878065, 
    0.044615638,    -0.039120212,    -0.008458818,      -0.0859812,    -0.016349044, 
   -0.025839785,     -0.08404071,      0.06351286,       0.1018304,    -0.102114275, 
    -0.15091811,      -0.0338608,  -0.00018721513,    -4.12324e-40,   -1.662865e-39, 
   -4.32676e-05,   2.7991546e-23,     0.011170058,     0.058263548,     -0.14112972, 
    -0.15681103,    -0.012099277,      0.08293464,       0.1203047,      0.22956318, 
    0.059320547,      -0.1544591,     -0.21663904,    -0.071479484,     -0.22356868, 
    -0.16369985,     -0.07959215,     -0.01907266,     0.018025195,     -0.05582766, 
     0.09948944,      0.19953418,    -0.080837004,     -0.17596103,    -0.015786324, 
   0.0003104619,    1.488042e-39,    -8.24752e-40,    -7.55755e-40,      7.2062e-18, 
     0.02461116,    -0.022040224,    -0.063359916,      0.04139993,      0.19060218, 
      0.1348576,      0.06569096,     0.001472973,     -0.21987703,     -0.45151877, 
    -0.47549936,     -0.25800028,     -0.19485168,    -0.114410706,    -0.039555702, 
   0.0038487753,     0.028600698,      0.07627129,     0.072346196,     0.111289985, 
    -0.06557274,     -0.09811081,    -0.020094864,    0.0010879256,   -1.825544e-39, 
   1.258038e-39,    1.127162e-39,    -0.057580005,     0.003602091,     0.040150136, 
    -0.14799486,      0.05862529,    -0.021718042,     -0.10411436,     -0.33748785, 
    -0.35461605,     -0.43071598,      -0.5597985,     -0.46730667,     -0.19385244, 
    -0.19097894,     0.067947544,         0.15156,    0.0039183954,    -0.014322489, 
  -0.0037602638,      0.06918456,     -0.02542246,     0.005185678,    -0.042032424, 
    0.005046064,    0.0039558895,   -1.230036e-39,      -9.918e-42,     3.93444e-40, 
    -0.03038446,     0.102711625,      0.10255765,     -0.21910499,     -0.12546434, 
    -0.28354096,     -0.34590137,     -0.42044842,     -0.36340302,     -0.22352034, 
    -0.35075408,     -0.09861997,   -0.0027553467,     -0.03537385,     0.088601835, 
     0.12196183,     0.046243887,    -0.031994645,    -0.057417262,   -0.0069891587, 
    0.046359513,     0.041829746,    0.0029108678,     0.011182314,     0.006403054, 
   -4.61876e-40,   -1.415911e-39,    -5.28727e-40,    -0.029913772,      0.12655184, 
   -0.008650787,     -0.19902584,      -0.2690992,     -0.39064553,      -0.4647138, 
      -0.299029,     -0.14172867,      0.07183255,     0.010054255,      0.06540717, 
     0.16099738,    -0.005711443,     0.026377322,      -0.0873237,     -0.13972124, 
    -0.09580992,    -0.014766242,    -0.089193135,     -0.07761459,     -0.16252007, 
  0.00044686554,   2.5976557e-05,    1.268461e-39,    1.405218e-39,    -6.25425e-36, 
   -3.83128e-40,   2.6179674e-37,      0.03998214,   -5.833046e-06,     -0.12614661, 
    -0.21275139,     -0.14015262,     -0.10049186,     0.027017286,      0.10084974, 
     0.13490312,      0.18207046,      0.22876753,      0.07812839,     0.027418934, 
   -0.044540435,     -0.18328619,     -0.09939961,    -0.122119196,       -0.224225, 
    -0.16086306,     -0.18300879,     -0.15619807,     -0.11275379,    -0.011882296, 
   4.315447e-06,     5.56122e-40,    -4.97699e-40,     4.09195e-40,    7.669682e-18, 
    0.016396668,     0.031059692,      0.04817668,     0.054529317,      0.20584987, 
     0.19831061,       0.1990212,      0.15067936,      0.15480414,     0.111517236, 
     0.11483212,      0.14554839,      0.11443891,   -0.0051519284,     -0.08280132, 
    -0.04780419,     -0.23025918,     -0.18901877,     -0.35093814,     -0.18426254, 
    -0.11564478,    -0.017864123,      0.02602994,   0.00036192237,   -5.074764e-25, 
    3.20738e-40,   -1.664702e-39,     0.014592053,     0.019793952,    -0.029620128, 
     0.08263098,      0.16593122,      0.19219634,      0.22877598,      0.17705312, 
    0.090402834,     0.012363622,     -0.06491333,    0.0012263742,      0.22527224, 
     0.16603883,      0.12345187,    -0.030837674,     -0.11138018,     -0.22869559, 
    -0.24469057,     -0.26268992,      -0.1399779,      0.05373743,      0.19651954, 
     0.10863509,   8.4307336e-05,     6.85256e-09,     1.10015e-40,    -3.85545e-40, 
    0.020958152,      0.04314543,    -0.018814381,     0.033406604,     0.082098864, 
    0.046865813,    -0.007575331,      0.07228754,   0.00038700923,      -0.1521224, 
    -0.18767437,     0.010264861,      0.16799107,      0.06707052,      0.11882906, 
    0.098406024,      0.06871462,     -0.09854979,    -0.022672934,      0.07758033, 
   -0.006370183,      0.13783488,       0.2773537,      0.14431651,     0.033796813, 
   -0.009699606,    1.060895e-39,     2.04543e-40,     0.015662588,      0.03911327, 
    -0.10805713,    0.0118000945,     -0.09055186,      -0.0944402,    -0.025281696, 
    0.008750122,    -0.081019856,     -0.19532101,    -0.067502484,     0.114603326, 
     0.25416335,     0.120555855,       0.0891105,      0.12935916,     0.089939766, 
   -0.031377573,       0.1296494,      0.18542404,      0.15593714,     0.093477644, 
     0.19835632,       0.0851414,    -0.023170425,     -0.01955342,    1.575286e-39, 
     7.3106e-41,     0.008351102,     0.050594423,     -0.09552431,    -0.104845926, 
    -0.06118251,    -0.104114436,      -0.1627654,      -0.1401557,     -0.10983356, 
     -0.2145033,     -0.14933778,     0.052515443,      0.14975289,      0.10971079, 
    0.084885135,      0.09589495,   -0.0010768767,    -0.002952112,      0.13589278, 
       0.131934,      0.10527006,       0.1314591,      0.15494758,     0.058043703, 
 -0.00022337283,    -6.66246e-40,   -1.549606e-39,   1.9139986e-34,   0.00029937498, 
     0.11239671,     0.069010735,    -0.031833418,    -0.030207334,    -0.009196478, 
     -0.2349676,     -0.20296709,     -0.23199461,     -0.23612498,     -0.18157078, 
    0.040254865,     0.034209296,    -0.009528404,    -0.013509037,       0.1073891, 
     0.09648285,    -0.015302516,      0.09192925,      0.04272178,      0.03629396, 
      0.1402917,     0.029050779,     0.022102019,    0.0041250447,     5.32519e-40, 
    1.26913e-40,  -3.1322865e-34,    0.0001454851,     0.109657265,      0.10889591, 
    -0.06354176,      -0.0629064,    -0.033480868,     -0.16832542,      -0.1564281, 
    -0.12330111,     -0.13407065,     -0.08408331,    -0.028544802,      0.07707865, 
   -0.043845173,      -0.1423999,     -0.05702502,      0.11086567,     -0.06749957, 
    0.013509968,      0.08953977,      0.08615751,      0.13368064,     0.044065215, 
    0.008420512,   0.00025761558,     7.72019e-40,   -1.423354e-39,   -7.482473e-35, 
  -0.0003646107,     0.058663946,       0.1162287,    -0.028588057,    -0.010491028, 
      0.0414712,     -0.02171556,     -0.05428896,      0.07173933,     0.003913843, 
  -0.0016094784,      0.03161969,      0.04426789,     -0.15785459,     -0.12314556, 
    -0.09432584,   -0.0007861187,    -0.102033414,      0.08643668,     0.113200665, 
    0.056727193,     0.064412296,     -0.04511769,   2.9722169e-05,    9.018387e-21, 
    -1.1751e-40,    -6.48419e-40,   2.5749486e-34,   -7.826655e-06,      0.10593178, 
     0.11980469,      0.11580065,     0.057790354,    -0.019997753,     0.005974001, 
    0.029854145,     -0.07648693,     -0.09016001,     -0.12328082,     -0.07265987, 
   -0.033425223,     -0.13968031,     -0.17445159,     -0.11965848,     -0.11141844, 
    0.033438902,      0.19178887,       0.1084068,    -0.010500515,     0.081791066, 
    0.003431376,  -1.4300529e-10,  -2.2156137e-26,     1.50099e-40,    -5.57773e-40, 
   1.707006e-39,   1.5916763e-05,      0.07624071,     0.053574625,       0.1778917, 
     0.09753139,      0.09505885,      0.06214431,       0.0215888,     -0.07916108, 
    -0.06904483,    -0.020077264,     0.054606076,     0.050554585,     0.013946901, 
   -0.070369855,    -0.061688554,      0.10733365,      0.17495607,      0.29932266, 
     0.13850386,     -0.07002556,    0.0010646704,   0.00020770886,   1.2341426e-10, 
   1.481831e-39,     8.17023e-40,    1.314857e-39,    -5.61313e-40,  -1.0347571e-06, 
    0.035350263,      0.05762878,     0.059487067,       0.0349694,      0.07495512, 
      0.2519289,      0.16215558,     -0.06325794,     -0.06958968,     -0.06324321, 
    0.019375896,      0.07611973,    -0.061590284,     -0.13205434,    0.0025578775, 
     0.17744529,      0.13546541,       0.1858558,     0.048403896,     0.034249965, 
   -0.036516834,    9.508644e-06,       7.177e-41,    1.306449e-39,   -1.564082e-39, 
    1.07264e-39,     8.11505e-40,     1.44856e-40,     1.61879e-39,     0.023867762, 
   0.0052728434,     0.038714692,       0.0056578,     0.047549207,      0.25011936, 
     0.15619041,      0.04670028,       0.0905216,      0.12361335,    -0.039072156, 
  -0.0075891707,    -0.036787275,     0.006843025,      0.13870871,      0.19746906, 
     0.09562934,   -0.0031889256,    -0.027381588,    -0.037219465,    9.442105e-06, 
    -7.5819e-40,    1.662002e-39,      2.7934e-40,    -1.80928e-39,   -1.972986e-39, 
   -2.23108e-40,   -2.019795e-39,    -0.025675986,    -0.029639216,     -0.02941429, 
   -0.017209018,  -0.00052111514,    -0.034419756,     -0.02959205,    -0.011251361, 
   0.0004929684,     0.025025584,      0.02010572,   -0.0025307357,    -0.005374638, 
    0.036900375,      0.10347761,      0.04202522,     0.031450327,    0.0031423802, 
   -0.025986543,   -5.604474e-05,    -1.48486e-39,   -1.469044e-39,    1.580764e-39, 
   1.407942e-39,    1.486385e-39,      -5.134e-40,   -1.564412e-39,    -9.43367e-40, 
    5.96416e-40,   -1.309879e-39,     6.03217e-40,    -9.57153e-40,     5.45593e-40, 
    4.32846e-40,   -1.908363e-39,     8.18309e-40,    1.485865e-39,   -1.705135e-39, 
    9.87749e-40,    -9.72093e-40,    1.300348e-39,     5.23829e-40,    1.229886e-39, 
   1.589078e-39,   -1.478835e-39,   -1.576646e-39,      -3.447e-42,     1.83614e-40, 
   1.014286e-39,     8.52044e-40,     2.51854e-40,    1.789333e-39}, {
    5.09202e-40,   -1.219777e-39,   -1.959328e-39,    1.656611e-39,     -1.0488e-40, 
    1.55877e-39,   -1.171184e-39,    1.151988e-39,    1.409813e-39,   -1.364744e-39, 
   -2.21564e-40,    -6.27457e-40,   2.1769878e-34,  -1.3451923e-34,   5.5303533e-34, 
  3.4250765e-34,     7.55301e-40,   -1.330042e-39,     1.06472e-40,   -2.016201e-39, 
    8.56916e-40,    1.715915e-39,     1.09676e-39,    1.532492e-39,   -1.187553e-39, 
    7.54418e-40,    -6.04596e-40,   -1.397577e-39,    -2.02059e-39,    1.609893e-39, 
    -2.7789e-40,    1.762196e-39,    -8.99252e-40,   2.1304165e-10,     0.013803772, 
    0.016353937,     0.013425327,   0.00081470364,    0.0041633477,     0.019261474, 
    0.008382985,    0.0006823027,   -0.0021877042,    -0.014341057,    0.0021209172, 
    0.006561784,    0.0023285742,     0.016918128,     0.006923895,    -0.017396659, 
   -0.019653047,   -7.063222e-05,   -1.673021e-39,   -1.419539e-39,     4.75878e-40, 
   1.645063e-39,   -1.828305e-39,      5.8339e-40,    -7.74627e-40,   1.5580406e-31, 
  -8.285698e-11,   0.00030978856,     0.018196808,       0.0200264,     0.031501334, 
     0.03761754,     0.054366812,     0.062529795,     0.061172996,     -0.08898119, 
   -0.049169205,    -0.007570056,     -0.00802802,    -0.002136728,      0.05591075, 
    0.054997545,     0.016139995,     0.025806017,    -0.016043805,    -0.011258954, 
 -1.3393424e-23,   -4.751013e-39,   -1.476219e-39,    -1.12539e-39,     4.19912e-40, 
    6.14831e-40,     7.69456e-40,  -3.3304408e-29,  -1.6036263e-06,   -0.0011051327, 
    0.027428556,    0.0071814936,      0.08413143,       0.1598059,      0.13638268, 
      0.1251766,    -0.033638146,     -0.12516148,    -0.021051059,      0.07015629, 
    0.012659849,    -0.022103937,      -0.0912764,     -0.16181044,     -0.32844767, 
    -0.26830265,     -0.08028618,     -0.02599411,      0.01358983,   0.00042437593, 
   -6.48597e-40,    1.180962e-39,     6.10757e-40,    1.105723e-39,   1.3589928e-13, 
  -3.510167e-10,   0.00019568326,   -0.0063554333,    0.0069636344,    -0.011978978, 
    0.028219149,      0.11187075,      0.23321785,      0.16070311,     -0.03834733, 
   -0.101038836,      0.11199863,      0.05794284,     0.056772027,      0.14502399, 
   -0.008066803,     -0.20639524,     -0.32048944,     -0.36152154,        -0.32209, 
    -0.23104955,    -0.056857865,    -0.010009268,  -2.2754627e-20,    1.613518e-39, 
   -6.45973e-40,     4.98274e-40,   -8.283966e-07,   5.1099534e-05,    -0.015319211, 
    -0.08989008,     -0.11773707,     -0.11821061,     -0.12949026,     -0.15230267, 
   -0.017790742,      -0.0635088,     -0.03584488,     0.027676994,     0.048597414, 
    0.031462114,     0.061739624,     0.025735516,      0.12373592,    -0.014352578, 
    -0.17972678,     -0.22936706,      -0.4058722,      -0.2948681,    -0.096653655, 
   -0.004878818,    3.363594e-11,    -8.26301e-40,     7.04524e-40,     9.18076e-40, 
   -0.006477492,    -0.015296321,    -0.008944611,     -0.18521817,     -0.15916511, 
    -0.14144385,     -0.20122544,    -0.028765911,     0.025914202,    -0.012031021, 
  -0.0072923987,      0.04428731,      0.12557763,     0.118521065,     0.013767792, 
     0.14406371,        0.284123,      0.16084251,    -0.084327154,     -0.20848496, 
     -0.2653864,     -0.31059137,     -0.29549912,     -0.04412896,  -2.9032939e-05, 
  3.4321612e-14,    -4.52956e-40,    0.0006297399,   -0.0046877256,    -0.023117686, 
     0.05857711,     -0.10648106,     -0.14990069,     -0.40717325,     -0.23930259, 
    -0.12592962,    -0.036100063,      0.09642161,      0.03902673,     0.085615985, 
   -0.080584414,     -0.11927357,     -0.17408614,    -0.026920721,      0.13448755, 
     0.11213306,   -0.0060139634,     0.052902564,    -0.065931305,     -0.31324765, 
    -0.26447812,      -0.0580904,   -0.0028481646,  -3.6112904e-14,  -1.3188878e-05, 
   0.0144102955,   -0.0039869808,    -0.029745473,    -0.005863009,     -0.13037051, 
    -0.17988476,       -0.247259,     -0.12584439,     -0.03176098,     0.014261802, 
    -0.00488952,     -0.07544537,     -0.02882176,      -0.0803425,     -0.24944292, 
    -0.18626487,     -0.07679793,     0.076108545,      0.14446469,     0.059659373, 
     0.08178986,      0.06433088,    0.0010882542,     -0.12671278,    -0.028116181, 
  -0.0016998574,  -1.5149699e-17,    1.091551e-39,   -6.639196e-11,    -0.029365458, 
   -0.020448783,     -0.12296824,     -0.20655538,    -0.003033742,    -0.019007824, 
    0.005029944,  -0.00013027735,     0.026529301,     -0.16814767,     -0.08679256, 
    0.028398914,    -0.030416401,      -0.1394313,    -0.056115605,     -0.15725482, 
   -0.072193176,     -0.05678711,     0.005828975,     0.042066716,      0.03497006, 
     0.03992146,     0.040603697,     0.028896272,     0.001992337,   -7.409884e-05, 
   -1.60041e-40,    7.160845e-11,     -0.06207721,     0.016317481,    -0.099995166, 
   0.0021710698,     0.062476505,    -0.080311455,     0.007157375,     -0.04862943, 
    -0.19626896,     -0.10167029,    0.0016698252,      0.07200386,       0.0363811, 
    -0.12278583,      -0.1897335,     -0.25193113,     -0.15858728,     -0.22994323, 
    -0.09278914,     -0.09153628,    -0.025277454,      0.20484506,      0.14247118, 
    -0.09479359,     -0.03333169,    8.243474e-07,   -1.595312e-39,      -0.0140811, 
    -0.02542196,     0.044410083,    -0.019993229,      0.18963361,     0.057452053, 
    -0.05132017,      0.07799541,     0.039869033,     -0.10663208,    -0.034672353, 
    0.034294978,     0.004644291,    -0.023658862,     -0.29063565,     -0.24056926, 
    -0.24633414,     -0.23522758,     0.044842683,      0.10273433,     0.044598192, 
     0.25172606,      0.21751298,      0.16254298,      0.13814472,     0.002343598, 
 -1.9337515e-08,     8.12233e-40,    -0.009333491,    -0.032148067,      0.07675383, 
     0.06887063,      0.12773329,      0.07262156,     0.023061166,    0.0040237927, 
   -0.057851825,     0.005862614,      -0.2768958,     -0.21134833,     -0.24487107, 
    -0.40593776,     -0.39254245,     -0.15390088,    -0.051044945,    -0.044348378, 
      0.2152804,      0.25149193,      0.36122388,       0.3706939,      0.16354573, 
     0.13020954,      0.11493451,     0.024824942,   1.4857283e-23,    1.134755e-39, 
  -0.0025316577,    -0.010708944,     0.044450246,    -0.047849722,     0.006842485, 
    -0.03942525,       -0.139621,      0.08589818,    -0.010562354,     -0.12572812, 
    -0.22281547,     -0.33637723,      -0.2331771,     -0.20185186,     0.009203977, 
     0.18250918,      0.19879287,      0.14298345,      0.20138404,       0.2543228, 
      0.3638268,      0.35218507,     0.084534496,     -0.04351842,    -0.026992934, 
    0.049443327,     5.68958e-24,   -1.268542e-39,    -3.20122e-40,  -3.7453356e-05, 
    0.019642752,    -0.038984176,    -0.026977837,       0.0699136,     -0.12095583, 
     -0.1192279,    -0.025178853,     -0.14106923,      -0.1293831,     -0.11321692, 
   -0.010170655,     0.021794084,      0.28586763,       0.3233285,      0.24732262, 
     0.20642397,      0.13397759,      0.12595981,       0.1005744,      0.17987348, 
   -0.075125016,     -0.19822696,     0.018767774,   -0.0009241821,    8.542601e-24, 
  -1.335164e-39,    1.361713e-39,    -0.020935407,     0.008238022,     0.018103188, 
     0.12391399,       0.1325274,       -0.201296,     -0.13668102,   -0.0030022943, 
   -0.032676674,     0.033186115,      0.03118663,      0.17754954,      0.20492116, 
     0.34676147,      0.26987112,      0.24025506,      0.11034733,      0.16527961, 
     0.09431232,      -0.0624091,      0.06822992,     -0.10788156,     -0.05077403, 
     0.09566667,      0.01880509,    1.401488e-39,      8.5323e-40,    -9.32425e-40, 
   -0.021027036,     0.090374105,     0.058271747,      0.17901771,    -0.064362176, 
   -0.050432637,     -0.09057094,     -0.07765392,     0.005834159,     0.053866815, 
     0.12216675,       0.1399582,      0.22110663,      0.26902193,      0.24020378, 
      0.2511288,      0.13503158,       0.0955008,     0.098287076,     0.047952708, 
   -0.099231504,     -0.22801557,     -0.11437172,     0.098535694,     0.009028368, 
    0.027633118,     1.27265e-40,   -1.077484e-39,    -0.016516557,     0.036848925, 
    0.058732644,    -0.019175211,     -0.01467403,    0.0005201583,      0.05652725, 
   -0.029442143,     -0.03160121,      0.06752902,       0.1390938,      0.15074696, 
    0.099358566,      0.06858326,      0.04814234,    -0.003980255,     -0.04751832, 
   -0.015029096,     0.058184467,     0.092946015,     -0.11193014,     -0.17894976, 
    0.045217436,      0.15503348,     0.032830346,     0.030196615,      3.1905e-41, 
   1.137832e-39,   -0.0109309815,    -0.062890284,     0.026887573,     -0.08728537, 
      0.0733753,      0.13470088,     -0.03668752,     -0.10827666,      0.06969452, 
    0.011877351,     -0.05282762,     0.060263492,      0.05872386,     0.024395589, 
    -0.08807348,    -0.022812024,    -0.026977459,    -0.040038005,     -0.08633652, 
   0.0043253447,      0.11162866,     0.107920855,      0.25426114,      0.05329827, 
    0.028551716,    -6.38816e-40,      3.0048e-40,    -5.85601e-40,    -0.015347484, 
    -0.13352394,     0.072223894,      0.07411414,      0.08691472,      0.14516844, 
      0.0655999,     0.022824839,      0.15621911,      0.07630133,    -0.048897564, 
    0.050476816,     0.032972828,     0.046851836,     -0.03419535,     -0.13477196, 
     0.07419273,    -0.006423696,     -0.12385976,     0.061931737,       0.3027352, 
     0.42054927,      0.21967886,     0.052374206,     0.057847768,     1.94747e-40, 
   -4.02038e-40,   3.3186448e-10,    0.0009875057,    -0.034003507,     0.030609243, 
     0.13055195,      0.03907306,      0.15976498,      0.15150067,     0.031762667, 
     0.10223707,      0.00985341,    -0.108789906,      -0.1549011,     -0.02316713, 
   -0.055075612,     -0.12510006,     -0.04736181,     0.047562376,    -0.091402896, 
    -0.04064993,      0.18990391,      0.30811447,       0.4680141,      0.34128034, 
     0.10538474,      0.05148796,   -1.463424e-39,   -1.341396e-39,  -3.3690592e-21, 
       0.070244,     0.103018366,      0.21639098,      0.22311084,      0.18601659, 
     0.09173735,      0.14808209,     0.060482282,     0.043077834,    -0.010721991, 
    -0.10185505,    -0.011406067,     -0.15238714,     -0.24762195,     -0.12944551, 
     0.06929206,     0.016862683,     0.031089226,     -0.06641297,      0.21162061, 
     0.38888946,       0.5089525,      0.28613696,       0.0757308,     0.033514414, 
  -1.455345e-39,     5.05916e-40,     2.08267e-40,     0.022371573,      0.05318912, 
     0.15499198,       0.2149404,       0.1277287,     0.062575124,       0.1490649, 
     0.08722598,     0.121475704,     -0.08057482,     -0.17795408,     -0.21799509, 
    -0.30888733,     -0.14560439,    -0.099623255,     0.010685429,       0.1339559, 
     0.13754265,     0.083603404,      0.29236537,      0.44112942,      0.39414948, 
       0.174471,     0.039041203,   3.2706883e-15,    1.019447e-39,     -6.5721e-40, 
   -7.11467e-40,  -2.3164454e-05,     0.060675453,    -0.012963922,    -0.008323612, 
    0.001777043,      0.03105502,       0.0815215,      0.09558462,    -0.036601562, 
   -0.014322941,     -0.06810524,    -0.112449825,     -0.26905856,     -0.26236504, 
    -0.11865714,     -0.07060134,      0.09911066,      0.04416028,      0.15966754, 
     0.37269905,       0.4924269,      0.27210563,      0.14767316,    0.0014154575, 
 -2.6336993e-09,    -1.77073e-39,     -2.0068e-41,    1.436572e-39,   -0.0028907575, 
    -0.03240019,     -0.06322202,     -0.26565114,     -0.06623383,      0.04017547, 
    0.039622482,     0.025288157,   0.00063123065,      0.01878437,     -0.14314409, 
    -0.06817455,    -0.030646715,    -0.061749447,   -0.0053258725,     -0.05274778, 
    0.010885591,      0.03360068,      0.11454151,      0.15298434,      0.16165587, 
    0.101508334,     0.025677059,    0.0010259491,   4.0535847e-10,    1.267856e-39, 
  -1.284237e-39,   -1.539183e-39,     2.69202e-40,    -0.027828686,    -0.044589773, 
    -0.14326702,       0.0748875,      0.08675011,     0.054975476,     0.051095583, 
      0.2529043,      0.23098186,      0.19760261,      0.18093115,    -0.018267563, 
     -0.1897516,    -0.029336704,     -0.27019534,     -0.07899155,      0.05784478, 
    0.075703874,   -0.0041659623,    -0.037615605,     0.011052102,    -0.009424554, 
  -3.725566e-12,   3.2039538e-09,   -1.989914e-39,    1.891443e-39,   -1.469566e-39, 
    4.22549e-40,  -2.3257227e-20,    -0.008133895,   -0.0019446204,     0.015051815, 
     0.04943301,      0.12041986,     -0.01905645,     0.005554634,    -0.039664198, 
    0.058514934,     -0.03288121,    -0.019015245,     -0.02618666,    -0.096573085, 
    -0.13286424,     0.030755829,     0.040083483,     0.027112838,     0.016841425, 
    0.028612096,    -0.003978751,  -1.1399779e-29,   2.4627855e-35,   -1.168348e-39, 
    3.55156e-40,    -1.59947e-39,    1.725939e-39,     1.83373e-39,    -1.36527e-39, 
    -9.7558e-41,     1.33224e-40,    -0.029779019,    -0.012181585,    -0.011451642, 
 -0.00014341074,     0.015156305,     0.043878153,      0.04108514,   1.1423479e-19, 
 -4.5550377e-25,    0.0011548039,      0.01582874,     0.019374352,     0.004439447, 
  2.4831594e-05,   -0.0050949566,     0.014936648,     0.018033879,   -0.0004746628, 
  -1.464318e-39,    -9.11524e-40,    -7.57264e-40,     9.66066e-40}, {
  -1.250261e-39,    1.361242e-39,     7.83078e-40,     1.07659e-39,    1.367758e-39, 
   -1.18484e-40,    1.816195e-39,    -9.52122e-40,   -1.272188e-39,     2.94871e-40, 
   1.838064e-39,      5.8474e-40,     1.84386e-39,    -4.17014e-40,    -1.54791e-39, 
   1.153085e-39,    -4.21159e-40,     -3.0244e-40,    1.855002e-39,     6.55945e-40, 
   1.113849e-39,     7.91393e-40,    1.822903e-39,   -1.140422e-39,     8.84442e-40, 
   1.868927e-39,   -1.609807e-39,    -5.71546e-40,    1.596988e-39,     1.24779e-39, 
    7.70371e-40,    -8.58531e-40,    -5.64103e-40,    1.553652e-39,   -1.055146e-39, 
  -1.374323e-39,     -6.3654e-41,    -7.59872e-40,    1.548435e-39,     1.50258e-39, 
  -1.471079e-39,    -4.04965e-40,   -1.099233e-39,    -2.73417e-40,     1.83417e-40, 
   1.181583e-39,    1.182371e-39,    -5.90168e-40,   -1.246993e-39,    1.479596e-39, 
    2.49908e-40,    1.116073e-39,    1.584084e-39,    -1.94642e-40,      5.9341e-41, 
  -1.799962e-39,    1.256144e-39,      3.4452e-41,    -1.33121e-39,    1.569017e-39, 
   1.886235e-39,     6.03759e-40,    1.608157e-39,   -1.842231e-39,     1.54321e-39, 
    1.07135e-40,   3.6176957e-07,   1.3090898e-06,     5.31482e-40,     1.52474e-40, 
  -1.801292e-39,    -5.70333e-40,  -1.2252895e-24,  -3.8225954e-11,    -2.83467e-40, 
   -6.05416e-40,     -7.2362e-41,    1.111985e-39,    -4.42631e-40,   -1.186324e-39, 
    2.45216e-40,    -7.74576e-40,    1.810948e-39,      5.5411e-40,    -1.16162e-40, 
  -1.305203e-39,    -1.28795e-39,    1.074751e-39,     6.55058e-40,    1.174105e-39, 
  -4.938869e-07,    -0.008488245,    -0.006959962,    -9.16234e-05,     8.62149e-07, 
  -5.951078e-06,   -0.0002920135,  -0.00030534205,  -0.00013300678,  -4.1599424e-12, 
  -3.598211e-11,    -3.49216e-11,   5.2559395e-20,     -1.1342e-41,     -6.3944e-40, 
  -1.063452e-39,     4.36427e-40,   -9.483939e-27,     4.49466e-40,   -1.795921e-39, 
     5.8827e-40,    1.109301e-39,    -8.93402e-40,    1.371175e-39,    1.169619e-39, 
     9.5379e-40,    -1.47119e-39,       6.265e-40,   -0.0036891734,    -0.008443929, 
   0.0010731444,    0.0048183715,   1.7750906e-06,    3.185555e-06,    0.0001233426, 
  0.00084600714,    -0.000422075,   -0.0024382242,  -0.00093291356,  -0.00084463606, 
 -0.00072497356,  -7.1896884e-06,  -1.7536645e-14,    -3.76708e-40,   -0.0042027324, 
  -0.0062832846,   -9.538583e-27,   -1.653215e-39,    1.536538e-39,     1.48932e-39, 
  -1.106072e-39,    1.079364e-39,      6.4893e-41,    1.843215e-39,    1.139281e-39, 
 -1.3506386e-16,    -0.007763415,  -0.00094170833,    0.0049039563,    0.0054312097, 
  2.7726705e-06,   -0.0010864916,   -0.0017496597,  -0.00048698753,   -0.0017720051, 
  -0.0028222704,   -0.0028322819,    -0.006223612,    -0.006195049,   -0.0027594762, 
  -0.0018946154,   -0.0005971196,    -0.012121025,    -0.005179268,     1.50756e-40, 
   -7.47764e-40,     1.40505e-39,    -1.91816e-39,     1.90312e-39,      7.2931e-40, 
   -9.65178e-40,    1.578858e-39,    -1.19724e-39,     6.97285e-40,   -0.0035757548, 
    0.004234783,     0.007715437,   -0.0021135753,  -1.6831216e-08,   -0.0055017876, 
   -0.007659928,    -0.017705139,    -0.014380112,      -0.0085349,    -0.010623381, 
   -0.012830424,    -0.010966319,    -0.010855464,    -0.009553563,    -0.012412167, 
   -0.026141185,   -0.0028945832,    9.021927e-21,     3.61267e-40,    1.599166e-39, 
  -1.237268e-39,    -6.74275e-40,     7.13194e-40,    1.005925e-39,     8.53677e-40, 
    8.48709e-40,   -2.291039e-33,    -0.001158318,    0.0056639393,    0.0035887884, 
  -0.0010434464,    -1.98541e-05,   -0.0027572496,    -0.010379456,    -0.009653961, 
   -0.007848389,    -0.009604423,    -0.010466832,    -0.012342197,    -0.009716567, 
  -0.0047020577,   -0.0073738066,    -0.018891161,   -0.0139312055,    0.0029178855, 
    9.92429e-15,    1.020828e-39,    1.761804e-39,    1.493082e-39,     9.58462e-40, 
   1.851714e-39,     -6.7785e-41,     1.13483e-40,     5.12769e-40,  -3.5651284e-31, 
  9.1827374e-08,    0.0060332334,    0.0018369094,    -0.009120257,   -0.0033073418, 
   -0.003246896,   -0.0045118253,   -0.0017696024,   -0.0032667194,    -0.008780301, 
   -0.012567226,    -0.010520902,    -0.005478846,   0.00019221767,   1.4630978e-05, 
   -0.010045072,     0.000614556,    0.0066823782,   1.5322094e-05,    -1.72863e-40, 
   1.125224e-39,     1.28152e-39,     8.37906e-40,    -6.68447e-40,     9.13029e-40, 
  -1.464201e-39,     5.32701e-40,     -6.0155e-40,  -2.5788871e-05,    0.0034517145, 
   0.0060951626,    -0.005348202,    0.0036527007,   -0.0016618102,   -0.0008067158, 
  -0.0011655494,   -0.0020694507,    -0.007349321,   -0.0045001563,   -0.0011586769, 
  -0.0037383817,    0.0012750415,    0.0020698959,  -0.00062855356,     0.013819245, 
    0.002720463,  -0.00023359034,    -9.68887e-40,    1.250402e-39,     1.89182e-40, 
    6.83255e-40,     1.91584e-39,   -1.448808e-39,    1.655863e-39,    -6.08636e-40, 
   5.689676e-18,   0.00013750183,    -0.000481548,    -0.009734357,   0.00029451225, 
  -0.0013141544,  -0.00047953698,   1.8025505e-08,  -0.00012652916,   -0.0030027493, 
   -0.006762909,   -0.0034418334,    -0.007993549,   -0.0066512222,   -0.0023396385, 
   0.0013472843,     0.015529688,     0.009074325,   -0.0018264353,  -0.00037585737, 
   -2.91837e-40,   -1.651945e-39,     2.66143e-40,    1.562467e-39,    -2.68081e-40, 
   -8.07047e-40,   -1.110819e-39,     6.89065e-40,   1.2446078e-10,      0.00410304, 
  0.00024556386,   -0.0122485785,   -0.0077914074,   -0.0015768287,   -0.0005067754, 
  -0.0028486839,   -0.0074044177,   -0.0057378747,   -0.0050585447,    -0.004913177, 
   -0.009373264,   -0.0066424888,     -0.00218277,    0.0046100854,      0.02319853, 
     0.00070137,   -0.0016492819,    8.556527e-07,     9.22678e-40,   -1.224691e-39, 
     9.1645e-40,   -1.239748e-39,      5.5554e-40,    1.225962e-39,    -1.27518e-40, 
     -6.717e-40,    3.190022e-08,    0.0037272542,   -0.0019875343,    -0.013780652, 
  -0.0031182186,   -0.0018951583,    -0.005071928,    -0.005195452,     -0.00405273, 
  -0.0042369524,   -0.0063063498,    -0.009848401,    -0.010920769,    -0.009408536, 
  -0.0021148783,    0.0069422694,     0.006492617,   -0.0066996715,  -0.00024955187, 
  5.1512427e-05,     3.34772e-40,     1.67888e-40,    -9.64686e-40,   -1.498819e-39, 
  -1.611144e-39,      5.7885e-41,     6.46859e-40,     1.84576e-40,    5.749751e-07, 
   0.0022612666,   -0.0020961056,    -0.010142351,   -0.0025657779,   -0.0038100996, 
   -0.005134309,    -0.002333248,   -0.0024740463,   -0.0007822453,   -0.0024060672, 
  -0.0026772143,    -0.002237886,   -0.0050635473,   -0.0050272117,    0.0021064472, 
  -0.0076050647,    -0.010543137,    3.988757e-05,     9.00793e-08,     -9.3724e-40, 
    6.00514e-40,    -1.25008e-39,     3.99809e-40,    -1.03019e-39,     6.44295e-40, 
   -4.39856e-40,      8.7878e-41,    0.0020664462,     0.009551608,    -0.008178066, 
   -0.021093573,     -0.00972993,   -0.0057731993,   -0.0010804811,   -4.395385e-06, 
 -2.1183377e-09,   -0.0008103151,   -0.0016737754,    -0.001146241,    -0.004308161, 
  -0.0029676522,   -0.0010014711,    0.0012911146,   -0.0023856768,   -0.0035826927, 
  1.9070671e-07,   1.6515781e-21,    -7.95894e-40,    -2.29028e-40,    1.072023e-39, 
   1.872718e-39,    1.749363e-39,    -5.46355e-40,    -2.48213e-40,      1.7559e-40, 
   0.0025439125,     0.012108335,     -0.00933793,     -0.02288578,   -0.0044540195, 
 -8.9991605e-09,   -7.642934e-15,  -0.00017072013,    -0.000284377,  -0.00082964357, 
  -0.0014064781,   -0.0029234695,    -0.007907284,    0.0018510795,     0.004803831, 
   0.0019477665,    0.0037941092,   -0.0054438435,  -6.3714706e-06,      7.3385e-41, 
  -1.128564e-39,   -1.183241e-39,    1.283268e-39,    -3.93775e-40,   -1.515416e-39, 
     7.6855e-40,     -5.2168e-40,  1.01788456e-26,     0.001290811,      0.00906953, 
   -0.006103802,   -0.0055550933,  -0.00094638264,  -3.3768567e-05,  -0.00028514967, 
  -0.0012973872,   -0.0056957556,     -0.00389135,   -0.0054529314,    -0.002676564, 
  -0.0065948674,    0.0011113274,   -0.0010730198,   -0.0050633973,    -0.005627558, 
  -0.0074414373,  -0.00012984291,     2.34591e-40,    -3.06859e-40,      2.8365e-41, 
   1.045694e-39,     8.25377e-40,    -1.52037e-39,     7.50146e-40,     8.15678e-40, 
  4.7323153e-19,   0.00013224743,     0.005731623,    0.0012998754,     0.005098386, 
   0.0030076946,    0.0029010922,    -0.005445696,     -0.00849126,    -0.003884596, 
   -0.008757148,     -0.00517724,   -0.0035624602,    -0.015077637,     -0.01001903, 
   -0.006370293,   -0.0028687133,    -0.005227495,  -0.00023847751,  -5.4794276e-05, 
   -5.82542e-40,     7.63663e-40,   -1.227687e-39,     -3.5074e-40,     4.98348e-40, 
    7.62875e-40,      8.8488e-41,     6.60688e-40,    -4.82814e-05,   0.00016788422, 
     0.00240365,   -0.0007182068,   0.00019643441,    0.0039997967,     0.008513441, 
   0.0052423337,    -0.007256557,     -0.00794647,    -0.016786316,    -0.011734511, 
  -0.0069738613,    -0.018204667,    -0.019848052,     -0.00566565,   -0.0047309515, 
    -0.00885235,   -0.0069158874,   -0.0017087063,    -5.05097e-40,    -3.09272e-40, 
   1.383876e-39,   -1.358812e-39,    1.002743e-39,    -8.62236e-40,     5.46453e-40, 
   -8.11336e-40,  -8.9070475e-09,  -0.00045592742,    0.0007847774,   0.00030655647, 
   -0.006791824,   -0.0027529937,    0.0024174782,   -0.0017973797,   -0.0077880337, 
   -0.020695705,     -0.02591904,    -0.032062247,    -0.022797441,    -0.007843519, 
   -0.015933814,   -0.0057737473,  -0.00054329814,   -0.0014363704,    -0.007936934, 
   -0.006965709,   -6.102376e-16,    -7.79898e-40,     3.42333e-40,      7.8103e-40, 
   -1.04533e-39,    -4.36027e-40,   -1.089994e-39,    -3.51493e-40,    -7.20014e-40, 
 -1.3559071e-14,   1.8969511e-06,    -5.96439e-05,    -0.008326362,    -0.010803946, 
   -0.015017033,    -0.026768586,    -0.030718815,    -0.030970657,    -0.031699594, 
    -0.01705014,   -0.0015928295,  -0.00078630855,   -0.0033159566,   -0.0037412082, 
  -0.0009759256,   -0.0012162697,    -0.007633834,    -0.009729101,    -9.68935e-16, 
   -4.48947e-40,    2.021395e-39,     -2.0267e-41,     4.79258e-40,    1.393392e-39, 
    5.98922e-40,     8.10964e-40,      5.1352e-40,  -0.00011005616,    -0.002872445, 
  -0.0009472283,   -0.0027869958,   -0.0031883973,    -0.008618382,    -0.012221787, 
   -0.012552108,    -0.014832091,    -0.008286524,   -0.0021404359,   0.00070851966, 
   0.0007492482,   -0.0010916656,    -0.002849395,  -6.6446686e-05,    -0.000766561, 
   -0.009263397,    -0.008603327,   -5.165847e-16,     6.72997e-40,     8.20037e-40, 
  -1.189932e-39,    1.999352e-39,   -1.905571e-39,      2.0658e-40,     3.48957e-40, 
    -8.1913e-41,   -0.0011761409,   -0.0027617007,   -0.0034630646,   -0.0020426144, 
  0.00011120178,   -0.0028254874,    -0.005269159,    -0.009859873,   -0.0017739437, 
 -2.6387432e-05,    0.0004277026,   0.00059312687,  -3.8747203e-05,    -0.004299539, 
  -0.0016970558,  -1.1947042e-09,   -0.0004428365,    -0.008106144,    -0.008122746, 
 -1.2955295e-16,     2.66023e-40,   -1.767927e-39,    1.237588e-39,   -1.230434e-39, 
   1.421413e-39,   -1.327265e-39,    1.125055e-39,    1.318259e-39,  -1.3848073e-05, 
   -0.001977697,   -0.0019963225,     -0.00631452,   -0.0063306894,    -0.003957138, 
   -0.003213139,   -8.251951e-05,   4.8371047e-12,   1.4876199e-14,     5.71746e-05, 
   0.0013254659,   -0.0006179483,   -0.0063000945,   -0.0005070875,  -1.0850609e-23, 
 -3.8552307e-26,    -1.99501e-40,     7.68835e-40,     1.66123e-40,    -9.75863e-40, 
   -1.93794e-40,    1.512915e-39,   -1.882258e-39,   -1.180197e-39,     6.94025e-40, 
    9.43225e-40,    -6.66623e-40,    -9.41853e-40,     1.43277e-40,     7.85417e-40, 
   -4.57887e-40,     5.11107e-40,    -6.18116e-40,     6.37871e-40,   3.2231222e-25, 
  2.8329904e-22,     6.81484e-40,   3.7386776e-08,    0.0004401635,  -3.0663217e-05, 
 -0.00034667607,  -1.8573577e-09,   -4.227265e-25,   -2.870104e-25,    -1.33932e-40, 
    -3.5182e-41,    1.046462e-39,        1.95e-41,   -1.435643e-39,    -1.56023e-40, 
  -1.637545e-39,    -7.68511e-40,    1.811069e-39,    1.481016e-39,   -1.525257e-39, 
   -2.51117e-40,    -4.20705e-40,    -7.00345e-40,   -1.540749e-39,    -2.91257e-40, 
   -8.54229e-40,    -6.03971e-40,   2.2823983e-22,   1.0348954e-26,      6.2472e-40, 
   -4.75407e-40,   1.5719962e-32,  -7.4851945e-05,   -3.412598e-06,  -3.1088542e-25, 
  -6.017527e-33,     -4.4975e-40,      7.3836e-40,     -7.4539e-41,   -2.003233e-39, 
  -1.187124e-39,     9.17457e-40,     1.64951e-40,   -1.168405e-39,    1.609985e-39, 
  -1.403293e-39,     4.64395e-40,   -1.911535e-39,    -8.49941e-40,     7.47615e-40, 
    9.14997e-40,     5.47433e-40,     7.60915e-40,   -1.852442e-39,     2.49917e-40, 
    6.53086e-40,     7.06474e-40,     -2.5425e-41,     6.80473e-40,    -1.42139e-39, 
  -1.231572e-39,   -1.338359e-39,   -1.155448e-39,      5.0234e-41,   -1.180891e-39, 
   -1.40245e-40,    1.605793e-39,    1.752966e-39,    1.956688e-39,     8.32326e-40, 
  -1.137891e-39,      -9.394e-42,     1.18558e-39,    -3.79909e-40,     7.60724e-40, 
   1.216526e-39,     6.91716e-40,     6.35193e-40,     -6.2373e-41,      2.7465e-41, 
   -4.29092e-40,    -8.94768e-40,     -6.3492e-40,    1.798324e-39,    1.730763e-39, 
    6.04318e-40,   -1.976901e-39,      9.2697e-41,    -1.29703e-40,    -9.90113e-40, 
     -1.027e-39,     2.83333e-40,    1.106852e-39,     2.42895e-40,   -1.179104e-39, 
  -1.055793e-39,    -7.34513e-40,   -1.764198e-39,    -6.40186e-40}, {
   -4.40158e-40,     4.28639e-40,     7.58765e-40,   -1.458094e-39,     6.61833e-40, 
  -1.522253e-39,   -1.288055e-39,      8.3105e-40,    1.216256e-39,    -6.80933e-40, 
    1.70773e-39,    -5.10597e-40,    -1.59954e-39,   -1.856414e-39,    -1.87464e-40, 
   -7.10566e-40,      -4.903e-42,   -1.158205e-39,   -1.091205e-39,     5.78038e-40, 
   1.073529e-39,         2.7e-44,      -7.099e-42,     6.24023e-40,    1.430516e-39, 
   1.861227e-39,    -8.56667e-40,   -1.439159e-39,     7.06884e-40,    -8.57827e-40, 
   -7.13346e-40,     1.00617e-40,   -1.171223e-39,     4.21338e-40,   -1.607536e-39, 
  -1.110043e-39,    -5.27555e-40,   -1.362303e-39,   -1.667048e-39,   -1.486255e-39, 
   -5.62198e-40,    1.209836e-39,     8.48092e-40,    -9.89091e-40,    -9.55028e-40, 
    8.66424e-40,     4.08722e-40,    -3.03708e-40,     8.52146e-40,   -1.484163e-39, 
  -1.038565e-39,    1.829254e-39,     -8.8003e-41,     7.99273e-40,     3.78671e-40, 
   -5.76206e-40,    -1.04403e-39,    -9.74177e-40,   -1.957555e-39,    -6.03392e-40, 
  -1.655334e-39,     5.79102e-40,    1.506832e-39,   -1.728049e-39,     1.52984e-40, 
  1.1199537e-27,  -1.8503085e-27,   7.7973814e-29,  -2.9863697e-27,   -0.0019117497, 
 -1.9722351e-07,    -5.31459e-40,    -7.70748e-40,     4.79653e-40,      4.8122e-41, 
    -6.1107e-40,   -1.146091e-39,    1.024715e-39,     -6.8722e-41,    -8.22531e-40, 
    9.06577e-40,   -1.128746e-39,     7.52252e-40,    1.071503e-39,    -7.56848e-40, 
  -1.256715e-39,     -9.0696e-41,    -9.99598e-40,   -1.520084e-39,     5.47741e-40, 
    5.79759e-40,    -4.85351e-40,   3.0996572e-21,   -7.973924e-21,    7.715568e-15, 
   0.0008352454,    -0.021161525,    -0.041351985,    -0.024779035,    0.0009215428, 
  -0.0131504405,    -0.007994442,   -0.0022989733,    0.0018389754,   -0.0015866943, 
  -0.0021470927,   1.0885772e-08,   -9.405544e-15,    -3.87082e-40,     3.06258e-40, 
     8.4891e-40,    -1.54305e-40,    -1.15061e-39,   -1.848489e-39,    1.672335e-39, 
  -1.189369e-39,    1.176749e-39,    -4.86283e-40,   5.7928695e-10,     0.005448512, 
    0.058860827,    0.0065622022,    -0.007299687,      0.01456288,    -0.020378517, 
    -0.05118617,    -0.040958766,     0.013763708,     0.010702765,    -0.009755487, 
    0.014403221,   -0.0029187615,    -0.010736689,  -0.00021034628,    0.0028600101, 
     0.04299674,     0.016493892,   -1.275846e-39,    -5.50706e-40,   -1.069364e-39, 
  -1.375767e-39,     -9.2873e-40,    1.821675e-39,     4.77083e-40,    6.798383e-17, 
   0.0015454468,     0.018699186,      0.03275222,     0.035254154,    -0.003176871, 
  -0.0011911776,    0.0013201204,     0.008828392,      0.01038049,     0.022229454, 
   -0.011103423,     -0.04056179,     0.029792473,     0.020108463,     0.004146392, 
   0.0029661446,     0.026844604,     0.017429389,     0.024197087,    0.0062780627, 
-1.10543915e-05,     1.89688e-40,     9.15217e-40,     3.09161e-40,   -1.438573e-39, 
  -1.982149e-39,   -1.038432e-39,   -3.137781e-06,     0.023915667,      0.04263132, 
    0.008530893,    -0.013995208,    -0.026258605,    -0.029760621,    -0.018449929, 
  -0.0011136504,   -0.0054888967,    -0.011199985,    -0.014913035,    0.0070053837, 
   -0.012062886,    -0.023196235,    0.0033084997,    -0.016844498,     0.014020747, 
    0.031082137,      0.05911014,       0.0221198,   5.7392102e-05,     3.34993e-40, 
  -1.532257e-39,   -1.182745e-39,     8.73157e-40,    -4.17559e-40,  -1.8738497e-36, 
  1.3446027e-05,   -0.0075218347,     0.021714022,     0.002457466,    -0.010701167, 
   -0.024213364,      -0.0200632,    -0.037786923,     -0.04117154,      -0.0320094, 
   -0.044959597,   -0.0080391355,    -0.007934052,    -0.045127656,     -0.03892317, 
   -0.018993635,     0.027370028,      0.03024038,     0.017987546,     0.018069115, 
    0.014404765,   0.00030762673,     1.51218e-40,    1.667554e-39,    1.949048e-39, 
   1.222004e-39,   2.2261648e-15,    2.986165e-09,   2.2400161e-05,    -0.020583685, 
    0.026388431,     0.023503516,     0.009562028,    -0.017739909,    -0.055242002, 
    -0.06737126,    -0.045363497,    -0.045515515,     -0.03989521,     -0.06409482, 
   -0.049019665,    0.0011991117,     0.047788277,     0.021237858,     0.020396316, 
    0.026836181,      0.01885951,   -0.0043121674,    -0.010186394,     0.021023145, 
   -1.52946e-40,    -6.37568e-40,     7.92705e-40,     2.88579e-40,   2.7713592e-14, 
 -2.3347265e-08,   -0.0006109344,    -0.018329332,     0.060599368,     0.025833312, 
   0.0049196947,    -0.013119046,     -0.07166832,     -0.07612914,     -0.05339602, 
    -0.06304969,    -0.104868054,     -0.06055204,    -0.032695346,     0.015408695, 
   -0.011689499,     0.036656808,     0.031447638,       0.0162421,     0.008948474, 
    -0.02539959,     0.008313338,     0.027761357,     2.53121e-40,     -9.3908e-40, 
      8.724e-42,   -1.674533e-39,   2.8371172e-14,   -0.0006388164,    -0.016061619, 
   -0.025126092,     0.051359072,      0.01185781,    -0.010788168,    -0.043438483, 
   -0.052951124,     -0.08081286,     -0.06445767,     -0.07388489,    -0.069270045, 
   -0.036613416,    -0.022256127,    -0.015004296,    0.0013394787,    -0.004026331, 
    -0.01131983,    -0.030907197,     -0.02447839,    0.0007474018,     0.022332354, 
     0.02538404,    -7.11041e-40,    -9.59211e-40,   -1.575991e-39,    -4.25744e-40, 
    2.82837e-14,   -6.293863e-05,    -0.010276567,    0.0014855748,     0.055104133, 
     0.02221217,    -0.034442518,    -0.060094103,      -0.0446379,     -0.09219709, 
    -0.07837865,     -0.09178175,    -0.064093284,    -0.047268465,     -0.01855832, 
   -0.025534298,      0.02732797,   0.00014018206,    -0.010766514,     -0.06509485, 
   -0.090610884,      0.03271943,     0.042388886,     0.025417127,   -1.808649e-39, 
   -1.82264e-39,     1.88691e-39,     1.86746e-39,   2.8548707e-14,   6.6818058e-09, 
   -0.024750037,    -0.009283037,     0.053814247,      0.07310199,     -0.01482158, 
   -0.024431841,    -0.037391026,    -0.064452946,     -0.07827337,     -0.08227022, 
   -0.039386705,    -0.012706474,     -0.02868622,    -0.038851086,    -0.023579521, 
   -0.010376968,    -0.050150514,    -0.046168335,     -0.08112769,    -0.022967625, 
    0.048688732,     0.025623815,   -1.378386e-39,    1.736067e-39,    -3.62196e-40, 
  -1.506567e-39,    -6.69512e-40,  -2.0242233e-08,    -0.012760104,     0.048757963, 
    0.112124145,     0.112455815,    0.0030138826,    0.0050899982,     -0.04327737, 
    -0.07887216,     -0.06771206,    -0.058516275,    -0.020866042,   -0.0144593315, 
   -0.056297194,    -0.045935985,    -0.036775988,     -0.04332641,    -0.035844382, 
     -0.0403277,      -0.0736424,    -0.006502034,      0.03196013,     0.025715705, 
    8.64645e-40,     7.52244e-40,   -1.254308e-39,    1.766037e-39,   -1.352343e-39, 
  -1.382746e-05,    -0.031964537,     0.048745435,      0.08708689,      0.09805199, 
     0.08961675,      0.01882698,     -0.07388087,    -0.063896865,    -0.017901614, 
   -0.016545998,     -0.04713278,     -0.05773705,     -0.07906938,     -0.06550314, 
   -0.028490981,    -0.039748494,     -0.03673364,     -0.08884226,     -0.06567347, 
 -0.00062917895,      0.03705996,     0.025738502,      3.3497e-41,   -1.609215e-39, 
   1.164357e-39,     8.97415e-40,     2.37264e-40,     4.11569e-05,   -0.0047575966, 
    0.007588359,      0.03836255,       0.0445233,      0.08273829,     0.009806549, 
   -0.023277419,    -0.019118978,   -0.0054044137,    -0.058640756,    -0.082369484, 
    -0.09998746,     -0.06273113,    -0.042546514,    -0.026641062,    -0.009456658, 
   0.0032131085,    -0.035498902,    -0.057689134,     0.010551851,      0.04276515, 
    0.020428041,     3.32284e-40,     9.33974e-40,    1.515675e-39,    1.522427e-39, 
  -1.522469e-39,    0.0024146007,     0.022304378,     0.017046515,     0.014573969, 
    0.008529565,     0.032122906,    0.0026230582,   -0.0014708976,   -0.0062326896, 
   -0.037683476,    -0.051882677,     -0.06709764,    -0.039396986,    -0.028288927, 
   0.0014955022,    -0.007992978,     0.005524301,    -0.007958113,    -0.016471714, 
    -0.06554372,    -0.013475282,     0.023623956,     0.008116015,      2.4542e-41, 
    1.42701e-40,   -1.111999e-39,   -1.874597e-39,    -6.68826e-40,    0.0041297446, 
    0.003594748,     0.020974629,      0.03954066,      0.04879626,     0.031442925, 
    0.011975033,    -0.021009179,    -0.043839123,     -0.06999661,    -0.071236596, 
    -0.07257024,     -0.05130401,    -0.027764997,      0.00555486,       0.0043952, 
   -0.012185098,   -0.0004960016,    0.0082324995,    -0.018875582,   -0.0021009075, 
    0.031200998,    4.529419e-05,      5.0535e-40,   -1.259318e-39,     9.72233e-40, 
   -6.35608e-40,   -1.018074e-39,     0.002462266,    -0.003478724,     0.049305033, 
    0.042806465,     0.026911914,     0.035106562,  -0.00024830052,     -0.04677263, 
    -0.08252981,      -0.0849561,     -0.06848808,     -0.09166479,    -0.064038344, 
   -0.008436351,   -0.0088422205,   -0.0015029564,    -0.026152851,    0.0013759609, 
    0.007123974,    0.0022500672,    0.0015690823,   -0.0019176782,    -0.004114063, 
  -1.703654e-39,     7.41164e-40,     1.45169e-39,     -7.3864e-41,    5.311681e-15, 
    0.002088882,     0.014517431,      0.06845639,    0.0058247685,     0.013624514, 
   -0.004132709,    -0.027056595,      -0.0705891,     -0.09608756,     -0.07073222, 
    -0.10737205,     -0.09866201,     -0.08660878,    -0.018598542,    0.0089242365, 
   -0.015405059,     -0.03033471,    -0.022518722,    0.0038243795,      0.00678224, 
    0.019656662,   -0.0045942636,   -0.0031206985,    1.847245e-39,   -1.274974e-39, 
   -1.44894e-40,    -3.41524e-40,    0.0008087049,    0.0141264675,    -0.002397952, 
     0.01419583,     0.010852652,     0.027217826,    0.0048354026,    -0.057083663, 
    -0.07138646,      -0.0633572,     -0.09316411,    -0.117704414,     -0.09919223, 
    -0.04345349,    -0.060371958,     -0.09070566,     -0.08450052,      -0.0386229, 
    -0.02591051,     -0.02878552,   -0.0076508224,     0.013155203,    -0.025844801, 
  -0.0058652232,   -1.925541e-39,   -1.813398e-39,     7.66687e-40,   -1.536856e-39, 
   0.0049036383,     0.014112372,    -0.013690452,      0.01405572,     0.040575847, 
    0.043479975,     0.026420247,    -0.029801054,    -0.049929272,      -0.0805386, 
    -0.09964804,    -0.094543435,     -0.06808322,    -0.032993212,     -0.06606145, 
    -0.06718295,      -0.0914837,     -0.05609904,    -0.076535255,    -0.023813574, 
    0.009590042,    0.0017893137,    -0.013079698,    -0.009471935,   -1.400608e-39, 
  -1.149499e-39,    -3.91419e-40,     5.88341e-40,  1.36788145e-08,   0.00060380343, 
   -0.010272467,    0.0127588995,     0.065262035,      0.06646252,     0.043108977, 
    0.037533462,    0.0015715867,    0.0029855368,    -0.028219929,    -0.061584473, 
    -0.03226059,    -0.028761392,     -0.02500567,    -0.026966413,    -0.049897227, 
   -0.034576554,    -0.019655362,    -0.008075008,    0.0027111766,    -0.007398669, 
   -0.011511566,   -0.0096684685,    -6.82725e-40,     -3.6668e-40,   -1.148358e-39, 
  -1.612043e-39,    -4.47332e-40,  -1.2932665e-07,    -0.010628045,    -0.012487573, 
    0.030244207,     0.026445782,     0.021704111,    -0.006302831,     0.016502172, 
    0.031812854,     0.011275979,     0.014090266,     0.040709652,     0.032359693, 
    0.006805199,   -0.0013395136,     -0.09592784,    -0.062301826,    -0.019088184, 
   -0.014025179,    -0.022849757,    0.0028041669,    -0.003794653,   -0.0053216983, 
  -1.497489e-39,    1.668547e-39,    -9.91323e-40,     7.56634e-40,   -1.454371e-39, 
   -4.21446e-40,   0.00070019875,    0.0015988396,    -0.017291646,     0.006091998, 
   -0.014479552,     0.009888306,      0.05338079,     0.039741714,     0.044485353, 
     0.04136311,      0.05906005,      0.03274592,    0.0029575867,     -0.09714876, 
    -0.07930219,     -0.06278753,    -0.021447554,    -0.019530602,    -0.012428338, 
   0.0075775166,     1.02287e-05,   -1.429785e-39,     -6.7991e-41,      4.8108e-41, 
   1.340673e-39,     1.38307e-39,   -1.577147e-39,    1.379433e-39,      -2.626e-42, 
  -0.0011669024,    -0.002954891,   -0.0025251228,    -0.026180236,    -0.010939195, 
   -0.011533774,    -0.015040472,    -0.019478725,    -0.009402725,    -0.008091641, 
  -0.0028985273,    -0.013331258,   -0.0045279013,    -0.015573496,    -0.026736876, 
    -0.03141312,    -0.029059783,     -0.02631367,    3.852098e-39,     7.18964e-40, 
   1.381743e-39,   -1.769666e-39,   -1.218751e-39,   -1.227497e-39,    1.764487e-39, 
   1.743872e-39,    1.129915e-39,   -1.350965e-39,   -0.0004064543,  -0.00038387807, 
 -1.6503922e-06,  -4.1475173e-10,  -1.4745396e-08,  -5.0939776e-18,  -2.0679932e-11, 
  -2.393368e-24,  -2.3433712e-12,  -0.00020397331,    -0.019012665,   -0.0092059225, 
   -0.026014967,   -0.0014359263,   -5.754258e-09,  -1.0548363e-09,   -5.902971e-08, 
 -1.0975566e-08,     3.13005e-40,   -1.277351e-39,     4.03001e-40,    1.198418e-39, 
     6.0193e-40,      9.9529e-41,    1.838125e-39,   -1.654592e-39,    -4.58646e-40, 
  -1.605451e-39,   -1.477456e-39,   -1.708616e-39,   -1.487398e-39,      1.5262e-39, 
   1.946647e-39,   -1.815668e-39,      7.0142e-41,     8.08275e-40,    -6.72012e-40, 
    6.48832e-40,    1.501472e-39,   -1.461634e-39,    -6.06123e-40,     6.62566e-40, 
  1.2911034e-38,   1.6482405e-35,   -6.865119e-16,   -9.203302e-08,   -3.162723e-30, 
   1.002021e-39,   -1.185187e-39,   -1.281178e-39,   -1.100789e-39}, {
   1.122357e-39,   -1.715011e-39,   -1.437801e-39,     -3.9218e-40,   -1.160745e-39, 
   -3.33069e-40,   -1.310022e-39,   -1.878654e-39,     -6.9041e-40,    1.511826e-39, 
  -1.717981e-39,     1.43947e-40,    1.012221e-39,    1.711048e-39,   -1.641112e-39, 
   1.799148e-39,     7.42503e-40,     1.28067e-40,    1.887636e-39,     -5.2056e-40, 
    5.44615e-40,      -5.067e-40,    -1.72637e-40,     6.06035e-40,   -1.007021e-39, 
   1.169201e-39,    1.608338e-39,   -1.010804e-39,     2.33277e-40,    -6.93553e-40, 
  -1.485128e-39,    1.508403e-39,    -3.88347e-40,    1.241862e-39,   -1.194049e-39, 
    -7.8135e-40,    1.614362e-39,    1.603684e-39,   -1.104838e-39,    1.325333e-39, 
    1.29885e-39,    1.476239e-39,   -1.175085e-39,   -1.355137e-39,   -1.613581e-39, 
   1.882524e-39,    1.204043e-39,   -1.167965e-39,   -1.099082e-39,    1.314051e-39, 
    2.99184e-40,   -1.279755e-39,   -1.856313e-39,    1.409618e-39,    -1.11025e-39, 
    3.12638e-40,     4.90667e-40,   -1.473149e-39,    -9.96692e-40,   -1.358123e-39, 
    1.74682e-40,     -2.2653e-40,    1.264443e-39,    -8.00527e-40,      -1.482e-39, 
    4.23887e-40,   -1.300114e-39,   -1.338415e-39,    1.004797e-39,     1.92868e-40, 
    3.35881e-40,    -6.38706e-40,    1.104886e-39,    -6.02467e-40,   -1.514121e-39, 
    8.62191e-40,    -3.90906e-40,    1.359938e-39,    -9.61578e-40,    -7.80553e-40, 
    3.67374e-40,   -1.148965e-39,      4.6267e-41,    -3.43301e-40,    1.476103e-39, 
   1.885797e-39,    1.874517e-39,    1.109461e-39,    -7.09744e-40,      3.9075e-40, 
    7.56029e-40,     1.39663e-40,      8.6265e-41,    -3.76484e-40,    -1.88166e-40, 
   -7.97077e-40,     -9.6823e-41,     4.00009e-40,       6.411e-42,     2.94191e-40, 
 -1.8376938e-12,   -6.566796e-12,     4.30447e-40,      5.5538e-40,     8.07043e-40, 
   -8.16097e-40,   -1.129556e-39,   -1.928851e-39,     4.00785e-40,   -1.091909e-39, 
  -1.127783e-39,     9.69598e-40,      -6.799e-40,    -2.62459e-40,    -7.31412e-40, 
    1.14169e-39,    -6.16944e-40,     9.37205e-40,    1.249127e-39,     5.08653e-40, 
 -1.4518613e-11,   -8.001243e-10,  -3.1355066e-10,   -7.510445e-14,     1.91819e-19, 
   9.114554e-19,   2.4470869e-18,   1.0653814e-12,   1.1700854e-09,    3.374622e-09, 
  3.8144488e-10,    7.392557e-18,    -3.24814e-40,      5.8124e-41,    -1.02846e-39, 
    5.76798e-40,     6.63924e-40,     -3.7993e-40,      1.5119e-40,   -1.485735e-39, 
   1.203713e-39,    1.570201e-39,    -2.01178e-39,      -9.871e-40,      -6.505e-41, 
   1.425919e-39,    -6.97519e-40,  -5.9553854e-16,  -1.0032372e-09,  -1.3673375e-08, 
   -8.96037e-09,    3.548208e-11,  1.42617385e-11,    9.892462e-11,     4.58391e-12, 
  6.6963336e-12,   2.2503796e-11,    9.166906e-09,   2.5255298e-09,   1.8794075e-09, 
  7.4511377e-13,     1.89799e-40,    -2.28664e-40,      6.5761e-40,     1.38552e-40, 
    -6.6736e-40,       7.755e-40,    1.178084e-39,   -1.494256e-39,     5.33586e-40, 
    5.97692e-40,   -1.427762e-39,    -2.11181e-40,    -8.81456e-40,   -1.981659e-31, 
 -4.2643233e-10,  -1.7233546e-08,  -6.4781275e-08,  -4.0267363e-08,   1.0556668e-13, 
  1.4714914e-14,   1.6973618e-22,    -1.33132e-40,     5.86888e-40,    -6.71739e-40, 
  -7.264571e-21,  -1.2581195e-08,   -7.762416e-09,    1.977185e-09,    5.438654e-16, 
    -4.0504e-40,    -7.03953e-40,     -1.5945e-40,    1.894714e-39,    1.425916e-39, 
    -2.2971e-41,     1.78077e-40,    1.566973e-39,    -7.65714e-40,     -4.8576e-41, 
   1.210146e-39,    1.014553e-39,  -5.3941405e-21,  -1.8673797e-08,  -5.7691846e-08, 
 -2.1863814e-08,   -8.049621e-12,   2.8792852e-19,     1.21313e-40,     1.38925e-40, 
   -2.32711e-40,     -6.2457e-41,     2.98727e-40,  -1.1519288e-14,    -4.53736e-12, 
  -7.209756e-09,  -1.5302128e-09,  -5.1390725e-10,  -3.4338755e-16,      5.0927e-40, 
   -2.10774e-40,    -3.74781e-40,   -1.430988e-39,     -9.4757e-41,     1.41542e-39, 
    5.05126e-40,     9.83323e-40,    -8.96269e-40,     8.18675e-40,       1.204e-42, 
 -3.1309063e-12,  -1.8451997e-08,  -2.1462936e-09,   1.8735566e-09,    4.694437e-27, 
 -3.3431575e-27,   -9.305048e-25,  -4.9808115e-27,  -2.7197055e-31,  -5.5081532e-30, 
 -9.1908303e-23,  -1.4342122e-12,  -7.3089375e-13,   -9.622345e-15,  -2.0112412e-10, 
   -9.88195e-10,  -1.3153351e-15,    -1.99227e-40,     7.82341e-40,    1.227266e-39, 
   -9.93376e-40,    -9.63599e-40,   -1.124552e-39,    -1.71095e-39,     7.17337e-40, 
   -4.43651e-40,     -3.1195e-40,    -3.08926e-40,  -1.6539344e-09,  -1.7838605e-08, 
  -6.452478e-08,  -9.4997005e-12,  -2.2646059e-31,  -1.7499311e-29,  -5.1914466e-27, 
 -4.7788316e-25,  -2.0599214e-25,  -1.0234818e-26,  -1.8234309e-14,  -1.4490828e-12, 
 -1.2671544e-15,    1.428596e-36,  -1.8880937e-11,  -1.2378655e-09,  -1.5576433e-11, 
    2.13695e-40,      -6.656e-40,     1.84652e-40,    -4.66003e-40,    1.151053e-39, 
   -1.10571e-39,    1.632234e-39,     -3.4237e-41,   -1.467636e-39,    -1.40573e-40, 
   -4.81537e-40,  -1.3198239e-09,   8.1020735e-10,   -4.297208e-08,  -3.5718036e-11, 
 -9.3217635e-30,  -4.8337874e-21,   -7.227718e-28,      3.0497e-40,     -4.3896e-41, 
    1.95478e-40,  -5.0755293e-13,   -5.285751e-13,  -1.3231347e-23,   4.0630215e-21, 
 -3.0686446e-11,  -1.2830644e-09,  -6.8486594e-10,   -6.510674e-24,    -2.52643e-40, 
    5.59063e-40,   -1.532831e-39,    -6.24057e-40,    -4.99913e-40,   -1.121811e-39, 
    6.21203e-40,    -5.68561e-40,       -6.64e-40,  -7.8374687e-32,  -3.7992596e-09, 
   9.012971e-09,  -1.8292383e-08,  -4.3089012e-09,   -3.571308e-17,  -5.4277193e-28, 
 -3.7973777e-22,   -4.289162e-22,       6.337e-40,  -4.7939886e-24,  -1.8784002e-12, 
 -1.7913943e-13,   3.5136687e-12,    7.781661e-12,   2.5409553e-11,   -8.790938e-10, 
 -3.2683137e-10,  -2.1635102e-17,   2.3679412e-32,     -4.3449e-40,    1.421637e-39, 
   1.634498e-39,      2.2142e-40,     -5.1057e-40,      -8.598e-41,    1.292863e-39, 
   -5.36194e-40,  -6.1171838e-27,  -3.2942388e-10,   2.5742268e-09,  -7.3744477e-09, 
 -6.4664554e-09,   -6.050978e-13,    -9.23248e-16,    -6.99611e-17,  -8.5723064e-19, 
   -2.89922e-26,   -8.407276e-15,  -2.2725717e-11,   5.5275537e-12,  -1.9741016e-14, 
  -7.874252e-16,   4.1111706e-12,  -3.0146396e-09,     6.39437e-08,   1.7612068e-09, 
  2.3126743e-28,    -2.02776e-40,    -8.30128e-40,    -8.50307e-40,   -1.261173e-39, 
     -2.265e-41,   -1.039941e-39,     9.07269e-40,     6.07047e-40,   -7.956863e-33, 
  1.9966058e-11,    8.334047e-09,   -9.695594e-10,  -2.4187172e-09,  -2.3406168e-11, 
  -6.192233e-14,   -4.902287e-13,  -1.2027129e-11,  -4.0378814e-13,   1.6286107e-10, 
  2.5558948e-09,   -3.604039e-13,  -8.0335254e-19,   1.2912445e-18,   4.6674717e-18, 
 -1.2614417e-11,   4.4582396e-09,    7.103802e-09,     3.79715e-40,     3.05532e-40, 
   1.802455e-39,   -1.825338e-39,   -1.535031e-39,     5.92944e-40,    1.118694e-39, 
   -2.18367e-40,    -5.60924e-40,     1.53615e-40,    7.205258e-14,   1.9929628e-08, 
 -5.8110133e-10,   -2.811086e-10,  -7.8559585e-16,  -1.0952192e-19,    -4.85499e-13, 
 -1.0110669e-11,  -1.0070144e-10,     9.52037e-09,   6.2694844e-10,   -4.443046e-12, 
 -1.4120768e-12,     -6.6939e-17,  -1.2919191e-22,  -7.4723526e-11,   1.3488815e-08, 
  3.3524683e-09,    -2.37583e-40,      -9.544e-40,     -5.0779e-40,   -1.158547e-39, 
    9.23812e-40,    1.099558e-39,    1.243053e-39,     7.53943e-40,     6.57405e-40, 
    1.51235e-40,    5.676337e-17,   3.3379273e-08,  -2.9858396e-09,   -2.716445e-09, 
  -8.523966e-13,   -1.414829e-20,  -1.2988903e-19,  -1.0614709e-11,   4.4740994e-10, 
  4.4336795e-10,   -1.997656e-16,  -1.7358741e-17,  -1.3473323e-13,  -1.9077105e-13, 
  -6.223387e-13,   -5.134427e-09,   1.7606139e-08,   2.4723272e-09,    -2.03372e-40, 
    2.68719e-40,    1.068043e-39,    -2.84828e-40,     -4.9322e-40,    1.157328e-39, 
    8.08157e-40,     -4.4784e-41,    -2.55164e-40,     1.28465e-40,   3.9932534e-19, 
  1.7017257e-08,   1.3407445e-08,  -2.2369404e-09,  -1.8944657e-11,   -5.967626e-19, 
 -1.4357405e-19,  -3.2452955e-12,   -7.434831e-10,   5.2205753e-12,      6.9867e-41, 
   -5.14497e-40,    -4.53012e-40,  -2.0532176e-17,  -1.0093422e-12,  -3.0774952e-08, 
  2.3670811e-08,   1.3183207e-09,     -9.7683e-41,    -8.17848e-40,     1.09577e-39, 
   1.727392e-39,    -6.70008e-40,    1.410243e-39,     9.52122e-40,     1.43755e-39, 
    1.72039e-40,    -1.94937e-40,    7.231423e-20,   1.1643344e-09,   3.7362744e-09, 
  -5.365279e-10,  -2.9930955e-09,  -4.1998918e-11,  -2.1521216e-26,  -5.9214596e-13, 
  -5.363102e-10,      4.3074e-12,    -2.70745e-40,     2.06846e-40,      1.1241e-40, 
    3.18994e-40,  -8.3209736e-13,  -2.9681521e-08,   3.0378683e-08,  -2.1816357e-10, 
    1.11646e-40,    1.362183e-39,   -1.035487e-39,    1.063304e-39,     8.42358e-40, 
    6.64214e-40,    -1.53807e-40,    -7.41986e-40,     5.51293e-40,     5.39627e-40, 
  -6.890152e-21,     9.81459e-15,   1.4253298e-08,  -3.0302747e-09,   -3.079528e-09, 
  -9.015209e-10,  -5.2832745e-11,   -4.572882e-13,  -4.5023904e-10,    3.889536e-12, 
   -2.42231e-40,     4.49797e-40,    -6.83834e-40,  -1.2737209e-36,   -5.984638e-09, 
  6.5727233e-09,  -1.0006652e-08,  -4.4442555e-10,     -5.8643e-40,    -8.29695e-40, 
    -7.3403e-41,   -1.458329e-39,   -1.306914e-39,     3.09887e-40,    1.055598e-39, 
   -9.21407e-40,      -4.984e-42,     4.45173e-40,   -7.195914e-31,    7.636331e-24, 
  5.5929655e-10,  -1.3340183e-11,  -1.8606941e-10,  -4.1422182e-10,  -5.3897784e-09, 
 -2.1993438e-12,   4.0864645e-11,    7.391577e-12,      9.1377e-41,     5.47553e-40, 
 -2.6762707e-37,   1.4795556e-10,  -2.9113428e-08,  -2.4504798e-08,   -6.992214e-11, 
    -6.2254e-41,     -7.0494e-41,     5.00709e-40,    -6.76215e-40,      4.0104e-41, 
  -1.512622e-39,     8.20529e-40,     3.27116e-40,    -1.39829e-40,    -2.38491e-40, 
  1.6096564e-35,   6.0860034e-37,    -4.61567e-40,    9.423399e-23,    6.471403e-10, 
   4.589306e-09,    4.045353e-10,  -1.4416011e-09,   -2.810775e-08,  -2.4334039e-08, 
  -5.475862e-09,   -9.931211e-10,   3.7125687e-09,   1.7838541e-08,  -1.9275987e-08, 
 -3.7802725e-08,  -1.7842204e-08,   -3.304193e-13,     4.20789e-40,     8.24384e-40, 
    4.57118e-40,     -7.7626e-41,    -9.64326e-40,   -1.712001e-39,     5.61104e-40, 
    1.43951e-39,    1.737422e-39,    -7.32026e-40,   2.6971098e-35,     1.51811e-40, 
    5.95818e-40,     1.43092e-40,    2.075123e-15,   5.9022726e-10,   1.8512152e-08, 
  3.9610357e-10,  -1.4805522e-08,   -4.378263e-08,  -1.7966642e-08,    1.216677e-09, 
   3.565226e-09,  -2.9730733e-08,  -2.2089777e-08,  -2.4392047e-08,  -9.1765523e-14, 
     7.7503e-41,    -1.17205e-40,     3.04127e-40,     -2.3711e-40,   -1.111597e-39, 
     9.2727e-41,     7.54521e-40,    1.677228e-39,    -2.04131e-40,     4.11326e-40, 
   -6.58791e-40,    -4.10229e-39,     2.64201e-40,     1.09709e-40,    -4.82452e-40, 
   -6.64225e-40,   1.2797512e-15,   1.2915349e-11,   1.4634589e-11,   -7.813078e-09, 
 -1.7234719e-07,   -1.080416e-07,  -2.6464804e-08,  -1.6797358e-08,  -2.1210475e-08, 
 -2.1085212e-08,   -6.005716e-17,    -5.09551e-40,    -1.02009e-40,      6.9348e-40, 
    5.39438e-40,   -1.030341e-39,   -1.784604e-39,     9.49964e-40,   -1.125865e-39, 
     1.1184e-41,    1.104478e-39,     2.70996e-40,      4.7755e-40,      6.9703e-41, 
      8.296e-42,    -3.98647e-40,     5.69081e-40,     7.25347e-40,    -3.49466e-40, 
   8.532877e-20,    4.589704e-13,   1.2219283e-12,  -1.6132316e-12,  -1.4532971e-13, 
  -2.471281e-15,   -4.644237e-13,  -1.3523448e-19,      3.8592e-41,       7.922e-41, 
     3.1369e-40,     8.61366e-40,     4.42851e-40,     4.33532e-40,      9.3331e-40, 
    8.95374e-40,     2.84871e-40,    1.930677e-39,   -1.263226e-39,   -1.040122e-39, 
    1.41013e-40,    -4.63436e-40,      8.9715e-41,   -1.007627e-39,    -9.34033e-40, 
    6.48365e-40,     -9.7686e-40,     1.85163e-40,    -2.60486e-40,     1.71281e-40, 
    2.30746e-40,    -2.53398e-40,      7.2855e-41,   -1.301313e-39,    -3.35767e-40, 
       3.18e-40,     9.86834e-40,     -5.2505e-41,    -6.67392e-40,     1.11381e-40, 
    2.39598e-40,    1.057957e-39,    1.020987e-39,      7.7317e-40,      -7.517e-41, 
    6.71013e-40,    -2.82527e-40,    -9.04367e-40,     3.02896e-40,    -7.42813e-40, 
   -5.79573e-40,     5.93265e-40,       8.234e-41,    -6.97618e-40,     7.60797e-40, 
    1.07945e-40,      9.4795e-41,     5.92716e-40,    -1.52016e-40,     4.78161e-40, 
    -2.8121e-40,    -2.30333e-40,     4.34837e-40,   -1.102582e-39,    1.379976e-39, 
    3.01792e-40,    -6.63844e-40,     9.38632e-40,     6.59118e-40,    1.515024e-39, 
      8.321e-41,    1.212715e-39,    1.531779e-39,   -1.083902e-39,   -1.789541e-39, 
   1.293885e-39,      -3.243e-42,    -3.94948e-40,      3.6096e-41,    1.499487e-39, 
   1.262644e-39,     1.03222e-39,     -8.7978e-41,    1.072204e-39,     4.99933e-40, 
    3.69457e-40,      -3.348e-41,     4.95297e-40,    -1.48898e-40,        4.12e-41, 
    2.00114e-40,     8.01564e-40,     7.60542e-40,    -3.15762e-40,       -8.31e-42, 
    -8.7486e-41,     3.83764e-40,   -1.155739e-39,    1.409744e-39,    1.152142e-39, 
   1.961014e-39,     5.29961e-40,    -5.44884e-40,   -1.064908e-39,    1.292095e-39, 
   -5.63279e-40,      7.0942e-40,    -7.97975e-40,   -1.166528e-39,    -8.38066e-40, 
    8.04854e-40,    -2.43258e-40,    1.242328e-39,      2.1597e-40,     4.07716e-40, 
   -1.82965e-40,    1.030421e-39,    1.322347e-39,      -9.205e-40,     8.01794e-40, 
   -9.45819e-40,    -6.85927e-40,    1.105383e-39,   -1.330792e-39,    1.110585e-39, 
    -2.4845e-40,     7.24438e-40,    -5.16506e-40,    -4.43969e-40}, {
     8.7977e-40,    1.956172e-39,   -1.284939e-39,    -4.17374e-40,   -1.568287e-39, 
   -5.17421e-40,     7.20245e-40,    1.111122e-39,   -1.049987e-39,     2.78849e-40, 
  -1.431505e-39,     1.85914e-39,     5.58947e-40,     9.80964e-40,    1.183301e-39, 
  -1.865835e-39,   -1.095894e-39,    -5.72639e-40,    1.167601e-39,    1.391136e-39, 
    1.14697e-39,     5.38795e-40,    -1.89991e-40,     -4.6843e-41,    -4.47573e-40, 
  -1.082011e-39,    1.722385e-39,    1.061981e-39,    1.093932e-39,   -1.373146e-39, 
   1.523607e-39,    -5.15332e-40,   -1.055817e-39,   -1.438996e-39,    -7.88684e-40, 
   -1.59871e-39,     0.022366319,    0.0055734753,     0.021630153,     0.025492093, 
     0.03055502,     0.019561637,    6.824861e-05,    0.0014779824,   2.4106743e-05, 
   2.976993e-08,   -0.0006793327,   -8.915846e-05,    0.0051813815,     0.027773961, 
    0.028536905,     0.008449704,   -2.008641e-39,      2.9067e-40,    -6.96783e-40, 
   -3.68605e-40,     -4.5175e-41,     1.25503e-40,    1.093467e-23,    3.680111e-32, 
 -4.5444426e-11,  -1.1596644e-10,      1.1114e-41,   2.7416677e-19,     0.022413481, 
    0.017062906,     0.042638063,     0.085051596,     0.048998624,     0.029087447, 
     0.02555315,      0.00840403,      0.04426029,    0.0051723593,     -0.06204455, 
    -0.01383685,   -0.0012468598,    0.0030541623,     0.027803209,     0.025364837, 
 -1.4702194e-16,   1.9999368e-29,    -3.20756e-40,   -2.018695e-39,    -1.72811e-40, 
   1.402682e-39,  -2.7414797e-23,   4.1269224e-25,  -8.4488997e-13,   -6.808873e-11, 
 -1.7438851e-21,   1.6481462e-11,     0.015894584,    -0.073325396,    -0.047014065, 
    0.081738636,      0.09926464,      0.22619218,      0.12614983,   -0.0045970534, 
    -0.06441591,     -0.10623045,     -0.11686219,     -0.09581151,     -0.07827627, 
    -0.04572194,     -0.04618182,     0.045464687,       0.0497861,    0.0011072052, 
  7.4112316e-09,     7.99274e-40,      9.3322e-41,   4.2501436e-28,    1.578735e-39, 
  2.2123867e-09,   2.6737682e-22,    6.140876e-19,   -0.0023015519,     -0.07630151, 
    -0.20876488,      -0.3013944,     -0.37277514,     -0.11908055,     0.089585714, 
    0.057536438,     0.035970654,    -0.044904057,    -0.103752874,     -0.28543514, 
    -0.25726387,    -0.033494398,     0.050916545,      0.17128028,      0.13425536, 
    0.097630166,      0.09488236,    0.0064689605,    -0.009285111,    -0.009790938, 
   -1.12364e-39,    1.768576e-39,   -1.075501e-39,   -7.150089e-05,    -0.007496399, 
   -0.026786918,     -0.07819614,       -0.213886,     -0.19421586,     -0.15720649, 
     0.13359527,      0.33195654,      0.28077334,      0.21016748,   -0.0048833587, 
     -0.1757809,     -0.23330763,     -0.11823153,     -0.16003202,     0.006348856, 
    0.027908461,      0.11787253,        0.158299,      0.04518857,     0.022099894, 
    0.012223451,    0.0073528737,   -0.0123832105,    1.419772e-39,     -8.4232e-40, 
  -8.426484e-33,   -0.0016611598,    -0.014591607,    -0.013177724,     -0.15042326, 
     -0.2606244,     -0.24783844,      -0.0830877,      0.13358997,      0.24339017, 
     0.23546621,       0.1206361,     -0.06343925,     -0.29517165,     -0.26421857, 
    -0.20324625,   -0.0031252813,      0.11010712,    -0.028577857,     -0.07864025, 
     0.10672839,     0.058651675,      0.04616261,       0.1143047,    -0.029640187, 
  6.6856455e-07,   -1.489883e-39,  -4.7763483e-06,  -1.2348102e-33,    -0.000160884, 
  -0.0065085692,    0.0072449204,     -0.20974833,     -0.32354486,     -0.27804723, 
    0.038128663,       0.2624702,       0.3756972,      0.05971243,     -0.10066438, 
    -0.26241645,      -0.2885453,     -0.23149104,    -0.016678136,      0.24275465, 
     0.24649401,      0.12800553,    -0.020303968,     0.041591424,     -0.02930493, 
    0.017310167,      0.15144058,       0.0628459,   -5.668697e-14,    -5.93987e-40, 
   -0.011368344,   -3.211931e-12,  -2.1064379e-08,    5.424259e-10,   4.2818003e-05, 
    -0.12884712,     -0.41769078,      -0.4078445,    -0.021881508,      0.08910318, 
     0.20833988,      0.09808659,     -0.03411105,     -0.28554052,      -0.2361246, 
    0.015568492,       0.1405021,     0.030454338,      0.09424913,    0.0139131555, 
     0.02285838,     -0.01837001,     -0.07717335,       0.0775576,      0.23121558, 
     0.09530198,    8.036094e-18,    -5.22679e-40,     5.87494e-40,  -1.7180839e-14, 
 -1.9825315e-08,    0.0016610912,    -9.75961e-05,     -0.23070316,     -0.53023744, 
     -0.3168887,    -0.013612002,      0.07864287,       0.3321675,       0.2557146, 
   -0.015500138,     -0.33304438,     -0.29016465,    -0.056242134,     -0.03018633, 
   -0.069272526,     0.009669455,     -0.09500622,    -0.106515646,      -0.1458926, 
   -0.083931565,       0.1583708,       0.1720919,      0.03573275,   -3.850312e-06, 
   1.249646e-39,    5.662032e-26,  -3.6892303e-07,  -6.2021815e-07,    0.0040983157, 
   -0.006438099,     -0.24323767,     -0.19710922,     -0.25197867,      0.16718769, 
     0.15818924,       0.3209883,      0.23825759,      -0.0789975,      -0.2636437, 
    -0.22628278,    -0.076675184,   -0.0057926113,    -0.018178636,    -0.043659497, 
    -0.10103399,     -0.10050863,     -0.08406338,     -0.13647515,      0.08427595, 
    0.056964237,    0.0069036693,     5.62088e-07,     2.92531e-40,     0.010345411, 
  -0.0032689236,  -1.0048509e-06,   -0.0005837678,     -0.12753615,     -0.23298243, 
   0.0022162641,     -0.07780462,    -0.016613364,      0.06658276,      0.24908504, 
     0.16080643,     -0.08538998,     -0.13095091,    -0.097126804,      0.06008203, 
     0.15696248,      0.12252876,     0.096509665,     -0.12037693,     0.046044473, 
    -0.13308433,     0.033035815,      0.03052121,     -0.12352687,    0.0012609643, 
   4.293847e-09,    -6.93894e-40,  -2.4728108e-12,   -0.0002208342,  -3.4164394e-05, 
  -0.0024038865,     -0.18788265,     -0.11512103,      0.09325109,      0.10751103, 
    0.013570831,      0.10620708,      0.20905936,      0.15735218,    -0.043126073, 
    -0.04482698,    -0.082944155,     -0.06725284,      0.06725571,      0.10875355, 
     0.06671773,      0.16567026,      0.12211479,    -0.111269765,       0.1744774, 
     0.09318505,    -0.056625344,    0.0061708386,    8.961447e-24,      7.6777e-40, 
  5.6852315e-13,   3.2931084e-12,  -3.5324496e-07,    -0.009288224,     -0.03369828, 
    -0.13188067,     0.065557234,     0.047198005,      0.05297052,      0.19815636, 
     0.16346605,      0.06109727,     -0.13219418,     -0.10290187,    -0.038508493, 
    -0.24314605,     -0.15076423,    -0.050366227,      0.16737282,      0.28279373, 
     0.20932657,     0.026155537,     0.032744832,     -0.09229662,   -0.0017710363, 
   0.0014536172,   -7.802833e-17,    -4.80708e-40,   2.4704743e-14,    5.478972e-13, 
 -1.3582006e-06,    -0.033214953,     0.019300787,     -0.14303248,      0.09084118, 
     0.12719631,      0.18340604,      0.23588975,      0.15168044,    0.0005335664, 
    -0.09231195,     -0.06184517,     -0.11719732,     -0.19229181,     -0.07365215, 
    -0.10886589,      0.07375622,      0.14108583,      0.26550555,     0.057176422, 
   -0.011856666,    -0.054677233,   -0.0025304395,   -0.0036421367,    7.133672e-24, 
 -2.8704565e-36,   -1.584503e-39,     0.016445152,    -0.001482176,    -0.025414633, 
    -0.21014293,     -0.14872037,      0.07822201,      0.15168822,      0.14705789, 
     0.23709399,      0.23050971,     0.015196663,     -0.18930703,      -0.1848143, 
     -0.2854096,    -0.051319856,    -0.075230226,   -0.0066029374,     -0.15050423, 
    -0.13230798,     0.112117566,     -0.11740903,     -0.12252586,     -0.09413136, 
    -0.09195886,     -0.10279362,     -0.02638566,    8.613064e-36,    2.005404e-39, 
    0.020802079,     0.005872467,    -0.009096732,    -0.096140504,     -0.04237121, 
    -0.10004607,      0.10373185,   -0.0022961446,    -0.038774975,     0.037313107, 
    0.013542076,    -0.021658536,     -0.10013863,      -0.1788705,      -0.1376442, 
    -0.12093989,      -0.1109996,     -0.20423427,    -0.051414967,      -0.1550053, 
    -0.19741158,      -0.1210417,    -0.093859844,      -0.1503724,     -0.10658874, 
    -0.03348402,      5.0895e-41,   -1.139376e-39,     0.016678546,     0.036699723, 
    0.118439294,     0.056456033,     0.054638065,    -0.019169603,     0.015856842, 
    -0.05039691,    -0.016815273,    -0.049088355,     0.039031506,       0.0626604, 
     -0.1410181,     -0.12707098,     -0.09523365,    -0.016614776,      0.02685346, 
    -0.06341072,   0.00017833739,     -0.18340051,     -0.09498082,    -0.059950676, 
    -0.15529996,     -0.13035919,    -0.009367363,  -7.7536115e-06,    1.303123e-39, 
   -4.71601e-40,     0.008724526,     0.016720615,       0.2923725,      0.20448591, 
    0.123889975,      0.03828066,    0.0063202996,    -0.003372736,     -0.10021346, 
    -0.18062001,      0.07731965,    -0.045447756,      -0.1175703,    -0.099363714, 
   -0.021465288,    0.0035289482,      0.09432609,     -0.03571459,    -0.055758063, 
    -0.26220042,      -0.2024089,      -0.2540445,     -0.22919287,    -0.037302643, 
  -0.0012417282,   -0.0002443746,     -7.7759e-40,    -0.026548268,     -0.00468867, 
    0.016564593,       0.2778135,      0.21500088,       0.1413301,    -0.027244132, 
      0.0916507,      0.15381715,    0.0076702847,    -0.093367085,      0.03808831, 
   -0.026288908,     -0.10716028,     -0.09510832,    -0.106102556,     0.039494094, 
     0.19111428,    -0.037805256,     -0.12005492,     -0.27689835,     -0.21991377, 
    -0.35490468,      -0.1207533,    -0.035711307,   3.0687904e-11,     6.32716e-40, 
      2.604e-41,    5.619935e-22,   -0.0012178028,     -0.06752359,      0.12874377, 
     0.13823384,      0.08041664,    -0.041248564,      0.07738401,      0.09647939, 
    -0.07718474,    -0.010601388,     0.078819506,    -0.033780556,      -0.2135149, 
    -0.08127533,    -0.004179866,    -0.038758308,      0.04830352,     0.035754055, 
   -0.032720845,     -0.22582898,     -0.24466103,      -0.2740495,    -0.061722137, 
   -0.014569133,   -1.584448e-22,   -1.864133e-39,     -3.3351e-40,     9.48478e-21, 
 -0.00042545339,     -0.05814611,     0.060116984,     0.011101823,   -0.0069972947, 
    0.053332277,      0.03290658,     0.015870623,     -0.10422192,    -0.056502353, 
    -0.03597513,     -0.05397028,    -0.052570377,    -0.006445262,     -0.07938947, 
   -0.029541627,     -0.11681739,     -0.05845328,  -0.00072402414,     -0.25007913, 
    -0.27409998,     -0.16012746,    -0.056107923, -0.000117648386,   -5.624379e-06, 
   -1.95468e-39,   -1.558945e-39,  -5.9278036e-34,   1.3718066e-05,   -0.0142132435, 
     0.08556771,     0.033301312,    -0.020787654,      0.14664854,     0.036093332, 
    0.039670397,    -0.040848047,     0.049415193,     0.015218596,     0.026180169, 
    -0.12757115,    -0.028309241,      0.03837458,    -0.041757464,     -0.09942654, 
    0.093994185,    -0.035586134,     -0.11598697,     -0.20090663,     -0.04836197, 
  -0.0026221056,    9.369742e-09,    7.274429e-11,    1.618545e-39,     1.54862e-39, 
   1.956787e-39,  -1.8482531e-10,   -0.0008571296,     0.044625316,      0.12683839, 
      0.1316915,      0.13814667,       0.1776883,     0.052191973,      0.19518541, 
    0.105777316,      0.18029203,      0.05577192,     0.019793887,    -0.004282577, 
     0.13810962,      0.04073797,     -0.12080427,     -0.12995686,     -0.08070999, 
    0.024621893,    -0.027718171,     -0.02632619,  -0.00027945088,    3.578303e-07, 
    5.83237e-40,    1.472133e-39,   -1.546212e-39,     2.68014e-40,  -3.9256663e-21, 
 -2.2835378e-07,   -0.0067081987,    -0.041746385,    -0.019971278,     0.037989322, 
     0.04258249,     0.036285814,      0.09198089,     0.045330685,      0.18630941, 
     0.26650515,      0.19351801,      0.14178611,     0.074917756,     -0.23186038, 
    -0.31172135,     -0.22483572,     -0.09177898,    -0.068127096,     0.027109439, 
    0.032470375,   1.1442142e-08,   1.0602784e-10,      -9.148e-42,   -1.741168e-39, 
  -1.733626e-39,    1.506638e-39,   -1.154788e-39,    1.040526e-39,   -6.674061e-05, 
    -0.04340686,     -0.08412829,     -0.17655358,     -0.21410124,     -0.12341804, 
   -0.058700364,     -0.13768733,     -0.12935355,     -0.12754461,     -0.18357526, 
   0.0023920196,     -0.15150537,     -0.33082584,      -0.2397797,     -0.03921287, 
    -0.06704165,     -0.07535253,   3.3475725e-22,   1.9442656e-09,     5.16655e-40, 
   -1.83737e-40,      6.4953e-40,     3.33613e-40,   -1.584454e-39,     5.94509e-40, 
  -1.540192e-39,     1.40012e-40,   -0.0033252882,     -0.04001628,     -0.03458945, 
   -0.028628113,     -0.07063688,     -0.16282123,     -0.17068088,     0.025334157, 
    0.046540897,    -0.026695855,     -0.15863617,    -0.059264034,    -0.047510102, 
    -0.07400134,     -0.04209022,   -0.0030846058,       -0.069588,    -0.071655415, 
 -6.2897015e-28,   1.2536872e-22,  -1.5647366e-28,    -5.07487e-40,   -1.164154e-39, 
    1.51473e-39,   -1.108255e-39,   -1.587769e-39,    -7.23024e-40,      8.9037e-41, 
    1.61518e-40,    1.264317e-39,    1.560895e-39,  -1.2422569e-13,   -5.273802e-13, 
 -1.4988814e-12,     -0.02014433,     0.017079502,      0.04304738,  -1.6597933e-11, 
    0.005473365,    0.0009491705,   6.3539977e-19,   1.5590036e-18,   1.1054652e-19, 
   -6.39002e-40,     8.20904e-40,     7.14382e-40,    1.522899e-39,    1.385605e-39, 
    -5.9603e-41,     3.11429e-40,    -1.46654e-40,    1.472742e-39}, {
  -1.775001e-39,    -7.72093e-40,     9.89454e-40,   -1.597288e-39,    -1.89896e-40, 
     5.6877e-40,    -1.46202e-39,   -1.497336e-39,   -1.179458e-39,   -1.840537e-39, 
  -1.159059e-39,   -1.845779e-39,    1.102907e-39,    1.207597e-39,     1.50733e-40, 
    -5.3597e-41,   -1.234718e-39,    1.837961e-39,      2.0319e-40,    1.161162e-39, 
   1.571514e-39,    -1.16463e-39,   -1.460251e-39,    1.152031e-39,     4.97584e-40, 
  -1.345312e-39,      7.2247e-40,    -8.75663e-40,    1.210586e-39,    -5.39207e-40, 
    6.16316e-40,    1.488724e-39,    1.133265e-39,    1.422018e-39,   -1.149499e-39, 
  -1.135182e-39,     -9.6275e-40,   -1.352997e-39,     -6.9327e-40,   -1.234765e-39, 
    2.05805e-40,  -8.5336075e-07,  -0.00043227157,  -1.3430033e-09,    -8.56748e-40, 
    9.64857e-40,    1.213861e-39,    -8.49261e-40,   -1.083925e-39,    -5.36187e-40, 
    2.32473e-40,   -1.546816e-39,    1.076667e-39,    1.311634e-39,    1.056374e-39, 
   1.529492e-39,   -1.542776e-39,      4.9901e-40,     5.51595e-40,  -1.5520642e-31, 
   -8.54634e-40,    1.601275e-39,    4.309856e-19,   2.6803206e-15,  -3.5875036e-12, 
 -3.9539635e-12,  -1.0676706e-13,    9.727919e-05,     -0.00945852,    -0.029826628, 
   -0.042560097,     -0.06190784,    -0.026450276,    -0.033417597,    -0.023710668, 
    0.015344346,    0.0074275415,     0.005824079,    0.0045083934,   0.00070796226, 
   0.0005969567,   3.1177635e-05,    1.866454e-39,    -1.37357e-39,   -1.995124e-39, 
   -8.04818e-40,     3.72268e-40,   7.3653545e-20,    4.464696e-16,    -0.029159315, 
   -0.025939036,      -0.0250394,     -0.06390787,     -0.07688205,    -0.021886285, 
   -0.036360126,     -0.13786092,     -0.11790067,     -0.07159143,     -0.14423563, 
    0.034997646,     0.042291895,    -0.022389242,    -0.072540194,    -0.030958889, 
     0.02282816,      0.12569645,      0.16379544,      0.06519978,    -0.046809956, 
   -0.008230047,   -1.487976e-39,   -1.910055e-39,    1.178306e-39,    1.284153e-39, 
  1.4505637e-10,   6.6938753e-16,     -0.02896623,    -0.024608353,    -0.030721877, 
   -0.018848615,     -0.09454722,    -0.122511216,     -0.18502934,     -0.23945773, 
    -0.11192105,   -0.0035681704,  -0.00034012148,      0.06709103,     0.081095085, 
    0.034202926,      0.05403167,     -0.01606748,      0.13414451,      0.21566248, 
     0.13821423,      -0.1582826,     -0.13743015,    0.0053065736,     0.011377889, 
   -1.69385e-40,    -1.31299e-39,   -5.883476e-28,   1.4214762e-09,    -0.030356662, 
   -0.052946467,    -0.021895535,     0.036761463,     0.052999698,    -0.050737474, 
    -0.03212116,     -0.19722201,     -0.26144478,    -0.118380204,     -0.07583789, 
     -0.0954054,     -0.06909591,      0.08710348,    -0.008241637,     0.020017717, 
    0.081649505,      0.14786363,       0.0951709,      0.08718794,  -0.00039727142, 
    -0.14915761,     0.019053375,     0.015415658,   -1.181545e-39,   2.9942354e-05, 
   7.468355e-05,     6.98704e-40,     -0.03030695,    -0.021295706,      0.03616391, 
     0.03961718,     0.024451366,     -0.13136259,       -0.129064,      -0.3217757, 
    -0.32754806,     -0.09304208,     -0.01356462,     0.050133023,     0.088129446, 
     0.04494767,     0.022221237,    -0.042616908,      0.14168067,        0.222685, 
     0.17797533,     -0.11087854,     -0.10168806,    -0.053726666,     -0.03718076, 
   7.616495e-06,    -6.47995e-40,    -0.015918108,    7.468355e-05,    8.026222e-28, 
   -0.030321514,    -0.029104881,     0.045553245,     0.003576422,     -0.10929884, 
    -0.18907075,     -0.20321032,     -0.26148418,      -0.2087701,     -0.00400854, 
     0.12790197,      0.15741175,     0.108500086,      0.08254451,      0.05658424, 
     0.05342874,      0.08497463,      0.27452645,      0.14375949,    -0.019813387, 
    -0.08383498,    -0.107505195,     -0.11222804,  -2.3798086e-06,     1.53893e-40, 
 -6.7548695e-05,  -5.9641133e-12,     3.29215e-26, -0.000107620355,     0.105678506, 
     0.11020583,     0.020937426,     0.014870594,     -0.19285668,      -0.2969154, 
     -0.2183405,      -0.0655811,      0.11995905,      0.27049923,      0.18463938, 
     0.22590782,      0.10563615,   -0.0010581361,     0.021093594,     0.054070994, 
      0.1240592,    0.0149016315,      -0.0526283,     -0.12849084,     -0.20100397, 
     -0.0905749,  -1.9290285e-34,   -1.343199e-39,    1.427702e-39,    -8.06962e-40, 
 -3.1117481e-27,     0.031483654,     0.076879025,    0.0060673505,     -0.07410931, 
   -0.060551025,     -0.03803855,     -0.17274673,     -0.09581602,      0.01584021, 
     0.11906394,      0.14207296,      0.17881066,     0.063419886,     -0.07984965, 
   -0.023339141,    -0.012911438,      0.10549149,    0.0069098375,      0.04154596, 
    0.048100192,     0.073345214,     -0.02107984,     -0.04459661,   3.1974422e-16, 
   1.679348e-39,    -6.47036e-40,    -6.66372e-40,  -3.5628225e-13,   -0.0034858498, 
     0.09589515,    -0.007333625,      0.06580235,    -0.045755778,     -0.12285325, 
     -0.1710018,     0.015541324,     0.041478768,       0.1284722,        0.223343, 
     0.17742491,     0.048122123,    -0.057700526,     -0.13207594,     -0.11447805, 
     0.03350432,      0.10499914,      0.23170418,      0.23678347,      0.21392074, 
    0.017115053,     0.024618892,   -1.612192e-16,     -5.1345e-40,   -1.373739e-39, 
   -9.47977e-40,  -3.3865513e-10,     0.012066138,     -0.07445276,     0.014786583, 
     0.12851398,       -0.142307,     -0.04338232,    -0.036381118,      0.05593174, 
     0.16981077,      0.14816818,     0.055677306,    -0.015793081,       -0.094034, 
    -0.24434607,       -0.179289,    -0.025670683,    -0.023838589,     0.047617275, 
     0.19584809,      0.34618884,      0.17862725,    -0.053084135,     0.006799104, 
   -9.77397e-40,   -1.794196e-39,    1.794559e-39,    1.334686e-39,    8.257118e-07, 
    0.018059226,     -0.06979976,     0.054556306,    -0.025759824,     -0.10161831, 
   -0.006427033,      0.03437839,      0.20803455,      0.23791032,      0.07878889, 
    0.043724075,    -0.030691408,     -0.09966065,     -0.21885099,     -0.23196957, 
    -0.07847097,    -0.034953658,        0.146588,      0.18348542,      0.34231794, 
     0.31371656,    -0.036290035,   -0.0011353382,     -1.2912e-39,     1.09922e-39, 
   1.830743e-39,    1.687414e-39,    5.249264e-06,     0.033777572,     -0.06441887, 
     0.09542073,     -0.11140151,     -0.17125681,      0.04015779,      0.16718608, 
     0.15648828,      0.15117423,     -0.09027534,     -0.11317548,     -0.12941982, 
    -0.14343333,     -0.17124483,     -0.17752986,     -0.20264526,     -0.08335461, 
     0.08645183,       0.1546598,      0.45734093,       0.3587739,      0.06472605, 
   7.846846e-07,     9.82812e-40,   -1.641274e-39,   -1.571638e-39,    1.336117e-39, 
  1.4391613e-05,     0.063556194,     0.086945295,      0.08021576,    -0.097629786, 
     -0.1208022,      0.12097356,      0.17546265,      0.11326506,    -0.016331164, 
    -0.12360422,     -0.32979277,     -0.27187437,     -0.25552163,     -0.20683813, 
    -0.21222632,     -0.13228388,    -0.015331122,     0.081257485,      0.10494924, 
      0.3015589,      0.29279786,        0.069982,   1.3292685e-08,    -5.20571e-40, 
  -1.771164e-39,   -1.686974e-39,   -1.130673e-39,     0.006919207,      0.19368348, 
     0.09473658,      0.08223352,      -0.1120584,     -0.12930664,      0.15741535, 
     0.09103148,     0.009984423,     -0.06668493,     -0.33439165,     -0.28027797, 
    -0.12224667,    -0.028704273,     -0.14285183,      -0.1993779,     -0.20934649, 
   -0.090918005,     0.076079816,     -0.03336064,      0.19964282,      0.27898338, 
    0.041565407,    -0.020431686,     -0.01658336,     1.36601e-40,    1.958131e-39, 
   -1.94185e-40,     0.013239803,      0.20707701,      0.08346153,      0.10484703, 
    -0.08353424,      0.19003932,      0.22895508,       0.1754839,     0.007037212, 
     -0.3910359,      -0.3908225,     -0.13363196,    -0.005554119,     0.019580819, 
    -0.13531514,     -0.25177774,     -0.20460327,     -0.09139182,     -0.03687838, 
    -0.07092939,     0.071090825,      0.19367866,       0.0188299,    -0.026174476, 
   -0.024931291,    1.713983e-39,    -6.08574e-40,    -7.88005e-40,      0.07495363, 
     0.15062265,     0.097832635,      0.02599905,     -0.09309717,      0.15436788, 
     0.17116381,      0.14233164,      -0.2272798,     -0.45537883,     -0.27203968, 
     -0.0228772,     0.086591914,    -0.014310118,     -0.13683453,     -0.18720706, 
    -0.07614457,    -0.084708534,    -0.116121896,    -0.004168759,      0.08069051, 
     0.10244549,     0.014025075,    0.0011515298,  -2.0770268e-29,  -1.6259962e-32, 
   -6.15819e-40,   1.2515434e-32,    -0.020846069,      0.18699355,      0.04147875, 
    0.010605101,      0.06313043,      0.25440556,       0.2013181,    -0.014918014, 
     -0.2887112,     -0.49340233,      -0.3634113,     -0.16324396,     0.055245467, 
    0.038966034,    -0.059106037,      -0.1378938,     -0.19751409,     -0.14360496, 
     -0.1312155,   -0.0019433326,      0.12987933,      0.08697739,    0.0012690871, 
  -8.856955e-09,   1.3872609e-29,     3.44652e-40,   3.2474214e-21,      0.01963545, 
   -0.101266585,      0.11607247,      0.08920989,     0.040095165,     0.046283577, 
      0.2901808,      0.23264624,     0.077573076,    -0.123128094,     -0.17867975, 
    -0.23800258,    -0.018246112,    -0.009626669,     0.017361684,     -0.13353904, 
   -0.101918414,     0.024387332,     -0.17499754,    -0.048981782,     0.013102845, 
    0.054195024,    -0.016664034,   0.00061330554,   9.5612164e-14,   2.9729328e-30, 
  -1.533951e-39,   5.0220006e-09,     0.062953405,     -0.09138003,    -0.016668987, 
     0.10701327,    0.0020148251,      0.12012128,      0.23746723,      0.21549407, 
     0.08539396,    -0.040516503,     -0.10277519,        -0.22545,     -0.13316393, 
    0.040938187,     -0.05983897,     -0.10455208,     -0.09840318,     -0.22089761, 
      -0.205205,     0.042860202,    -0.036886528,    -0.021708513,     -0.05274071, 
   -0.027215077,    -0.026465902,    1.957911e-39,    -1.68803e-40,    1.293589e-39, 
    0.066235565,     0.080193505,     -0.07167811,    -0.012048692,     0.029049465, 
     0.18718223,      0.17281647,       0.1526448,      0.16527212,      0.07374685, 
    -0.04380479,    -0.106243595,     -0.10206499,      0.13695726,      0.06895706, 
   -0.113987185,     -0.18791611,     -0.21345633,    -0.029864246,     0.028822841, 
   -0.026660182,     -0.03718286,    -0.045229174,     -0.03189503,    -0.029702948, 
   -2.18914e-40,    1.588298e-39,    -9.18473e-40,     0.028248476,     0.099753045, 
     0.03997336,      0.04572714,       0.1432811,       0.2183286,      0.18160562, 
    0.042469006,      0.08692275,     0.096033655,      0.18667985,     0.025786053, 
      0.0823741,      0.15652475,    -0.090412945,     -0.24136044,     -0.24241695, 
    -0.22600687,      -0.1342292,     -0.09108394,    -0.060956277,     -0.06075955, 
    -0.05890486,    -0.025670478,   -6.285022e-29,     4.37354e-40,   -1.607515e-39, 
  -1.504377e-39,   -1.061994e-39,     0.017254379,    0.0021259396,     0.046051454, 
     0.24022679,      0.22676076,      0.13247591,     0.063522995,     0.048371933, 
     0.14758502,      0.06643941,      0.02800692,      0.06587511,    -0.012959394, 
    -0.06551626,    -0.101037286,     -0.15455091,     -0.09919153,   -0.0022600128, 
   0.0024165832,    0.0019017354,    -0.008303948,   -0.0012627796,   1.9920642e-06, 
   -9.85731e-40,    -9.75095e-40,    -7.87192e-40,     9.30675e-40,     2.39654e-40, 
  1.5917211e-25,     0.013948259,     0.042358894,     0.043040976,     0.019643942, 
    0.032205917,     0.040474985,      0.12488674,     0.118750356,      0.08545536, 
   -0.020580398,   -0.0009473273,      0.03600653,     0.043845326,     -0.08897107, 
   -0.002214743,     -0.02786226,   -0.0036494592,     0.007212245,     0.001333754, 
  6.3753013e-20,   -1.346702e-39,   -1.923707e-39,    -3.45734e-40,     5.68668e-40, 
   1.684567e-39,   -1.491768e-39,   -1.448839e-39,       6.685e-40,    -0.005788313, 
    -0.12636492,    -0.054807555,    -0.061713118,     0.012818741,       0.1976145, 
     0.12156313,      0.06674354,     0.026774006,     -0.06481965,     -0.07945732, 
   -0.091062956,     -0.15298635,     -0.07667227,    -0.010354234,    -0.010774981, 
  1.9973345e-30,    0.0036704016,    0.0049085994,  -1.3315728e-29,    -2.21308e-40, 
  -1.579588e-39,     6.27542e-40,   -1.560845e-39,   -1.163952e-39,   -1.103303e-39, 
   -1.97203e-40,    -6.27508e-40,     -5.4578e-41,    -0.016439855,     -0.03282783, 
    -0.08744361,     0.031855132,      0.11653358,      0.13089657,      0.10434517, 
    0.024677856,    0.0135148475,    -0.085207075,    -0.115684085,    -0.052131023, 
   -0.015966604,  -0.00040928178,    8.006167e-30,   1.9274075e-30,    0.0016051681, 
    0.005911431,   1.8056059e-23,     1.43527e-40,     7.71678e-40,     1.99639e-40, 
  -1.716708e-39,    1.575302e-39,    1.233262e-39,     3.57906e-40,    1.158127e-39, 
   -2.73622e-40,     7.21606e-40,   5.7934303e-27,    6.420348e-17,   1.5852063e-16, 
   8.736746e-13,   1.2648919e-11,   -6.620761e-13,  -3.0393565e-07,   5.4016764e-28, 
  -0.0037500672,    -9.42694e-40,    -9.71807e-40,   -1.237809e-39,   -1.612537e-39, 
  -1.682515e-39,     2.50416e-40,   0.00021934058,    0.0071422206,   3.4541223e-05, 
    1.99949e-39,    1.700481e-39,   -1.828804e-39,    1.584364e-39}, {
   1.808856e-39,   -1.163882e-39,    -4.49785e-40,     7.21673e-40,    1.158247e-39, 
   1.102324e-39,     5.13259e-40,     5.86925e-40,   -1.115375e-39,   -1.496769e-39, 
   -6.99978e-40,     8.27834e-40,     8.17334e-40,     7.46759e-40,    -8.27655e-40, 
   -6.91681e-40,      1.1569e-41,     5.93771e-40,    1.539349e-39,     -7.8849e-40, 
   1.071461e-39,    1.640563e-39,     -7.1752e-40,     3.14929e-40,   -1.116777e-39, 
    1.29805e-40,    2.019393e-39,    1.746592e-39,      3.4238e-41,      6.1073e-41, 
   -1.16372e-39,   -1.336065e-39,   -2.015233e-39,   1.6736633e-12,     0.011652306, 
    0.014296434,     0.022394635,    0.0020882525,    0.0018122558,     0.007166258, 
    0.025014004,     0.020166013,   0.00041316345,    0.0032698528,    8.889328e-05, 
  0.00010920744,    0.0020161492,     0.022752771,     0.019464852,       0.0269122, 
    0.027829142,     0.006180647,   -1.876931e-39,    1.267033e-39,      5.2337e-41, 
     7.0172e-40,     7.81368e-40,    -8.02927e-40,  1.08895724e-23,   -1.012496e-26, 
 -7.2536747e-12,   0.00015342326,     0.017320229,     0.019248355,     0.036569558, 
     0.04998755,      0.08634189,      0.16889022,      0.14776792,     0.039496705, 
    0.118850164,      0.18747514,      0.11280673,     0.052551612,    0.0016411496, 
     0.03925699,     0.008583892,  -0.00020588975,     0.023929933,     0.024006931, 
 -1.1907745e-23,   -1.683722e-39,      9.0572e-41,     5.40097e-40,   -1.581008e-39, 
  -1.992768e-39,   2.2607859e-23,  -4.7159276e-10,   1.1917689e-10,    0.0096461335, 
     0.07766958,     0.112640895,      0.27244803,      0.26506305,      0.23876436, 
     0.22641131,      0.17580885,      0.14369713,      0.20984977,      0.17977963, 
    0.061435267,    -0.023113428,    -0.050104793,     -0.02498292,     -0.04481663, 
   -0.021179939,    0.0025380088,    0.0051124776,    6.514766e-23,   -2.308349e-39, 
    3.05647e-40,     5.31115e-40,    -3.77925e-40,    1.114458e-39,     -9.9312e-40, 
   4.168069e-17,   1.2673715e-05,    0.0011093288,     0.114269845,      0.08682966, 
     0.19301161,      0.20130526,       0.2646853,       0.1665856,      0.11459004, 
      0.0604077,      0.16904593,    -0.073374905,     -0.15093245,     -0.10804341, 
    -0.08494373,   -0.0050315536,    -0.071891695,     -0.06741093,     -0.09659257, 
    -0.09119262,   -0.0035879926,   -0.0025664386,    7.855355e-07,     5.27463e-40, 
    -9.4247e-41,    1.057282e-39,    1.248069e-39,    4.979795e-12,    -0.006549072, 
   -0.012020639,     0.062377885,      0.06918768,      0.14174695,      0.14879774, 
     0.11443876,     0.020914348,     -0.02720745,    -0.023568336,      0.11719377, 
    0.096008696,    -0.056836776,     -0.19686455,     -0.24486299,     -0.17430063, 
    -0.20628475,     -0.29476905,      -0.2359354,     -0.23428425,     -0.05463447, 
  -0.0009996119,   -0.0016358483,    -9.03088e-40,   -1.826387e-39,     2.88726e-40, 
    5.43103e-40,    -0.027329661,    -0.028898539,     0.044692263,     0.021333689, 
    -0.04890106,    0.0047137747,     0.049654767,    -0.053455066,      0.06712994, 
   -0.033196602,      0.06274851,      0.08676413,     -0.08827478,     -0.15870522, 
     -0.3443712,     -0.58671033,      -0.3925849,     -0.24431515,     -0.21804672, 
    -0.16100132,     -0.16833624,    -0.008043707,    -0.029666265,    -0.020510186, 
    -0.02412835,      4.0616e-40,     -8.2623e-40,     7.73358e-40,     -0.02656723, 
   -0.009175669,    -0.027409006,    -0.110224776,      -0.0714878,    -0.031346202, 
    -0.09715575,     -0.04055007,     0.082247175,     0.049989585,      0.04138236, 
