// List of model parameters:
//
// static const unsigned int dense_0_weight_rows      ( =   64 )
// static const unsigned int dense_0_weight_columns   ( =  784 )
// static const float dense_0_weight[64][784]                         #       size =   200.70 kB
// static const unsigned int dense_0_bias_size        ( =   64 )
// static const float dense_0_bias[64]                                #       size =     0.26 kB
// static const unsigned int dense_1_weight_rows      ( =   32 )
// static const unsigned int dense_1_weight_columns   ( =   64 )
// static const float dense_1_weight[32][64]                          #       size =     8.19 kB
// static const unsigned int dense_1_bias_size        ( =   32 )
// static const float dense_1_bias[32]                                #       size =     0.13 kB
// static const unsigned int dense_2_weight_rows      ( =   16 )
// static const unsigned int dense_2_weight_columns   ( =   32 )
// static const float dense_2_weight[16][32]                          #       size =     2.05 kB
// static const unsigned int dense_2_bias_size        ( =   16 )
// static const float dense_2_bias[16]                                #       size =     0.06 kB
// static const unsigned int dense_3_weight_rows      ( =   10 )
// static const unsigned int dense_3_weight_columns   ( =   16 )
// static const float dense_3_weight[10][16]                          #       size =     0.64 kB
// static const unsigned int dense_3_bias_size        ( =   10 )
// static const float dense_3_bias[10]                                #       size =     0.04 kB
//                                                                                    ----------
//                                                                    # Total Size =   212.07 kB

static const unsigned int dense_0_weight_rows    = 64;
static const unsigned int dense_0_weight_columns = 784;
static const float dense_0_weight[64][784] = {{
  -1.809092e-39,      8.7604e-41,    -1.66791e-40,     1.12667e-39,     7.74294e-40, 
    6.10421e-40,    -5.06557e-40,    2.009459e-39,    -9.54356e-40,    1.518451e-39, 
   -1.47769e-39,     -4.4197e-41,    -5.15545e-40,   4.7076413e-05,   4.7076413e-05, 
     7.7587e-41,    1.198891e-39,     6.92868e-40,    -4.71376e-40,    -7.25843e-40, 
   1.702976e-39,     2.92409e-40,   -1.005014e-39,     7.00526e-40,   -1.989052e-39, 
   1.497544e-39,     1.58138e-39,    -3.27408e-40,     6.23949e-40,   -1.634672e-39, 
   1.347095e-39,    -5.92168e-40,    -9.33586e-40,     -9.3659e-41,    1.142371e-39, 
 -3.9402215e-21,    6.742409e-21,   -5.718202e-11,   -3.901368e-11,   4.6148577e-10, 
  2.8535993e-10,      0.02168655,     0.024765583,     0.020205826,     0.002785222, 
   0.0054839603,    0.0004944451,   0.00032791143,    5.275557e-14,     -6.0385e-40, 
    -4.9631e-40,     5.90279e-40,   -1.474847e-39,   -1.149475e-39,    1.179093e-39, 
   -9.27742e-40,   -1.156574e-39,    1.846516e-39,    -8.23758e-40,    1.043442e-39, 
 -7.3476105e-18,  -4.9241774e-11,   -0.0011575018,  -5.4878933e-06,     0.009575683, 
    0.018847574,     0.012652938,     0.054317106,     0.104295164,      0.10265567, 
     0.20978944,      0.22598168,       0.2285681,      0.23877141,      0.19207694, 
     0.04733987,     0.039388817,       0.0249129,    0.0024356444,     9.54653e-05, 
   -0.000336047,  -5.9358845e-05,    1.534185e-39,   -1.994685e-39,   -1.565857e-39, 
   1.125513e-39,      0.00972435,   0.00017246304,  -0.00029961707,    0.0027203832, 
    0.021267576,     0.020638699,      0.08355177,      0.16107865,      0.07296942, 
     0.15940441,      0.23564428,      0.11017252,    -0.012680191,      0.22708704, 
       0.268887,      0.27734917,      0.37618345,      0.10465691,    -0.038841404, 
     0.12990613,      0.18736331,      0.18876435,      0.15340161,    -0.015392712, 
   -0.008193707,     8.61238e-40,   -1.591186e-39,     9.22216e-40,     0.022560982, 
   0.0076853354,     0.006665028,      0.08006317,      0.07015156,   -0.0068299817, 
   -0.015044888,     0.068203814,      0.20019503,      0.30096826,       0.2939566, 
    0.020774795,      0.29517713,     0.124758735,      0.19340776,      0.18561745, 
      0.1679453,      0.08016067,      0.21756302,      0.08114238,    -0.109120436, 
    -0.09121486,      0.18369778,     0.025678817,     -0.02525769,   -0.0045499844, 
   1.010232e-39,   -1.669932e-39,    0.0025456867,     0.034195926,     0.031571455, 
    -0.12511277,     -0.21061347,     -0.12770545,     -0.28263062,     -0.36532775, 
    0.038440593,       0.1121352,     0.027396318,    -0.083584994,    -0.039522417, 
    0.067180224,      0.08765947,      0.16637634,      0.17724743,      0.28061306, 
      0.3031989,      0.37245613,      0.23270048,     0.037412833,     0.024154842, 
     0.06145676,    -0.020882264,    -0.008499275,    1.482637e-39,   1.3952566e-15, 
   -0.012071018,      0.04558285,     0.056434803,      -0.2321686,       -0.249107, 
   -0.100412376,      -0.1701316,     -0.07226061,     0.002215924,      0.13556792, 
    0.065792896,     -0.01668059,      0.08184156,        0.171896,      0.14577463, 
     0.25259015,      0.19671735,     0.024530824,     0.053274743,      0.07983463, 
    0.023097204,     0.010870915,     -0.07240116,       0.1778135,    -0.056088105, 
   0.0020251304,    2.003658e-39,   0.00033922057,    -0.019358987,     -0.01573559, 
    0.038729664,    -0.081763916,     -0.11714181,    -0.099912606,      0.13258539, 
    0.069892265,      0.08848858,       0.1363894,     0.060492735,     0.010840438, 
     0.03400819,      0.33274403,      0.23751032,      0.07281266,      0.12239828, 
   -0.005045714,     -0.12728809,    -0.014537219,      0.10393922,    -0.053858913, 
    -0.12726577,     -0.08315715,     -0.06408512,    0.0005310829,    1.100476e-39, 
 -2.8820368e-15,     -0.03470423,    -0.024156151,      0.09979422,     -0.14195731, 
    0.036876842,      0.15477405,     0.099959224,     -0.04943818,     0.030197099, 
     0.15423143,      0.13165176,     0.122912444,     0.058490388,       0.0657911, 
     0.10072253,      0.09941634,     -0.06328605,     0.012396784,     -0.12598535, 
    -0.26525092,     0.037396476,      0.11653877,     -0.07041221,     -0.20475617, 
     0.06733774,   1.1213061e-13,    -1.51475e-39,    -1.31445e-40,  -0.00052825344, 
    0.028662402,     0.029538214,     -0.06594742,     0.039865963,      0.06886053, 
   -0.011614266,    -0.011300985,      0.08809285,     0.096165724,     -0.01618499, 
    0.017179146,     -0.09321432,     -0.15584315,    -0.073492035,     -0.07122986, 
     -0.1072692,     -0.11407246,       -0.170205,     -0.22414577,     0.024122486, 
     0.15034747,     -0.03284651,      0.15068468,     0.103722125,    -0.084412575, 
    -7.3331e-41,     5.76236e-40,      4.6523e-06,     0.011930842,     0.012499543, 
    -0.14447875,      0.05879054,     0.013379876,     0.012360987,     0.025345102, 
     0.06325744,     0.040342245,     -0.04418548,      -0.1550337,     -0.16176005, 
    -0.33890957,     -0.29635927,     -0.19620432,     0.027095102,    -0.030229822, 
     -0.0801216,     -0.11432519,      0.10733674,      0.28648832,      0.03304826, 
    -0.09827391,      -0.0715543,    -0.021859216,    1.573665e-39,   1.7517245e-10, 
  2.4887184e-05,      0.05266545,    0.0011749126,    -0.049766526,      0.15161245, 
    0.085470654,     0.011379485,    -0.081207305,     -0.11763367,    -0.021033531, 
    -0.23919855,    -0.062673755,     0.035730183,     -0.26062614,      -0.3172315, 
    -0.23001015,     -0.07779523,   -0.0092849415,    -0.012905603,    0.0028322341, 
    -0.12303052,     -0.10171528,    -0.044827778,      0.05948723,    -0.039584316, 
 -3.0062083e-06,   -1.244675e-39,    1.368062e-39,   6.0266277e-05,    -0.004121316, 
    -0.15079571,    -0.041636474,      0.03360782,      0.12662177,    -0.035720266, 
   -0.047879398,     -0.08758199,      0.11948348,     -0.04078033,     -0.02369233, 
     0.07707213,     -0.19667445,     -0.17806837,     -0.07798472,     -0.19047767, 
  -0.0023020299,    -0.029490313,    -0.048504397,     -0.27464476,     -0.20693797, 
    -0.02323678,   -0.0026149356,   -0.0003824549,  -2.2706457e-05,     5.29865e-40, 
   4.429324e-06,   -0.0050329845,    -0.013755672,     -0.32132223,     -0.22167929, 
   -0.114808574,      0.04950412,     0.083635546,      0.03702887,     -0.13633743, 
    0.012056786,     0.018422382,      0.14573154,      0.13901988,     -0.09082197, 
    -0.21353096,     -0.19401953,     -0.21634495,     -0.13285296,     0.046925176, 
    -0.19671711,     -0.28978416,      -0.1850451,      -0.2980056,     -0.08600306, 
 -0.00057477824,  -0.00010288457,    1.402777e-39,   1.0347744e-05,    -0.006866878, 
   0.0016324952,     -0.37490875,     -0.34807357,    -0.037534185,    -0.022110887, 
    -0.17625138,     -0.17349653,    -0.106570885,     0.058434345,    -0.040000036, 
     0.26369676,      0.25855616,     -0.10306697,     -0.19952257,     -0.25497955, 
    -0.26314598,     -0.37209246,     -0.26143968,     -0.18409754,      -0.2110052, 
    -0.19199505,     -0.21174641,     -0.05233883,    -0.008869955,    1.031419e-39, 
   1.877681e-39,    1.333327e-39,   -0.0009112198,    0.0012761732,     -0.21789356, 
    -0.14746518,      0.06695473,       0.0765272,     -0.03880537,     -0.09984256, 
    0.041491006,      0.17699943,      0.20700346,      0.35130736,      0.24198604, 
    -0.07674655,     -0.08922464,     -0.28070477,      -0.3199438,      -0.5212249, 
    -0.48275858,     -0.40414882,      -0.2307153,     -0.08587295,      0.04548585, 
   -0.041874465,     0.002596252,    0.0021960244,   -1.729446e-39,    2.603087e-07, 
   -0.004199882,     -0.03862577,     -0.07572367,      -0.1708761,    -0.012102069, 
    0.104549915,    -0.012180459,     0.117640115,      0.21935578,      0.22551662, 
      0.2797752,      0.24604692,      0.15681101,    -0.025952145,     -0.14951345, 
    -0.18556187,     -0.27829802,      -0.5002889,     -0.47587574,     -0.28374308, 
    -0.13758633,      0.10076229,      0.07975287,      0.05040556,      0.00810728, 
   0.0087139355,     -5.7325e-40,    1.119994e-07,   -0.0010974464,    -0.028976532, 
    0.027146593,     -0.03412497,     0.016558725,      0.01974123,      0.15539788, 
     0.14693318,      0.09781489,      0.08172196,      0.11468291,      0.26634094, 
     0.13074395,     -0.11048589,     -0.09333312,     -0.11171465,      -0.1868242, 
    -0.34525055,     -0.41290763,     -0.16717589,    -0.022801215,      0.21052589, 
     0.24745366,     0.018624349,    -0.017989783,     0.009718214,    9.041592e-39, 
  -6.766749e-38,   -9.569209e-05,     -0.06581449,       0.1553364,     0.102364615, 
    0.086583756,   -0.0036828755,      0.12917559,     0.093593284,      0.13247922, 
    -0.05658941,     0.038890377,      0.11165164,     -0.06376704,     -0.05805115, 
    -0.12861398,     -0.09175032,    -0.052129008,      -0.2084318,     -0.23181695, 
    -0.10989429,     0.096478134,      0.13674231,      0.39348254,     0.020920748, 
    0.015283049,     0.019105123,   -9.621784e-38,   -2.155127e-12,   -0.0068190396, 
    -0.18846308,    -0.045716684,     0.059762977,    -0.060751043,     -0.06687939, 
    -0.00654581,    -0.047550727,     0.059059143,     -0.23643309,    -0.035733137, 
      0.1494204,     -0.15187837,      -0.1290056,     -0.07752163,      0.03535042, 
     0.12754388,     0.054068536,     0.068209015,       0.1405541,      0.29709104, 
     0.30776492,       0.2822855,     0.079445675,     0.010052231,     -6.6709e-10, 
      7.063e-42,   -4.844208e-13,  -1.0475047e-08,     -0.01679253,   -0.0069317324, 
    0.056055967,      0.13269481,       0.2593305,      0.14133783,     -0.14885734, 
   -0.042298537,    -0.020422384,      0.06721591,      0.14541753,     -0.06684538, 
    0.077235065,     -0.13316284,     -0.06143112,     0.009429153,        0.206705, 
     0.27201745,      0.31598297,         0.40591,        0.480665,      0.15781848, 
     0.16272843,    0.0099698845,    9.473826e-22,    -7.38514e-40,   3.7317396e-32, 
 -3.3720193e-10,     0.037053786,      0.04397176,     -0.12957524,      0.24942864, 
      0.2696141,      0.11826506,     0.104494065,    0.0044009434,      0.09695237, 
   0.0059245373,      0.17073943,     0.023258578,     -0.03731789,      -0.1863097, 
     0.08617287,     0.079146594,      0.26252607,      0.37478694,       0.2934786, 
     0.40663546,      0.50803506,      0.15029286,       0.0680097,   3.0974655e-07, 
  -1.100671e-39,     1.78533e-39,   -1.384247e-39,   1.7069791e-10,      0.11632675, 
     0.26908705,       0.1189851,      0.18478541,      0.35029036,      0.26552424, 
     0.23517726,      0.07116376,      0.04348767,        0.076465,     0.081335194, 
     0.10938791,      0.10293147,     -0.05059289,      0.11352527,      0.13156125, 
      0.2920242,        0.257289,      0.20390089,      0.08529391,       0.3470765, 
     0.12650892,     0.004331916,    8.257465e-16,     8.11709e-40,     7.64759e-40, 
   1.553767e-39,  -1.3185546e-21,      0.10897211,      0.20585671,     -0.10587952, 
    -0.15069917,       0.0800844,      0.28546518,      0.26643005,       0.1833011, 
     0.09017953,      0.08064855,       0.2048432,   -0.0022261294,      0.08358494, 
     0.08837059,      0.13416377,      0.06264855,      0.14858973,      0.25219423, 
      0.2281087,        0.348839,      0.32536185,      0.07533571,    0.0031624432, 
   -0.000151366,    1.478872e-39,    1.605447e-39,    1.707456e-39,    -7.44108e-40, 
     0.01118159,     -0.19016057,     -0.28571004,     -0.20066112,    -0.123889565, 
     0.07719013,     0.047885276,    -0.009552053,      0.17425993,      0.22907126, 
     0.11510994,    0.0016323605,      0.11928586,      0.16885604,    -0.053849798, 
     0.10808939,      0.15639053,      0.18075453,     0.079450235,     0.052089702, 
    0.005938953,    -0.013822429,   -7.937299e-05,   3.6286307e-10,   -1.289737e-39, 
   -9.28335e-40,   -1.031759e-39,      -8.667e-42,  -0.00012851108,     -0.18837005, 
     -0.2509273,     0.042479523,    -0.072970696,      0.07123055,    -0.059372943, 
   -0.023103822,     0.070366815,      0.28886962,      0.47549984,       0.3741447, 
     0.38662177,      0.30888122,      0.28292826,      0.20597865,      0.28909728, 
     0.03466605,     -0.10343659,    -0.024411414,    -0.012183589,   -0.0012099508, 
   2.554067e-11,   1.1774971e-09,   -1.497562e-39,    -2.01246e-39,     6.90075e-40, 
    2.25326e-40,  -5.9342367e-18,     -0.00595893,     -0.03915894,    -0.084966466, 
     -0.1181717,     -0.11390217,     -0.23141827,    -0.043796204,      0.25065288, 
     0.25168195,      0.32482532,     0.080315515,     -0.07862641,     -0.07931681, 
     0.07650787,      0.17905803,      0.03549091,      -0.0805472,     -0.07178066, 
   -0.021480424,   9.8419155e-29,    1.359557e-39,   -1.037195e-39,     4.68573e-40, 
     5.6018e-41,    -5.32726e-40,     -9.8737e-41,   -1.258892e-39,   -1.518629e-39, 
  -1.760845e-39,    -5.98199e-40,     1.12736e-40,     9.69819e-40,     9.12922e-40, 
   1.773587e-39,    0.0070726564,     0.015808096,      0.01338239,     0.005406896, 
   0.0066275285,     1.02128e-39,   -1.004242e-39,     -9.4194e-41,  -4.7543003e-06, 
 -3.4584177e-10,    -9.90565e-40,    -8.64797e-40,   -1.171498e-39,    -8.60274e-40, 
  -1.556939e-39,    -1.41507e-39,     -4.5594e-40,     7.35813e-40}, {
    -7.4331e-40,    -4.75854e-40,   -1.615738e-39,    1.850588e-39,   -1.179308e-39, 
  -1.252095e-39,     5.10586e-40,    -2.12315e-40,    1.097379e-39,    -5.66475e-40, 
   1.136583e-39,    -5.82286e-40,     7.86815e-40,   1.6831576e-09,    1.683125e-09, 
    3.62213e-40,    -8.26291e-40,    1.160571e-39,    -1.43388e-39,   -1.323822e-39, 
    2.88969e-40,    1.891335e-39,    -4.06465e-40,      1.9599e-40,    -7.93383e-40, 
   1.157517e-39,   -1.558642e-39,    1.550178e-39,    1.670069e-39,    1.929788e-39, 
      1.592e-42,     1.80121e-39,    1.422427e-39,    1.198916e-39,   -0.0009487315, 
   -0.010021914,    -0.030537827,   -0.0038063722,   -1.457349e-08,   -9.080651e-06, 
  -0.0015651736,   -0.0007253578,   -0.0006008781,   -7.049405e-05,   6.6781536e-10, 
  1.7318939e-07,   -3.796352e-14,  -0.00012043873,    -0.016740227,   -0.0074085407, 
 -1.5950826e-16,  -3.2789578e-12,     3.12243e-40,    -7.83189e-40,   -1.322075e-39, 
    1.33374e-40,     4.91341e-40,    1.991242e-39,   -2.002597e-39,     9.57492e-40, 
      5.992e-42,  -2.9411774e-21,  -2.4010247e-09,    -0.011320334,    -0.034533016, 
   -0.022624785,   -0.0099563105,     -0.01453006,      -0.0388758,     -0.19281824, 
    -0.16442084,      0.04447689,      0.03659384,      0.05572248,    -0.023147864, 
   -0.011512962,    -0.012621231,   -0.0008563951,   -0.0143972915,    -0.024528429, 
    -0.02063253,     5.55916e-40,   -1.533182e-39,     5.54191e-40,     2.36405e-40, 
   1.012382e-39,    1.545402e-39,  -1.6720564e-06,     -0.07470101,    -0.035616867, 
   -0.024521904,    -0.086968355,     -0.31761205,     -0.24588703,     -0.19550866, 
    -0.08831604,    -0.112846926,      -0.3086817,     -0.22704917,    -0.032744236, 
     0.22699717,      0.31198388,       0.4912338,       0.5683108,      0.16801333, 
   -0.013577463,   -0.0076468163,    -0.062834784,     -0.12238914,   -1.350789e-13, 
  -9.950621e-10,    -6.44722e-40,      3.5917e-41,   1.1933925e-26,   3.4550416e-12, 
 -0.00029918764,    -0.051932793,     -0.12109905,     -0.25935784,    -0.088381685, 
   0.0072748107,      -0.1715866,     0.028715478,        0.097736,      0.07693343, 
      -0.092703,     -0.40856677,     -0.15259115,    -0.021137616,     -0.13484278, 
     0.23401937,        0.455177,      0.22951244,      0.19374232,      0.17009875, 
    0.021593185,    -0.017581632,     0.027887076,     0.008956809,   -0.0073210835, 
  -1.588781e-39,   -1.593711e-39,  -1.4077103e-12,      0.01422416,     -0.17307764, 
     0.14091626,   -0.0038078525,      0.11487617,      0.07518738,      0.14764105, 
   0.0008521367,     -0.14187141,     -0.03827196,     -0.37360704,     -0.29177445, 
    -0.28162912,      -0.1898434,        -0.25143,      0.04921802,      0.23218842, 
     0.37961307,      0.27721903,      0.12532593,      0.16542782,    -0.023600347, 
   -0.045854412,     -0.05145515,    -0.011503878,   -1.133241e-39,  -1.2134856e-14, 
   -0.045113273,      0.04143564,     0.007969394,      0.20021501,      0.14664094, 
    0.121178865,       0.2495575,      0.19874972,      0.06910298,     -0.18913473, 
    -0.14297666,     -0.21075995,     -0.11534866,     -0.18999232,     -0.17431319, 
    -0.05013265,    -0.013916115,       0.2514564,       0.2806822,      0.21729645, 
     0.08792559,      0.07313572,    -0.057365708,      -0.1654066,    -0.007440985, 
  -8.750182e-05,   -0.0004179157,     0.008608697,    -0.040181167,      0.11807778, 
     0.18886444,     0.047619388,       0.1766589,      0.15354343,    -0.029531617, 
 -0.00093514344,    -0.021248657,     -0.06624766,       0.1545605,      0.13549057, 
   -0.030249776,     -0.33392888,     -0.23203115,    0.0028291338,       0.1155883, 
     0.34350008,      0.32944238,     0.060905036,     -0.08011926,    -0.008431214, 
    -0.06569888,     -0.17685688,     -0.02040879,   -0.0011602103,    0.0012294743, 
  0.00092419103,    -0.024796205,     0.054278053,     0.008948234,     0.034663197, 
    0.013671433,     0.027236477,      0.03672986,      0.19898325,     0.039687596, 
     0.19326323,      0.26267123,        0.161711,     -0.10347691,     -0.35154662, 
    -0.24241841,     0.060409885,      0.29987204,      0.22952081,      0.22251149, 
     0.06683042,     -0.06316441,     -0.11046076,      -0.1153723,    -0.018509503, 
    0.008387861,    2.568453e-15,    9.615459e-05,   0.00022524726,     -0.02314153, 
    0.013980287,      0.16514738,     -0.16261691,     -0.07835958,   -0.0062012435, 
     0.06481512,      0.10419638,   -0.0073454217,      0.08107358,      0.16831937, 
    -0.14998855,     -0.35851407,      -0.3637701,    -0.080613844,      0.20565324, 
      0.4021909,      0.19585249,       0.1668364,       0.2013379,      0.16143893, 
   -0.029070344,     -0.20386833,     -0.06347946,    -0.011365016,    5.465187e-37, 
   7.658534e-05, -1.40886035e-11,     0.026374176,      0.21351437,    -0.074510016, 
    -0.17062165,     -0.28100088,     -0.18729663,      0.01900747,    -0.067530885, 
    -0.08071492,     -0.06842427,     -0.16066049,     -0.23239748,      -0.5062446, 
    -0.36418474,     0.016350247,      0.41143662,       0.4320969,      0.32000285, 
      0.1564231,    0.0077506183,    -0.016184466,     -0.19961916,     -0.32491595, 
    0.007705028,    -0.038204577,  -1.2425315e-10,   4.3854567e-07,   0.00013357624, 
    0.033125844,     0.043046437,      -0.2037922,     -0.05270548,     -0.22547308, 
    -0.23183729,     -0.22612482,    -0.097125374,     0.012590175,    -0.105511256, 
    -0.17727754,      -0.1938296,     -0.35048932,     -0.16884972,     0.121136904, 
     0.35939947,      0.25276062,      0.22960605,    0.0067549865,     -0.21479376, 
    -0.19050333,     -0.33210686,     -0.20916788,     0.024920713,    -0.024765931, 
  2.6055499e-12,   1.1127138e-08,     0.009868306,     0.077659234,    -0.068384156, 
    -0.12962843,   -0.0150004085,     -0.17636089,     -0.25273496,      -0.3566703, 
     -0.2417531,     0.090896174,      -0.1979139,     -0.05585807,     0.058521263, 
   -0.009813948,      0.16561814,      0.16794528,       0.1776665,      0.19182935, 
    -0.04893128,     -0.24954404,     -0.29317293,      -0.1704901,     -0.41636783, 
    -0.10589667,     0.035023097,    -0.007562757,  -1.5554185e-30,    -7.73513e-40, 
    0.020554833,     0.063130304,     0.022911182,      0.14343613,      -0.0767783, 
     -0.3067525,     -0.46094266,     -0.23272306,    -0.036152426,    -0.027396338, 
    -0.06603862,     -0.14475411,     -0.03707872,    -0.062556386,      0.04160937, 
    0.019788878,      0.11036568,     0.057113033,      -0.1861896,     -0.19800678, 
    -0.18082882,   -0.0022681814,     -0.25889102,     0.015212849,    -0.009511191, 
   -0.004310255,  -2.5071497e-29,   -1.382396e-39,     0.019366082,      0.10296917, 
     0.29224953,      0.31416836,     -0.06903062,     -0.27443233,      -0.3539611, 
    -0.08717506,      0.08255087,     0.016758405,      -0.1284032,     -0.16968627, 
    -0.19052725,    -0.016891269,      0.12622346,      0.20485987,       0.2508275, 
   -0.038030103,     -0.01004613,    -0.006539378,     -0.03753841,     0.007868901, 
    -0.08814277,     0.053106435,      0.15734375,     0.030610371,     7.36203e-30, 
  3.8192922e-18,      9.5253e-41,      0.11372523,      0.40857854,      0.17709759, 
    -0.15079834,     -0.18435809,     -0.10058518,    -0.039912798,     0.028330434, 
    0.107419275,    0.0076983445,     -0.08300591,     0.030876659,      0.16984965, 
     0.23462103,     0.008659825,      0.22211668,      0.04731378,      0.19369625, 
     0.16733535,       0.2851791,      0.49807578,      0.22355737,      0.14180264, 
    0.038096957,      0.21109931,   0.00051019405,   6.0653937e-18,   4.5908166e-07, 
     0.03522351,      0.14602767,     0.006825719,     0.064165294,    0.0117572425, 
   -0.025893427,     -0.15178603,      0.06166673,     0.018067002,     0.007878161, 
      0.2047546,      0.31867754,       0.3192239,      0.27907655,    -0.029864429, 
     0.07486322,      0.37767357,        0.510257,       0.3015049,        0.393363, 
     0.27156985,      0.25999436,      0.17703156,     -0.08100169,     0.025108868, 
  1.3424687e-14,     5.45003e-40,  -2.3295555e-16,    0.0077000065,     0.094078235, 
     0.16186538,      0.13293082,    -0.022284118,   -0.0116164675,     -0.10068925, 
    -0.09258311,     0.026714662,     0.114480056,     0.078439966,      0.04842334, 
     0.12585478,      0.11380034,      -0.0665096,      0.07795439,      0.21318151, 
      0.2850411,      0.15322347,      0.34433088,      0.20500237,      0.26385278, 
     0.29668128,     0.095346384,      0.12054611,    9.904313e-08,      -6.906e-40, 
 -7.4095157e-35,    -0.006858392,       0.3492063,      0.18827452,      0.03949931, 
    -0.14474523,     -0.09108532,     -0.23919168,     -0.14575675,     -0.06881436, 
   -0.013791292,     -0.10483133,     -0.24202135,     -0.08664486,    -0.030754218, 
    0.059578903,     0.029233979,     -0.02939367,     0.008390171,      0.06794043, 
     0.10857885,    -0.021536907,     -0.08389932,      -0.0348076,      0.12933111, 
    0.024015717,  -1.0792592e-19,    1.010685e-39,   0.00011429306,     0.066493265, 
     0.40580335,      0.30887702,     0.053680908,    -0.033136416,     0.034574278, 
    -0.10138929,    -0.024167476,       -0.269693,     -0.29946923,     -0.50976026, 
    -0.42910388,      -0.1942173,      -0.0737202,       0.0834036,      -0.0374988, 
     -0.2230141,     -0.08233448,     -0.10764014,      0.03612513,     -0.19248177, 
    -0.24170114,     -0.09946381,     0.038119674,    0.0011243707,  -4.5962157e-23, 
   1.546572e-39,    0.0014209141,     0.015493437,        0.213336,       0.3616227, 
    0.020089505,     -0.04924131,      0.14767063,     0.107287064,     0.018862559, 
    -0.14771768,      -0.3057948,     -0.44227418,      -0.3101638,     -0.22769646, 
    -0.07548158,     0.013117405,     0.015796479,    -0.057031978,     -0.08467364, 
     0.12154136,      0.19642757,     -0.14110091,     -0.07181654,     -0.04580827, 
    -0.02525801,    0.0006829567,    5.207204e-21,   -1.501941e-39,   0.00030326692, 
    0.035985753,     0.021930167,       0.0191548,      0.04213779,     0.052314065, 
      0.0819267,      0.15368958,    -0.028741842,    -0.031205507,     -0.08151499, 
   -0.010055062,    0.0017441239,     0.003782942,     0.023669014,     0.056679633, 
    0.008371614,      0.08876159,     0.059091195,      0.09747699,      0.09117695, 
   0.0062626232,    -0.015054933,     -0.08181432,   -0.0098483255,  1.02959925e-08, 
    -5.2148e-40,   -1.597524e-39,   2.5700243e-07,     0.034026418,      0.06687216, 
    -0.19862884,     -0.04838919,      0.03541925,      0.09031051,      0.14733273, 
    -0.12594922,     -0.11192914,     0.061076947,    -0.037624713,       0.1254567, 
    0.021536348,      0.11251358,      0.08805077,      0.07070977,     0.027841225, 
    0.120471306,      0.15694878,     0.048398998,     0.052146103,     0.021233313, 
   -0.014225475,     0.012100377,   1.2876157e-10,    1.975633e-39,     -5.4623e-40, 
  -1.835816e-39,     2.28134e-08,     0.047641683,    0.0003213806,   -0.0045667086, 
  -0.0006967682,     0.031883873,    -0.079377815,      -0.1269066,     -0.03265432, 
    -0.06872413,     -0.11602514,      0.03834054,      0.07279538,      0.17119253, 
     0.03946834,     0.016459035,      0.15103315,     0.043334067,     -0.13474795, 
    -0.09321102,     -0.24026512,     -0.14571829,    -0.041541956,      8.3606e-06, 
  1.2307783e-10,   -1.667667e-39,    -6.17304e-40,   -1.094302e-39,  -1.2506033e-18, 
    0.023287449,      0.24040648,      0.26530254,     0.064950086,    -0.045132335, 
  -0.0093559725,      0.08363238,      0.22958513,      0.12203364,     0.005003448, 
     0.04129814,     -0.02497383,    -0.047347207,      0.16912858,       0.1019482, 
    -0.16608194,      -0.2318862,      -0.2332721,     -0.21231115,     -0.09918736, 
   -0.019328432,    -0.038578406,  -4.9628784e-06,   -7.024296e-18,    -7.62208e-40, 
   1.301174e-39,   -1.509704e-39,   2.6650264e-30,   0.00014449505,      0.22325166, 
     0.30928767,     -0.03157088,    -0.009112634,      0.20464237,      0.17450431, 
     0.07949674,      0.04901178,      0.06923926,      -0.1140673,     -0.09094406, 
    -0.11399768,     0.121889524,     -0.08786645,     -0.19067791,     -0.38168886, 
    -0.28778815,     -0.36966258,      -0.2677153,     -0.14136265,    -0.076366164, 
  -1.596319e-10,  -1.1665309e-16,   -2.019144e-39,   -1.161179e-39,     6.51346e-40, 
  -1.464341e-39,    1.360403e-39,    -0.036966953,     -0.07708918,    -0.016588602, 
     0.14097987,     0.002816542,      0.15258272,       0.1456188,      0.06370657, 
    -0.07216246,     -0.14266704,  -0.00019279332,      0.29958525,      0.19634715, 
  -0.0043396344,       -0.057294,     -0.08092516,     -0.20837985,     -0.19255063, 
    -0.09916313,    -0.000504599,    5.988029e-25,     4.86918e-40,     1.55647e-39, 
     1.5514e-39,    1.440437e-39,    1.544427e-39,   -1.382863e-39,    1.151042e-39, 
    3.02193e-40,     9.40484e-40,  -0.00030269384,    -0.027410697,    -0.023084609, 
  0.00049468584,   -0.0056607863,    -0.006054704,   -0.0012556126,     0.019385394, 
     0.04636094,      0.06484318,     0.025392424,     0.014420621,     -0.01225399, 
   -0.005059909,  -3.0244086e-12,   -0.0023699645,     -0.03125112,     -8.4559e-41, 
    9.82323e-40,   -1.047074e-39,    1.441392e-39,    -6.95518e-40}, {
  -1.799468e-39,    -3.32087e-40,   -1.247436e-39,   -1.789197e-39,   -1.684626e-39, 
   1.452587e-39,    -9.64872e-40,     9.32942e-40,    1.439747e-39,     1.18526e-39, 
   -7.18025e-40,   -1.471048e-39,   -1.961246e-39,    1.826977e-39,    1.772074e-39, 
   1.465559e-39,   -1.358995e-39,    1.520427e-39,    -1.57082e-39,    1.059396e-39, 
  -1.316263e-39,     -9.2872e-40,   -1.301321e-39,   -1.873378e-39,    -7.45475e-40, 
   1.458225e-39,    1.077342e-39,     9.61186e-40,    -3.85381e-40,     1.13447e-39, 
    5.47108e-40,    1.503644e-39,     6.09413e-40,    1.799218e-39,    -1.91012e-40, 
   -4.37058e-40,     6.13696e-40,     2.28748e-40,   -1.923324e-39,  -0.00013309189, 
  -0.0020603968,  -3.6786685e-05,     0.025144026,     0.051267043,     0.017575191, 
  0.00064019125,  -5.2873303e-31,   1.4628192e-16,   3.5263787e-09,     5.27948e-40, 
   1.287868e-39,    1.125533e-39,    -1.51701e-39,   -1.723974e-39,    1.873785e-39, 
   1.255024e-39,    -6.77676e-40,    1.005898e-39,    6.977025e-38,     4.62158e-40, 
  -1.018745e-39,    1.525009e-39,    1.003302e-39,   1.5712423e-13,    -0.027775984, 
   -0.040541276,    0.0019735082,     0.061407905,     0.010408741,      0.08538083, 
    -0.05446725,      0.07271512,      0.11900556,      0.09227003,      0.06809188, 
    0.034245413,      0.06263565,     0.049549073,     0.005156123,   4.4128393e-07, 
 -1.2212243e-19,   -3.219046e-27,    1.493427e-39,   -1.572195e-39,   -1.334426e-39, 
     -5.515e-41,    -0.015256847,   -0.0015701726,   -0.0031821027,    0.0016263428, 
    0.009965414,     0.038468674,    -0.005837079,    -0.030699862,      0.14968722, 
    0.099919625,       0.2146563,      0.16034152,     -0.19528107,     0.048272394, 
     0.03717498,      0.19321842,      0.36397114,      0.21998854,      0.10685222, 
     0.13096462,     0.031551264,     0.036127023,     0.068071984,     0.029522171, 
    0.010575344,   -1.280638e-39,    1.635024e-39,    1.587476e-39,     -0.02567066, 
    -0.01183108,     -0.01605673,     -0.12589231,     -0.20443662,     -0.19168578, 
    -0.09207885,     0.059455752,      0.03867375,      0.18111329,      0.09747951, 
    -0.12647924,     0.029552102,      0.06139648,      0.17165971,     0.024253061, 
    0.100050665,    0.0003549426,     0.073248245,     0.019923063,     -0.12565696, 
     -0.1700748,      0.11656058,     0.107228175,    -0.010018496,    -0.012552317, 
    7.99791e-40,   -1.105846e-39,    -0.006718558,    -0.006157162,      -0.0377602, 
     -0.1436083,      0.04009047,    -0.008505917,     -0.39466038,       -0.104162, 
    -0.10178664,     -0.19323164,     -0.12060475,    -0.119991004,     -0.07774224, 
    0.008058898,      0.13248864,     0.040118486,     -0.06421353,      0.13274936, 
     0.23715292,   0.00010695519,    -0.039790384,     -0.24248576,    -0.043088257, 
     0.10250986,      0.02264922,    -0.011147132,    1.906659e-39,  -1.2774875e-25, 
   -0.007825745,     -0.06512808,     -0.13915718,       0.0689742,     0.100521766, 
     0.07533514,     -0.19788368,     -0.18009157,     -0.24922213,     -0.23208787, 
     -0.1500674,     -0.22500248,     -0.10713843,     0.043575782,     -0.10309957, 
    -0.08160619,    -0.038238056,     0.025660852,      0.09285249,     -0.17796895, 
    -0.15841597,     -0.09820097,    -0.035186414,      0.12445045,      0.07408166, 
    0.016361414,   5.0206974e-05,   -0.0018318986,    -0.045425273,     -0.19521965, 
    -0.39931518,     -0.12504911,    -0.054449517,      0.08202822,    -0.044241168, 
   -0.034863573,     -0.04837439,     -0.12672907,    -0.026440578,     -0.17883235, 
    -0.17708662,     -0.07537224,     -0.19896872,     -0.20134647,   -0.0013626352, 
    0.020008797,     -0.07845294,    0.0030372697,      0.16708457,      0.07746593, 
   -0.080867074,      0.08293013,     0.083735555,     0.002484296,   5.8333067e-06, 
  -0.0016739734,     -0.06181877,      -0.1719099,      -0.2929393,     -0.38450557, 
    -0.04544537,     0.108555265,    -0.046647035,    -0.046116117,     0.045306988, 
   -0.008205792,     0.025813926,     0.094900176,     -0.08716487,     -0.04412997, 
    -0.13139805,     0.025221452,       0.1599716,        0.242663,      0.21960148, 
     0.14917208,      0.19358708,      0.29751354,      0.31305635,      0.31291705, 
      0.1322366,     0.003057945,   1.1096123e-05,    -0.029191842,    -0.041562494, 
   -0.051877756,     -0.11616761,     -0.20860727,     -0.02852947,       0.2204861, 
    0.016563315,     -0.12585124,      0.04620367,      0.15217131,      0.14085487, 
     0.17412572,      0.13724801,      0.10409657,      0.10864225,      0.23673436, 
      0.1489188,      0.12527183,      0.12028336,      0.10914967,      0.27591246, 
     0.43742156,       0.4412444,       0.7322873,      0.24349324,    -0.049959276, 
 -2.0852514e-07,     -0.04174152,    -0.029895844,    -0.035754435,     0.030440977, 
    -0.14954574,     -0.17373152,    -0.042402584,     -0.10510541,     -0.16083989, 
     0.17696723,     0.082726225,      0.21438196,      0.23289242,      0.23061965, 
     0.18297838,       0.2652108,      0.26777333,      0.22921497,      0.16072468, 
     0.22058177,       0.0185435,       0.2293689,      0.32672414,      0.41745716, 
     0.33378723,      0.05459095,     -0.02220607,  -1.3255592e-25,    -0.059136387, 
    -0.03524444,       0.0444551,      0.14889759,     0.056635015,     0.052786257, 
    -0.15008712,     -0.24438429,     -0.08907511,     0.010514284,     -0.04407496, 
     0.03884232,       0.0756672,      0.18071274,     0.103772305,      0.20157182, 
     0.19941647,       0.1417072,   -0.0043161893,    -0.058285438,     -0.13743551, 
    -0.13005812,      0.21343629,      0.41410813,      0.37925553,      0.02501177, 
   8.220247e-06,    1.099408e-39,      -0.0362308,     -0.05736415,      0.10328845, 
     0.20150337,      0.15814722,      0.03649936,     0.061356287,      -0.2304745, 
    -0.09569698,     -0.16814475,    -0.049931593,      -0.1062144,      0.10706277, 
     0.23084013,      0.04040941,     -0.07370071,    0.0048361146,      -0.2154147, 
    -0.33456546,     -0.32740435,     -0.39310923,      -0.5345076,     -0.13081704, 
    -0.07734291,      0.06773504,     0.042185575,  -3.2701784e-05,    -5.72854e-40, 
   -0.012467584,   -0.0040300633,     0.094729945,      0.11872001,      0.21853425, 
     0.19235508,     0.036736242,     -0.07831649,     -0.03450269,     -0.31591293, 
    -0.13651195,    -0.046659812,    0.0038416996,      0.14750631,      0.05901596, 
    -0.15824209,     -0.25735736,     -0.42282742,     -0.19339858,     -0.34830666, 
    -0.81083864,     -0.82807386,     -0.56371874,      -0.3018856,   -0.0013086132, 
    0.031244714,     9.75066e-40,   -1.103709e-39,   -0.0071230913,    0.0012414332, 
  -0.0145603195,      0.09537584,      0.27830055,      0.22058448,    -0.017045112, 
    0.030985713,      0.06635326,     -0.11005842,     0.005620936,     -0.03931079, 
     0.13381943,      0.22903182,     0.061063305,     -0.02765515,     -0.21481201, 
    -0.28473565,     -0.34786853,      -0.3241129,     -0.71139425,      -0.7383705, 
     -0.5297473,     -0.21886905,    -0.012058491,   -0.0052673933,   -1.013917e-39, 
  2.8734522e-18,    1.127729e-39,     0.006756903,    -0.065834485,      0.25399747, 
     0.31357312,      0.19971523,      0.29465124,       0.2594632,      0.19412072, 
   -0.029177014,    -0.045816336,    -0.049421508,     0.039682284,      0.20126715, 
    -0.11568167,     -0.14270622,     -0.16840377,      0.02729623,     -0.17663746, 
    -0.29562223,     -0.31152764,      -0.5563985,      -0.5635417,      -0.3189068, 
  -0.0097929165,    0.0027731785,    1.384484e-39,    7.895382e-18,  -3.4386364e-08, 
     0.03129387,    -0.010452275,       0.1290701,     0.048958816,   -0.0006144219, 
     0.13790831,     0.063184686,      0.19074805,     0.045893352,     -0.17477214, 
    -0.13316907,    -0.009514281,     0.029229961,    -0.110920265,    -0.121614404, 
    -0.11927306,      0.19386871,     0.029049141,     -0.11793662,     -0.25063378, 
     -0.6529481,     -0.67313045,     -0.09015384,  -0.00040063617,    0.0007933383, 
 -1.0055878e-09,    1.042822e-39,    -3.50625e-08,    0.0049618473,    -0.039772037, 
     -0.1468127,    -0.011198599,    0.0042192047,      0.17822771,      0.10155579, 
     -0.0709518,    -0.057538897,     -0.08237188,      -0.0730296,     -0.06558466, 
    0.030582212,     -0.09550253,     -0.14311014,     -0.01027731,     0.056669988, 
     0.13691117,    -0.016097687,     -0.04047955,     -0.58534425,      -0.5288963, 
    -0.11611113,    -0.023070782,    -0.003238316,    -0.004813601,   0.00042239425, 
 -1.9855182e-37,   -4.840282e-08,     -0.19715221,     -0.27409518,     -0.17499557, 
    -0.15202697,      0.09837938,    -0.059238262,    -0.124663286,      0.02156641, 
  -0.0061564674,     -0.09910368,    -0.039371513,    -0.062066395,    -0.041542318, 
   0.0012017664,      0.10807601,     0.016778557,       0.1560514,      0.24009024, 
    0.055919435,     -0.49265286,      -0.6365461,     -0.34874037,     -0.07362688, 
    0.007311504,    -0.000419793,   -8.611812e-38,    5.748812e-08,    0.0011746988, 
    -0.25584787,     -0.28236607,     -0.20022981,     -0.20327516,     -0.06685197, 
    -0.09889747,      -0.1572832,     -0.08395064,     -0.13835499,    -0.078773685, 
    -0.09114441,     -0.12136042,   -0.0009391175,      0.17400722,      0.13311934, 
     0.18605521,      0.22879037,       0.2680023,     -0.19245206,      -0.5892616, 
    -0.49264923,     -0.20682885,     -0.07075594,     0.008303939,    2.652528e-06, 
   1.046165e-39,    6.029279e-08,   -0.0010019927,     -0.39500058,     -0.33504906, 
    -0.14592437,      -0.2836327,     -0.16750279,     -0.03650523,     -0.21349138, 
   -0.065146856,      0.03029701,     -0.06044119,     -0.15317981,    -0.074387014, 
     0.06815302,      0.13528144,     0.086184666,       0.2240482,      0.24382319, 
     0.25401157,     -0.08216215,      -0.4104975,     -0.40136912,      -0.1695709, 
    -0.08565127,    0.0065762354,  -5.2196177e-22,    1.528155e-39,    8.204491e-15, 
   -0.009864605,     -0.18678628,      -0.3067684,      -0.2618666,     -0.12378807, 
    -0.09906002,     -0.06965583,    0.0110123735,    -0.051135767,      0.12302455, 
    -0.04001098,     0.041736815,       0.0532729,      0.19659735,      0.11386368, 
    0.114306554,      0.14384861,      0.06298981,       0.1597822,     -0.01791964, 
     -0.5667325,     -0.38203365,    -0.073348336,     0.014815723,   -7.560508e-07, 
  -1.628131e-39,    -1.70945e-39,  -1.9202118e-14,    -0.010231787,     -0.03745955, 
    -0.16004759,     -0.23108591,     -0.06358312,    -0.048127607,     -0.15470809, 
    0.045497533,      0.17421044,      0.25281277,     0.092244215,     0.011204714, 
     0.12895738,      0.20370457,      0.07266054,      0.10484668,     0.071698286, 
     0.06511392,     -0.07139957,     -0.35258704,      -0.4637981,    -0.083068006, 
     0.02041712,      0.04609363,    4.454989e-16,   -1.593698e-39,    1.885516e-39, 
  -1.580277e-39,   1.2518101e-26,     0.001146825,    -0.062922664,      -0.3574168, 
    -0.28362858,      -0.0257262,      -0.1727106,      -0.0394719,      0.04087941, 
   -0.009167195,      0.11553408,      0.17009905,       0.1788445,      0.12270442, 
   -0.047297783,     -0.08199645,    -0.050941564,    -0.058897983,    -0.121424675, 
    -0.18938877,      -0.2860926,     -0.13715175,    -0.031384323,  -0.00020182581, 
 -0.00019765772,       1.429e-39,    -6.31634e-40,    -7.16258e-40,    -1.42881e-39, 
 -1.9845534e-19,     -0.13846745,     -0.43834248,      -0.3905373,     -0.24484266, 
    -0.15180784,    -0.064292304,     -0.08083573,      0.11026814,      0.11430983, 
    0.044791237,      0.11761559,     0.020304974,    -0.037267227,     -0.24021146, 
    -0.09390473,   -0.0004977976,     -0.01067294,     0.016827187,     0.026083702, 
   -0.042971782,   -0.0034467026,   -0.0031601521,  -0.00014846577,    1.087828e-39, 
    -4.9773e-41,   -1.864157e-39,   -1.829244e-39,     5.57549e-40,    -0.040935278, 
    -0.12731615,     -0.14053358,     -0.15560055,      0.08504911,      0.12170609, 
     -0.2876051,     -0.51811445,      0.04424476,         0.10731,     -0.06332792, 
    -0.29031527,      -0.3025619,     0.060986634,     -0.03018624,      0.01382611, 
    -0.02749004,   -0.0029880456,    -0.036653474,    -0.035786092,  -7.0945373e-16, 
  -7.360417e-05,  -0.00020392718,   -1.549213e-39,    -1.82544e-40,    1.505123e-39, 
    6.38744e-40,    1.592616e-39,    -0.020276047,     -0.07574138,     -0.07976132, 
   -0.009497445,     -0.05171945,     -0.11715308,      -0.0994008,       -0.229862, 
    -0.38482803,      -0.4537655,      -0.5603154,     -0.17879112,      0.23359615, 
     0.30789652,      0.14356694,     -0.07545435,    -0.061860353,    -0.054760892, 
   -0.020632751,    2.120742e-27,     9.16295e-40,    1.180769e-39,    1.744324e-39, 
   -1.97651e-39,    -6.11096e-40,     -8.4517e-41,     1.16884e-39,    1.067609e-39, 
    -2.2659e-40,    -9.37449e-40,    4.208659e-06,    0.0016409806,    0.0008966669, 
 -0.00021801786,    0.0029664605,  -0.00089430343,    -0.048038017,     -0.04658439, 
    0.019224465,      0.09188723,     0.048529204,    -0.037820507,     -0.04744209, 
    -0.06395834,     -0.05264934,  -0.00069903943,    -0.016407454,   -6.075219e-06, 
   1.102947e-39,   -1.793476e-39,   -1.130241e-39,     1.57857e-39}, {
  -1.992892e-39,      -8.796e-40,   -1.041535e-39,    1.960205e-39,    1.284353e-39, 
   -7.19274e-40,    -3.58598e-40,      9.6896e-40,    -1.11145e-39,    -4.40193e-40, 
   1.804896e-39,    1.928901e-39,      6.7294e-40,      7.0587e-40,   -1.045234e-39, 
   1.072592e-39,    1.549274e-39,   -1.944496e-39,     9.24602e-40,    1.251287e-39, 
   -4.92708e-40,    1.690812e-39,     1.99453e-39,    1.525498e-39,      -2.015e-40, 
   -6.66813e-40,    -7.71618e-40,    1.164961e-39,     -3.9907e-40,    1.641418e-39, 
   -6.10142e-40,   -1.293897e-39,    3.121345e-26,    9.545022e-26,    -7.76385e-40, 
   3.348306e-23,   1.3831376e-22,  -3.9019498e-14,   1.0116794e-10,    -0.004803161, 
   -0.022441914,     0.019526882,     0.011867497,    -0.044504784,    -0.025265532, 
   0.0013427618,   0.00042379455,    -0.008960141,    -0.014963326,  -0.00031838348, 
   3.221562e-15,    2.128509e-36,     8.68968e-40,    1.190113e-39,   -1.870909e-39, 
  -1.866984e-39,    1.073985e-39,    -7.29527e-40,     6.95075e-40,     0.007637335, 
   0.0005270897,   1.4539094e-25,   2.5392723e-07,  -5.1287935e-07,     -6.0264e-10, 
   -0.014478885,    -0.019885637,     -0.04787525,    -0.036470573,     0.013573127, 
    0.016886974,     -0.07131905,    -0.013492621,      0.06354752,      0.04856217, 
   -0.037146248,    -0.025268074,    0.0035845065,    0.0053962437,   0.00013250073, 
    0.011265958,     0.007654513,   -1.786117e-39,      5.9615e-40,    -9.33688e-40, 
   1.249249e-39,      2.2272e-40,     0.019444827,    0.0059377756,  -0.00021110277, 
  0.00057267473,  -2.0594815e-07,    0.0020777115,      0.04814566,      0.12940675, 
    0.042847853,     -0.12343632,     -0.17923756,     -0.22969846,     -0.14852956, 
   -0.019417927,     0.091472656,     -0.09757141,     -0.24077511,     -0.13179718, 
   -0.059240233,    -0.012569564,     0.014020175,     0.011768831,     0.008578266, 
   -5.38237e-40,    -9.57063e-40,    -4.40617e-40,  -2.5702454e-27,  -5.8099146e-12, 
  1.0001429e-12,    -0.013304891,     -0.05382018,    -0.033292968,    -0.009575875, 
   -0.013591559,     0.027003666,     -0.15561706,     -0.06249321,    -0.111375764, 
     -0.1929619,    -0.058183867,       0.0362525,    -0.004764532,      0.21567953, 
     0.14674406,      0.10164956,      0.03297517,     -0.16856326,     -0.19655304, 
  -0.0085605765,     -0.03814079,    0.0067379596,    -0.010157332,    -0.010157306, 
    9.35157e-40,    1.707107e-39,   2.2365103e-07,    -0.032312658,     -0.08125588, 
    -0.08883161,     -0.09741105,     -0.14350788,     -0.14303546,     -0.20687842, 
     -0.1264125,      0.17624293,     0.092586726,       0.0878163,      0.06456484, 
  -0.0144031355,    -0.060758796,      0.21434052,       0.2284296,      0.14272018, 
     0.08391402,     -0.12576267,     -0.40098366,     -0.31590515,     -0.12501809, 
    0.022610912,    -0.038861603,    -0.014687733,    1.538316e-39,   -9.239522e-15, 
 -1.0262705e-06,     -0.04399848,     -0.09466353,     -0.13472655,     -0.19036351, 
    -0.34773007,     -0.43177125,      -0.2880837,    -0.008639934,       0.1537641, 
     0.16148438,      0.13531776,      0.14152272,      0.12577392,      0.15001167, 
     0.18243042,       0.1927077,      0.03854765,     0.024885042,       0.1605881, 
  -0.0016711473,      -0.1818456,     -0.25423723,     -0.03213986,    -0.022646023, 
   8.359547e-06,    1.457042e-39,    -0.005434157,  -0.00039752404,    -7.51196e-08, 
    -0.02731621,     -0.21578911,     -0.23240279,     -0.45106253,     -0.26989526, 
     0.08260558,      0.13859326,      0.16342735,      0.11777477,      0.11065394, 
    0.075808704,      0.16945131,     0.051918503,      0.22087133,       0.2788711, 
     0.18158011,     -0.00987758,      0.08069331,     0.072773375,    -0.022516716, 
    -0.14315313,      -0.1654373,    -0.037429594,    0.0011278192,     0.001936449, 
  -1.040946e-15,   -9.604963e-05,   -0.0024693212,     -0.18115723,     -0.19025844, 
     -0.1957297,     -0.34363586,       0.0364264,      0.09105203,      0.17499864, 
       0.194588,      0.18727987,     0.043816067,     0.053463448,     -0.06935722, 
   0.0003618288,     0.053191997,      0.17385659,      0.28325102,     0.003501724, 
    0.032357782,     0.010266807,     -0.04769362,     -0.19180204,     -0.24762318, 
   -0.026373776,   2.0860901e-26,    1.291637e-39,    -3.87205e-40,     0.001862257, 
  0.00011155663,     -0.08892907,    -0.035772674,     0.011820779,    -0.113993675, 
   -0.010678886,     0.049207617,      0.14010713,       0.0407341,      0.11333305, 
    0.079649776,    -0.080963634,     -0.33975944,      -0.3353763,     -0.09469233, 
     0.07273226,        0.170141,      0.07970222,     -0.05224094,     -0.16472925, 
    0.028262705,     -0.08878946,     -0.15903488,     0.009206668,     0.034959305, 
    5.44406e-40,  -2.6560826e-31,    -0.027499076,   -0.0041811396,      0.09864392, 
     0.21686968,        0.174876,    -0.029453939,     -0.13885581,      -0.1879764, 
    -0.14284094,     0.058429673,    0.0053552683,      -0.1360693,     -0.12976837, 
     -0.3626541,      -0.3727597,     -0.08644398,     0.008857982,    -0.014269421, 
   -0.035616286,      0.06937131,      0.09672205,       0.1050335,    -0.008123561, 
    -0.18691553,    -0.029962784,     0.017162267,    -9.72581e-40,    -0.028333306, 
    0.050643675,      0.04926655,      0.17369105,      0.13685925,      0.09332149, 
    0.091032535,    -0.039516278,     -0.19449551,     -0.08718708,    -0.024360325, 
    -0.16025849,    -0.054348692,     -0.04195431,     -0.32039684,     -0.24251074, 
   -0.040188152,     -0.14234415,    -0.108784474,     0.079241015,      0.15533322, 
     0.20013349,      0.08595083,      0.17306094,     -0.15181759,     -0.01571157, 
 -2.6151788e-06,     8.71329e-40,  -1.4370425e-16,      0.05126372,      0.16607222, 
     0.30850208,      0.10487522,      0.17473553,     -0.02460905,    -0.029751193, 
    0.018474841,     -0.16147776,      -0.1123674,    -0.046053115,     0.043743603, 
     0.01317781,     -0.16992861,    -0.115963176,     -0.05168975,      -0.2800601, 
     0.03976466,      0.18610635,      0.28919226,      0.37241396,      0.35181415, 
     0.20403843,    -0.076456085,    -0.023387168,    0.0004567078,    1.379468e-39, 
  -0.0004296134,    -0.031087233,     0.096665025,       0.3697354,      0.18112428, 
     0.13591932,      0.12631966,      0.10484751,    0.0017449084,      0.08204519, 
     0.06182448,      0.15940729,      0.10806859,      0.02762987,     -0.03518237, 
    -0.04931812,     -0.17606683,     -0.19498661,      0.04422195,      0.18319204, 
      0.5161362,       0.5663413,      0.38262242,      0.17516766,      0.20133188, 
     0.03615817,   -0.0037326685,   -1.587908e-39,   -0.0018058553,     -0.05377014, 
    -0.04629761,      0.27108335,      0.27329376,       0.1843855,      0.16444093, 
   -0.017320529,     0.056073017,     0.094382316,    -0.022446718,      0.10442729, 
     0.01727833,     0.010967477,      0.08418112,     -0.04899433,     -0.13378073, 
    -0.09429909,       0.2032153,      0.31283414,      0.39804456,      0.26279882, 
     0.26037112,     0.055830345,   -0.0018858401,    0.0013060218,    5.459996e-31, 
   -3.03795e-40,   -1.267744e-39,     -0.05586715,     -0.10145859,      0.23713155, 
      0.4296025,      0.25130954,     0.012570621,     -0.09559108,   -0.0074003767, 
      0.0434563,    -0.120177194,    -0.088054866,    -0.045487836,       0.1426969, 
      0.0747857,     -0.05682816,     -0.16549487,     -0.07089049,       0.1663738, 
     0.21594949,      0.14331418,     0.050377596,    -0.078598976,    0.0028279766, 
    -0.08618781,    -0.049437627,    -0.004166998,   -1.276338e-39,  -3.4064663e-16, 
   -0.018049728,     0.123741716,        0.413088,       0.3054072,      0.12450423, 
    0.081251904,   -0.0053686094,   -0.0046751387,     -0.06439304,     -0.13827711, 
    -0.18977657,     -0.05105238,     0.036925912,     -0.04583359,      -0.2223405, 
    -0.19025321,     -0.15041023,    -0.010844731,      0.09366885,    -0.019922938, 
   -0.045787107,     -0.31754357,     -0.12813367,    -0.004980349,     0.011705495, 
   -0.014997355,   -1.372642e-39,   4.8507658e-17,     0.022042442,     0.071591176, 
     0.15421167,       0.1649142,     0.044034984,    -0.019443283,     0.058542505, 
      0.1989843,    -0.036283743,     -0.25004286,     -0.11721649,      0.06144928, 
   -0.054759987,     0.056780703,     -0.14586557,     -0.19128096,     -0.23231626, 
   0.0031290827,     0.086837284,     -0.06889164,     -0.13701443,     -0.23616652, 
    0.036059424,     0.095825695,     0.031333722,  1.05194246e-07,     2.17032e-40, 
  -9.183246e-35,      0.02337786,    -0.065063894,      0.18654114,     0.110541776, 
    0.068242304,    -0.015108992,      0.21854274,       0.1795255,     0.011991727, 
    0.028091323,     -0.05426564,     -0.11075906,    -0.062107544,      0.03437118, 
   -0.034491345,     0.017711364,     -0.06388314,     -0.02286524,      0.10328646, 
   -0.065252446,      0.06958087,     0.009471242,        0.135119,     0.065904036, 
   0.0011453622,    4.224574e-05,    1.422112e-39,     0.004604077,     0.039956015, 
    -0.11774776,     -0.04012393,   0.00045775232,    -0.020946162,      -0.1361257, 
     0.15485685,     0.102508105,      0.22077253,      0.21241546,       0.1132571, 
   -0.056529135,    -0.021960843,     -0.06975747,     -0.09915158,     -0.16155715, 
    0.024059735,      0.06378647,      0.04843497,    -0.001247101,      0.11736272, 
    0.054626714,     0.080772206,    -0.011840926,    0.0021381546,  -4.0559396e-22, 
  -1.839231e-39,     0.015356992,      0.08535201,     0.060226128,     -0.08925902, 
    0.048788935,     -0.09076656,    -0.094196096,     0.024962284,      0.12092128, 
     0.13500743,     0.012322762,       0.0280662,     -0.15120788,     -0.21239872, 
    -0.15093611,     -0.08153367,     -0.18189956,     -0.08474204,     0.055905722, 
    -0.10061395,      -0.0721813,    -0.052169297,      0.03114915,      0.24584757, 
    0.041880455,   0.00096016267,  -3.3703381e-21,    -1.55952e-40,   1.0851525e-06, 
    0.034659974,      0.12023363,      0.15898046,      0.20682791,     0.023116508, 
    -0.08540074,      0.06800896,      0.06153217,    -0.010321435,    -0.049097538, 
    -0.05469372,     -0.17593962,     -0.25379556,     -0.23059474,     -0.10972356, 
    -0.17946967,     -0.24848051,     -0.13683839,     -0.33947015,     -0.45489237, 
    -0.13116744,     0.053089324,      0.28238165,     -0.02307058,  -1.3621875e-06, 
   1.198235e-39,    -9.26323e-40,  -1.4326076e-07,     0.021295242,      0.05140073, 
      0.1418608,        0.265178,      0.05523498,      0.09738059,      0.15524596, 
     0.09831874,     0.041574202,     -0.04581076,     0.003975532,     -0.07068867, 
   -0.048411444,     -0.17837487,     -0.18212618,     -0.15829779,     -0.25614053, 
    -0.29108408,     -0.35042006,     -0.37489495,     -0.10299292,       0.1088763, 
      0.2903285,    0.0011808183,  -3.0632346e-12,     3.23441e-40,    1.221436e-39, 
   -1.83355e-39,  -1.0761314e-05,    0.0023864107,      0.11712637,      0.32042226, 
     0.09114963,    -0.017663939,     0.113419145,      0.07606866,     0.051407747, 
     0.19305263,      0.22137377,      0.11189389,    0.0069663324,     -0.13905254, 
     -0.1551037,     -0.24841039,      -0.3562863,     -0.35075662,     -0.10333977, 
   -0.025036173,      0.15837944,      0.12572916,      0.21002834,     0.001635051, 
  -0.0007945084,   -1.278239e-39,     9.93525e-40,   -1.173645e-39, -1.49642265e-05, 
     -0.0334346,      0.06477284,     0.069551356,     0.019626386,    -0.041847732, 
    0.099968724,    -0.032300793,         0.06498,     0.084610045,      0.16178049, 
      0.0948896,     -0.07742449,     -0.06076244,      -0.2401329,      -0.3207728, 
    -0.15067147,   -0.0034868382,      0.32202277,       0.2411248,      0.12343225, 
     0.13533588,      0.05957747,    9.787033e-11,    -2.40904e-40,    1.494738e-39, 
   -1.79461e-40,    1.351914e-39,   -8.227955e-31,   0.00011573951,     0.088692926, 
    0.032882906,      0.06914165,       0.1592535,      0.04983681,     -0.03478301, 
     0.15231913,      0.15081674,     0.031689048,      0.06014865,      0.02511448, 
     -0.0338179,    -0.015651839,     -0.15058337,    -0.029397635,      0.40067753, 
     0.46970868,      0.37377352,     0.084891066,     0.040080257,       0.0361461, 
   -6.68164e-40,     8.06237e-40,     9.17671e-40,    1.554745e-39,     5.76826e-40, 
   -8.48385e-40,    7.132168e-17,       0.0723096,      0.15147533,      0.13987528, 
      0.1005568,      0.32027695,       0.4011934,      0.09106765,   -0.0042490964, 
      0.1796172,     0.103045434,      0.24578257,      0.05081629,   -0.0029133155, 
    -0.05851695,      0.12683181,       0.2589354,      0.31894296,      0.25601926, 
     0.09007686,     0.018367907,  -2.8815792e-23,   -4.088926e-20,    1.794504e-39, 
    6.49257e-40,    1.677071e-39,    -3.90445e-40,   -1.304366e-39,    -1.83189e-39, 
  -1.466095e-39,   5.7978803e-22,   -9.890695e-07,  -4.9374383e-05,   -8.373515e-05, 
   4.262936e-09,   2.7626552e-08,   2.1868726e-05,   1.2602179e-05,  -6.3697674e-15, 
  -1.139146e-07,   -0.0024455339,    -0.001242792,  -2.4122374e-07,   0.00070161704, 
  0.00016142796,    -0.008080766,   -0.0003295285,    0.0074747126,  -2.3520384e-05, 
   1.552862e-39,     9.48765e-40,   -1.169616e-39,    1.858915e-39}, {
     2.5742e-40,     1.21079e-39,     1.63509e-39,     9.93847e-40,    1.518743e-39, 
  -1.598229e-39,   -1.570643e-39,   -1.461131e-39,    1.349462e-39,     1.22216e-40, 
   1.146025e-39,    -1.74407e-39,    1.478538e-39,     8.65484e-40,     -8.4669e-40, 
   1.099995e-39,   -1.323814e-39,    -1.11143e-39,    -5.74503e-40,    -7.06563e-40, 
    -6.9404e-41,      1.7367e-39,    1.878656e-39,      9.3294e-40,   -1.115114e-39, 
   -1.07924e-39,    -7.92786e-40,     9.00393e-40,   -1.127537e-39,     7.52892e-40, 
   -1.73905e-40,    1.201004e-39,    1.164465e-39,    -6.96922e-40,    -5.76934e-40, 
     8.9204e-40,     1.72246e-40,     -3.5264e-40,     4.19814e-40,  -1.2700243e-06, 
 -0.00020155337,    -0.023626432,   -0.0066869925,     0.056457713,     0.009078784, 
    0.013297027,    0.0012194632,     0.018035432,      0.03767464,     0.013677892, 
  0.00011516867,     1.75476e-40,    1.767447e-39,    1.816533e-39,   -1.594446e-39, 
   1.603224e-39,   -1.563622e-39,    1.238039e-39,  -2.0814566e-38, -0.000114693714, 
  3.2648186e-05,   -6.064953e-37,  -1.2474432e-38,    -9.90691e-40,  -5.4468856e-05, 
   -0.012087349,    -0.019799616,    -0.039575357,      -0.2766418,    -0.123779275, 
    -0.22044961,    -0.014482935,      0.21150255,     0.124111414,      0.11820374, 
     0.23626772,      0.17551443,      0.12888786,      0.05355598,     0.001096686, 
   -0.029004155,     -0.02552043,   -1.344224e-39,     2.07045e-40,      -1.763e-39, 
   -1.52555e-40,    -0.029773846,    -0.028738247,   -9.519144e-05,  0.000117428426, 
   9.068657e-12,    -0.004852755,     -0.07103688,     -0.18567207,     -0.31009945, 
    -0.34053436,     -0.43706706,      -0.2876533,    -0.031564105,    -0.072746344, 
   -0.012092356,      0.03617767,     0.052122843,      -0.1483127,     -0.14152041, 
      0.2690591,      0.22669543,   -0.0073261163,     -0.05931135,     0.026458703, 
      0.0224824,    1.143017e-39,      6.0029e-40,    1.720156e-39,     -0.06625954, 
   -0.028019177,    -7.14133e-31,     0.016230447,    1.567899e-05,   0.00060671696, 
   -0.055936966,      -0.2505279,     -0.54705304,     -0.41601577,     -0.54037297, 
     -0.3562803,     -0.18687752,     -0.08789972,     -0.24415061,     -0.11278253, 
    -0.05224218,   -0.0048399353,    -0.111722566,      0.09973643,      0.07141836, 
     0.39773554,       0.1116897,    -0.048272002,      0.02333288,     0.022221353, 
   -7.86255e-40,    1.627604e-39,    -0.028500762,    -0.013191358,  -0.00013999907, 
    0.021965038,    -0.029965984,     -0.21381944,      -0.2802648,     -0.60446835, 
     -0.7538692,     -0.40621156,     -0.17731139,     0.013934108,      0.06958657, 
    -0.07607722,     -0.19707537,      -0.1603481,     -0.29315114,     -0.20989567, 
    -0.11923856,     -0.21150701,     -0.19099294,     0.019926453,    -0.028526042, 
    -0.16790067,       0.0870673,     0.031142887,   -1.410167e-39,    5.601826e-15, 
   -0.028276805,     -0.02969911,      0.06301129,      0.12560214,    -0.023705995, 
    -0.18128455,      -0.1477566,      -0.5873298,        -0.61174,     -0.40019175, 
    0.058332328,     0.028122839,     0.057262268,      0.07961199,     -0.09807093, 
    -0.18635587,     -0.26439324,     -0.06779029,      0.07683669,      0.00155108, 
    0.038424328,      0.17343862,      0.27649963,      0.20131858,      0.19233245, 
    0.033906877,     -5.4836e-41,    -0.011165679,    -0.025287839,    -0.026573483, 
     0.08253015,      0.07210618,     -0.04822447,       0.1466165,      0.02800397, 
    -0.21438605,     -0.35027173,    -0.021848267,      0.10510514,      0.07842084, 
     0.20355068,      0.09771144,     -0.17939654,      -0.2124653,      -0.2582946, 
    -0.27393848,     0.004059306,     0.060621917,      0.17031658,      0.21044824, 
     0.10148868,      0.28670648,      0.24996062,      0.05177658,    1.695105e-39, 
 -6.7871675e-08,  -1.1569725e-16,  -0.00012236621,     0.025446236,      0.08731703, 
    0.091322646,     0.082236774,    -0.061664056,      -0.5621429,     -0.84710395, 
    -0.20222548,      0.07040728,       0.3059079,       0.2642357,     0.033586275, 
   -0.008661133,     -0.12593842,     -0.13041107,    -0.077922255,      0.03231994, 
       0.150864,       0.0792145,      0.07613891,        0.515279,      0.39881063, 
    0.022528818,     0.024497584,    7.607244e-12,    5.347758e-14,    -0.013964893, 
   -0.023145292,     0.027744222,      0.06460895,      0.07171309,     0.041970797, 
    -0.14821972,       -0.776462,      -0.7995381,     -0.19763067,      0.03499599, 
     0.33288726,       0.3115116,      0.15793774,     0.008912814,      0.07257163, 
   0.0072369855,      0.04626999,    -0.082334064,     0.056230154,     -0.10702487, 
     0.03710181,       0.5853871,      0.27777234,      0.07607368,    -0.023587514, 
  2.5072913e-10,    3.923779e-26,     0.012454883,     -0.07770075,      0.07975979, 
   -0.047206566,     -0.17318095,      0.06815644,     -0.21980871,     -0.61746824, 
    -0.45459154,     -0.06947106,      0.14787035,      0.38035998,      0.38032365, 
     0.23720853,     -0.07504587,     -0.20525083,     -0.27847117,    -0.056691114, 
   -0.016174018,     0.063147776,      0.02871994,  -0.00032281035,      0.46392354, 
      0.7229225,      0.38624343,    -0.031255532,   -1.722594e-26,    1.411356e-39, 
    0.019844703,    -0.057083838,     -0.01980849,      0.06922728,    -0.014277436, 
    -0.13425879,     -0.23949571,      -0.3436515,     -0.15113291,    -0.019310476, 
     0.19235016,       0.2934418,       0.2069199,     0.052460887,    -0.076476924, 
     -0.2751148,     -0.33043137,     -0.15270354,     -0.32678223,    -0.041143175, 
    -0.22737873,     -0.07125727,     0.054836895,       0.3560117,       0.1584916, 
  5.3664835e-06,      4.4867e-41,  -4.8388935e-25,     0.017022703,  -4.2964042e-05, 
    -0.02009014,    -0.096834816,     -0.07731639,    -0.020018985,     0.022352211, 
    -0.12626778,     0.027999977,     0.097698554,      0.19598238,       0.2833696, 
     0.29834238,      0.21286799,    -0.054076068,     -0.26006845,      -0.4412833, 
    -0.39660957,      -0.2930769,     -0.38264012,      -0.5946805,      -0.5489549, 
     -0.3966882,     -0.10143673,    -0.012002976,  -1.0158222e-05,     8.50545e-40, 
  -8.809617e-07,  -1.4965688e-14,   1.4230762e-13,     -0.19796406,     -0.17259298, 
    -0.38082185,     -0.08631031,    -0.086712465,      0.07771107,      0.21677478, 
    0.080709025,      0.31682605,      0.16913812,      0.16582435,        0.073787, 
    -0.00926689,      -0.1895446,      -0.3705432,     -0.25896305,     -0.16462946, 
    -0.31248927,     -0.47997734,      -0.6992895,     -0.61565566,     -0.31440574, 
    -0.18979213,   -0.0015018762,     2.87827e-40,     -8.2462e-40,    1.317372e-39, 
 -5.9186016e-07,    -0.115912676,     -0.17438963,      -0.5190829,     -0.15490648, 
    0.023271682,      0.18926892,      0.14784987,      0.13730755,      0.28482708, 
     0.18471694,     0.080587775,     0.039776605,     0.029961353,     -0.16216871, 
    -0.16675477,      -0.3571527,      0.05479439,    -0.023661317,     -0.19171488, 
    -0.14742753,    -0.067103915,     -0.23351198,     -0.10002164,     6.25538e-40, 
   -9.14888e-40,    2.000557e-39,   -4.323858e-20,     0.044254966,     -0.07636733, 
    -0.39128935,     -0.22525313,       0.0853214,      0.09452109,     0.062841974, 
    0.094623685,      0.11107238,      0.18273051,     -0.04600924,     0.040822096, 
     0.02138698,     -0.00942376,      0.13165219,     0.068463236,     -0.13013738, 
    0.018994527,        0.144361,      -0.0222859,     0.002572501,     -0.03456117, 
     -0.2281197,     -0.23483513,     -0.06842231,     -2.2651e-40,  -1.3094683e-05, 
 -2.0813342e-05,     0.085803315,     0.046445772,    -0.036230326,    -0.098280154, 
    -0.13773839,     -0.09489035,     -0.14883737,    -0.031861577,      0.07000552, 
     0.11198772,      0.03547709,     -0.07870006,    -0.045113083,      0.07094081, 
     0.07211532,      0.13080747,     0.099342935,     0.038360182,     -0.14484772, 
    -0.23322843,    0.0027909763,     -0.03726346,      -0.4128679,     -0.16901602, 
    -0.03837821,      2.6102e-41,   7.6482905e-08,  -3.9005638e-05,      0.16408525, 
     0.06764026,      0.11392169,      0.07766597,      0.07372929,     -0.07890681, 
     0.13660797,        0.248656,     0.001177732,     -0.09584313,     -0.11499321, 
    -0.03629833,      0.20569375,      0.17668812,      0.06615218,      0.13697276, 
     0.11147952,     0.104652636,     -0.18377271,      -0.0410374,      0.27920577, 
     0.08589824,     -0.23475713,    -0.019159688,    -0.016931634,    -0.005201173, 
   6.873874e-38,  -4.0847654e-09,    -0.012164761,      0.13638073,     0.056975946, 
    0.050403602,      0.08080868,      0.09057937,      0.15441503,      0.11754374, 
     0.02509214,      0.16355352,    -0.026952213,      0.17865607,      0.12947288, 
    0.034338273,     0.016576616,   -0.0005330587,    -0.011354783,    -0.060048096, 
    -0.25701448,     -0.16638942,      0.09542086,    8.094454e-05,     -0.20699179, 
    0.009139891,  -3.7859284e-06,    6.859833e-38,    0.0019792551,    0.0019259497, 
    -0.14676334,     -0.07395234,     -0.03607935,     0.025853278,     0.035860583, 
     0.12531802,     0.049785923,     -0.08921925,      0.05658812,      0.17317545, 
   -0.016277827,      0.09370564,      0.12610662,     0.017422423,    -0.047085293, 
     -0.0298983,     -0.24208981,     -0.32001832,     -0.19912899,     -0.25461012, 
   -0.087972656,    -0.043261446,     -0.08592595,    -0.016195776,  -1.5500119e-10, 
   -1.70609e-39,     0.010416386,    -0.010177741,     -0.41161513,      -0.4056092, 
   -0.024841037,      0.11548557,     -0.02346135,      0.00434215,      0.10925294, 
     -0.0873627,    -0.011113336,     -0.10279711,    -0.051187046,      0.04917689, 
    0.036763232,     -0.06294187,      0.16265103,     -0.13554297,     -0.20120853, 
    -0.35533655,     -0.23251867,     -0.40097713,      -0.1958437,     -0.07539127, 
    -0.11229316,    0.0022407032,    1.756981e-22,      8.3904e-40,    1.392276e-39, 
   -0.019422503,     -0.16878769,     -0.38033113,     -0.10478094,     -0.09050085, 
   -0.045472067,     -0.08088071,     -0.02902545,      -0.1418502,     0.046859063, 
    0.028808458,     0.007691062,     0.041458696,    -0.024692321,     0.047259137, 
    0.098101296,     -0.12854351,     -0.20247726,     -0.20684011,    -0.042238373, 
    -0.29727468,     -0.15333153,     -0.06431235,    -0.019455804,  -1.2378405e-09, 
    -2.6779e-40,     2.13489e-40,     5.36818e-40,  -1.7219375e-16,     0.022467827, 
    -0.18636629,     -0.21545143,     -0.04238736,    0.0021244907,      0.06480203, 
    -0.10573424,    -0.018589608,     0.050853573,     0.124754734,     -0.08864615, 
  -0.0068257307,     -0.05411942,   -0.0064551677,    -0.096891224,      -0.3135978, 
    -0.11671923,     -0.15640312,     -0.17649917,    0.0064666052,    -0.020374179, 
  0.00049790944,     0.030973358,    1.281632e-17,    -9.09464e-40,    -1.87338e-40, 
  -1.516157e-39,     1.08214e-39,    -0.006386711,      -0.1549607,     -0.18829302, 
    -0.07072022,     0.031124165,      0.13631843,     0.015568914,     0.053970914, 
   -0.013028348,    -0.056856874,     -0.15416159,    -0.017579667,    -0.069033235, 
   -0.118424825,     -0.28492758,    -0.109365076,        0.044072,     0.077294596, 
   -0.055171955,     0.023167102,   -0.0021226013,  -2.3452479e-15,     -3.2243e-35, 
  -2.546431e-06,     -7.7532e-40,    1.094745e-39,   -1.969521e-39,     7.34854e-40, 
  -0.0014957163,     -0.15549295,     -0.21641394,      -0.2821258,     -0.13930348, 
    0.043898504,      0.15754198,      0.15359989,     0.045146674,     0.034859538, 
    0.100713655,   -0.0072606704,    -0.118469246,     -0.10196152,      -0.1920033, 
     0.21128953,      0.51135325,       0.4205792,      0.19130193,      0.03482177, 
    0.004773097,    1.214588e-39,   4.9035958e-12,     7.45901e-40,    1.173508e-39, 
   -1.15317e-39,    -3.20335e-40,     9.16664e-40,    -1.15391e-40,     -0.07059666, 
     -0.1832095,     -0.30242544,     -0.29255787,     -0.18393679,     -0.17517634, 
    -0.24017033,      -0.1826984,     -0.04617317,      0.08958292,     -0.17406514, 
    -0.26882863,     -0.31796873,     -0.22595151,      0.12589669,      0.17077652, 
     0.20557484,      0.11849721,      0.04414623,     0.055781264,  -2.8783113e-29, 
    6.63557e-40,   -1.599572e-39,     1.40406e-40,    1.090953e-39,    -1.16927e-39, 
   -5.09237e-40,     4.25304e-40,       -6.66e-41,  -0.00012399482,    -0.039649263, 
    -0.11860364,     -0.23761396,     -0.27777788,     -0.37612233,     -0.15221523, 
    -0.13664103,     -0.05560457,      -0.3507137,     -0.26739696,      0.11929324, 
    -0.14155824,     -0.12135992,      0.08165712,     0.026466839,     0.019749487, 
   -0.011931781,   2.0564321e-27,      4.1638e-41,    1.326025e-39,    1.060326e-39, 
     3.8178e-41,     8.42522e-40,    -8.61828e-40,     1.64698e-39,     6.42472e-40, 
   1.043324e-39,     2.66076e-40,  -8.2030394e-10,   -0.0020886057,   -0.0013132187, 
  2.5128737e-09,   -0.0024417834,   -0.0029816516,    -0.009872954,   -0.0013244638, 
     -0.1383125,    -0.028349847,     -9.5298e-40,    0.0065838923,     0.062048305, 
   1.852322e-39,    -1.52188e-39,     -3.2052e-40,    1.247418e-39,     5.56666e-40, 
   1.734792e-39,     6.55295e-40,     8.67802e-40,    1.003429e-39}, {
   1.003927e-39,   -1.022567e-39,    -9.98048e-40,   -1.967912e-39,   -1.219453e-39, 
   1.768654e-39,    1.496207e-39,      -3.215e-42,      4.0079e-41,   -1.164787e-39, 
   -6.88164e-40,    -1.61628e-39,     9.11183e-40,     2.00864e-40,   -1.579409e-39, 
   -4.72022e-40,    1.713882e-39,     6.81356e-40,    1.477763e-39,   -1.325733e-39, 
   -1.59054e-39,    -4.49685e-40,     -8.3569e-40,   -1.450048e-39,   -1.027173e-39, 
   -1.60245e-39,     3.73475e-40,    -1.23357e-39,   -1.465149e-39,    1.818644e-39, 
   -8.63154e-40,    1.297419e-39,     6.98176e-40,    -6.10616e-40,    -2.21905e-40, 
   -2.16042e-40,    -5.80749e-40,     3.86608e-40,    -1.69498e-39,    -2.16694e-40, 
  5.3059952e-11,    6.143606e-10,   1.0419979e-09,   6.1764567e-18,    5.409583e-20, 
   1.669127e-39,    1.391792e-39,   -1.273824e-39,    -7.39126e-40,   -1.006631e-39, 
  -1.220665e-39,   -1.236088e-39,    1.186663e-39,     9.10733e-40,     1.73794e-39, 
    1.02067e-39,       1.275e-42,    -3.66539e-40,    1.137955e-39,     8.44734e-40, 
    3.35305e-40,    -7.88392e-40,   8.3545116e-35,    -0.011133866,    -0.018915571, 
  -0.0017502652,   -0.0030701596,    -0.013664785,     -0.04115941,     -0.07823132, 
    -0.10949818,    -0.049102236,    -0.060035508,    -0.020897312,    -0.015407134, 
    0.006549621,   -0.0024817735,  -0.00036793426,  -4.5484035e-06,   -1.098816e-39, 
   -7.40941e-40,     6.52585e-40,      1.8662e-40,     1.33836e-39,   -1.710586e-39, 
   1.733656e-39,     0.013112699,    0.0006822468,    0.0016492874,   -0.0096175345, 
   -0.013377478,     0.040338047,    0.0054878714,     0.012943239,    -0.058716003, 
    -0.25942105,     -0.19743253,     -0.27787578,     -0.12822077,     -0.09489833, 
     -0.0844025,     -0.27085543,    -0.011740616,     -0.12789083,     -0.07224453, 
    -0.08030187,     -0.10118341,   -0.0003066307,  -0.00027690482,   -1.471642e-24, 
   1.172593e-39,   -1.653038e-39,    -1.29118e-39,  -7.0540497e-28,      0.02455663, 
    0.018334879,     0.023007408,   -0.0013270661,     -0.01680607,      0.08212434, 
   -0.070583396,     -0.28389415,     -0.13060403,     -0.04592499,    -0.113081515, 
    -0.13384457,     -0.09312306,     -0.14739813,    0.0019365336,    -0.035185736, 
  -0.0062660193,     0.027818672,    -0.076890744,      0.14256112,      0.18513128, 
    0.034204196,      -0.0177355,     0.015652362,     0.013974086,      6.8679e-41, 
   -1.81509e-39,   -1.602191e-39,     0.004861975,    -0.012054087,     0.038975857, 
     0.18841167,      0.18502448,     0.051637203,    -0.086535625,      -0.1020583, 
     -0.1590619,     -0.11827758,    -0.017183645,      0.06014822,    -0.010088745, 
   -0.052898373,    -0.109263405,     -0.07290526,     0.028483445,     -0.13287272, 
    -0.21406591,     -0.14829487,     0.030648813,     -0.09928999,     -0.01979456, 
     0.03144923,     0.029680764,   3.4159075e-11,    -1.53445e-39,   -5.346678e-15, 
   -0.001675364,    -0.030540433,     0.045704216,     0.061165225,      0.04129634, 
    0.079124846,     -0.15165155,     -0.28994265,    -0.070758656,       0.2705888, 
     0.15506738,      0.14011183,     0.004696742,     -0.01697541,      0.13864365, 
     0.10015469,    -0.019141389,      0.03628542,      -0.1721711,     -0.12129987, 
   -0.010471127,     -0.31952208,      0.06683925,     -0.10743896,    -0.019477328, 
   0.0010272205,     -7.5093e-41,   -0.0011899681,    0.0029634766,    0.0041129813, 
    -0.07747681,     -0.19796629,   -0.0054561403,      0.17656353,    -0.083222374, 
    -0.10154497,      0.17296289,      0.16361599,      0.17323712,     0.068872705, 
    0.030294497,     0.105719574,      0.16977091,      0.10202028,     0.026947727, 
   -0.013175636,     -0.10557218,     -0.20643316,     -0.16245481,     -0.22084177, 
    -0.19275615,     -0.12666337,     -0.08090514,   1.0333133e-05,    -4.56208e-40, 
   0.0037905816,     0.014694095,      0.10407345,     -0.13100137,     -0.08341715, 
       0.106663,       0.1070755,     0.069307335,      0.10138178,     0.061264932, 
   -0.035788048,     -0.14818083,        -0.08713,     -0.15240224,     0.103300124, 
     0.08162473,   -0.0039258357,      0.09310466,      0.05712697,     -0.05559045, 
   -0.034555983,      -0.2996239,     -0.55868936,     -0.16833083,    -0.013841406, 
    -0.09298356,  -3.3185008e-22,      2.3525e-41,    0.0035241754,      0.07715681, 
     0.20273337,     0.018005904,    -0.018724699,      0.20225169,      0.09041487, 
   -0.005388411,     -0.09647771,     -0.06878883,     -0.13690147,     -0.27639338, 
    -0.18183129,     0.009665312,     -0.06641825,     -0.14496307,     0.040968742, 
    -0.10718798,   -0.0095280865,      0.10680449,      0.12698291,     -0.14615472, 
    -0.39362583,    -0.034368277,      0.13369554,      0.09572469,      0.10130183, 
    5.85667e-40,    0.0035376265,     0.079244144,      0.24849133,       0.2837535, 
     0.17524308,     0.087084904,     -0.21779972,     -0.12865414,     -0.25491786, 
    -0.29965195,     -0.14652532,     -0.20827065,     -0.16748537,       0.0378342, 
    -0.10250122,     -0.12745342,     -0.16952927,     0.046499632,      0.16857807, 
      0.3199697,      0.06336303,       0.1857894,   -0.0067797587,       0.2270982, 
     0.28693765,      0.12735257,      0.03787825,    1.097082e-39,    0.0034174556, 
     0.06194028,      0.19280586,      0.23988914,      0.20179784,     0.008626236, 
     -0.1319596,     -0.01966624,   -0.0042943433,    -0.018639663,     -0.06355341, 
    -0.07668474,    -0.106889896,      0.15882714,   0.00069798034,       0.0672414, 
     0.24032758,       0.2302228,      0.19024763,      0.31092036,      0.20865294, 
     0.40127286,      0.37617117,       0.2533644,     0.017540187,      0.06410979, 
   6.925794e-06,     5.34982e-40,    3.907719e-05,       0.0615628,      0.03291641, 
     0.33278874,      0.10914778,       0.0248685,      0.06492488,      0.05569176, 
     0.04374805,      0.12022569,     -0.14226873,      -0.2723161,     0.014802937, 
     0.21668047,      0.15874791,      0.17565525,      0.29464158,      0.22983383, 
      0.0809066,      0.10916726,      0.19620995,      0.33055136,      0.32081008, 
    -0.10685886,     -0.13705164,    0.0020826631,   0.00031780897,   -1.693738e-39, 
  0.00075575337,      0.01919496,       -0.059644,       0.1423582,      0.10317964, 
   0.0053317314,     -0.12867364,     -0.08072928,      0.07380696,      0.19664288, 
     0.10557931,    -0.025970828,      0.14808162,      0.19774516,      0.18811174, 
     0.12931025,      0.09223357,   -0.0019104059,     -0.07172933,     0.044472028, 
     0.07101926,      0.05890163,     -0.04559255,     -0.15075742,     -0.20958997, 
    -0.22163081,   0.00019392022,    1.123896e-39,    0.0020407618,     0.013180458, 
    -0.08999102,      0.12018823,    -0.099128194,    -0.027503142,       -0.185099, 
    -0.05492496,      0.22422518,      0.19794263,      0.12200968,        0.257339, 
     0.27329418,      0.21671608,      0.16090144,   -0.0054867826,    -0.065901205, 
    -0.14955494,     -0.09039569,     -0.04445035,    -0.111725666,    -0.011968437, 
   -0.049231376,     -0.28337604,     -0.18008085,    -0.022785446,    -2.05369e-40, 
    7.41702e-40,    -3.52463e-40,     0.016282849,     -0.08141153,    -0.023762932, 
    -0.12359068,    0.0061503937,    -0.100559354,     -0.12709837,      0.06628767, 
      0.1494233,      0.28241396,      0.39723173,      0.38856038,      0.27677822, 
     0.12938221,    -0.001101764,      0.13650137,   -0.0027481322,     -0.10345878, 
   -0.041968647,      0.03442521,      0.12415352,    -0.009110715,     -0.42662165, 
    -0.17023955,    -0.022507623,    -0.018375872,    -3.41808e-40,  -1.8852193e-08, 
   0.0070894132,    -0.045840424,     -0.15208402,     -0.20098253,      -0.2867784, 
    -0.26570848,     -0.17459549,      -0.0815287,      0.11611441,      0.22355819, 
      0.3431206,      0.33777377,        0.234477,      0.06463433,      0.09302586, 
     0.11845254,    -0.033658173,      -0.1769532,    -0.098849416,      0.06021212, 
    0.121778026,     -0.15701093,     -0.31926158,     -0.23666294,     -0.09668587, 
    -0.02435455,     7.25217e-40,  -2.4999839e-08,   -0.0016227681,     -0.11985162, 
    -0.28831214,     -0.36084953,      -0.5535718,      -0.4148453,       -0.512705, 
    -0.44838196,     -0.34355608,     -0.12515311,      0.04822604,      0.10369862, 
   -0.007585461,      0.04114321,    0.0038561171,     0.048705656,     -0.02438311, 
    -0.18349631,    -0.034015045,     -0.06887087,     -0.13750404,      -0.2756635, 
    -0.13129413,     0.061812297,     0.112027794,  -0.00025033616,     0.012790629, 
 -1.6265982e-34,     0.018862091,     -0.16460693,     -0.23080674,     -0.33669424, 
    -0.32876396,     -0.43892068,     -0.47971252,     -0.55381614,      -0.3855151, 
    -0.27802095,     -0.21658215,     -0.10785522,     -0.18645222,     -0.10927249, 
   -0.055127073,    -0.037111267,    -0.030359779,     -0.15321758,     -0.01116155, 
   -0.061221212,     -0.34818906,      -0.5913068,     -0.30020028,      0.08226153, 
      0.0875809, -1.17564255e-07,   -4.524131e-37,    7.251386e-08,     0.011928146, 
  -0.0022420932,      -0.1289435,     -0.13371548,     -0.17809555,     -0.23280758, 
    -0.27595532,     -0.21179767,     -0.25133324,     -0.30115613,     -0.23016858, 
    -0.21969186,     -0.12211957,    -0.104068875,      -0.0966053,     -0.04141086, 
    -0.07310496,     -0.03161983,     -0.16844627,     -0.33931956,     -0.56794566, 
    -0.41351882,     -0.08085971,      0.05510236,      0.00913222,    1.153126e-13, 
  -1.298328e-39,   2.1329033e-06,    -0.027236417,     -0.08819206,     0.059656415, 
    0.104657695,      0.06829204,      0.05558645,     0.089121856,    -0.017100174, 
   -0.110516965,     -0.21148235,     -0.20029505,     -0.13498922,    -0.019788094, 
   -0.043706123,    -0.082449496,    -0.046445347,     -0.07994752,      0.07268997, 
    -0.18189415,     -0.22655715,      -0.2840645,     -0.26681745,     -0.12667692, 
   -0.068305194,    0.0073349555,  -1.1702002e-21,    1.431614e-39,   -8.494395e-07, 
    -0.02627912,    -0.092463285,      0.13708669,      0.17921352,      0.32092342, 
     0.18841293,     0.113781504,     0.015663363,   -0.0031327996,    -0.123830475, 
    -0.07045743,    -0.104620434,     -0.03839009,    -0.047640994,     -0.08110716, 
    -0.08371092,     -0.10686402,    -0.048900314,    -0.010826912,     -0.15107366, 
    -0.25907114,     -0.25055614,    -0.049648136,    -0.016635811,    2.980153e-07, 
    9.00507e-40,    1.394703e-39,   2.4254454e-08,     -0.03940984,    -0.027825525, 
    0.109685645,       0.1395405,      0.30160195,      0.17336315,     0.086197644, 
    0.012301364,    0.0052222754,     -0.12107816,    -0.008997022,    -0.010907524, 
    0.010746026,      0.06217997,    -0.026452752,     -0.14298412,     -0.38166317, 
    -0.20145178,     -0.13622628,     -0.33959585,     -0.28687176,     -0.18782836, 
  -0.0047678263,     -0.03231273,  -1.6641589e-13,    1.111495e-39,    1.438511e-39, 
   1.094225e-39,   9.5794296e-11,     -0.01055104,      0.17234157,      0.25740308, 
     0.23940343,      0.11154691,     0.077553086,     0.031383965,     0.053814925, 
    -0.06183473,     -0.23606086,     -0.14345422,     -0.06580409,      -0.0725742, 
    -0.26606005,      -0.2626441,      -0.3458391,     -0.24567555,     0.014114504, 
   -0.097091846,     -0.16528426,     -0.12206904,    -0.007306857,    -0.005659514, 
  -7.143249e-12,    1.051097e-39,   -1.263837e-39,     1.23314e-39,     0.007572414, 
     0.05068937,      0.40562603,      0.44939023,      0.12775517,      0.10376661, 
   -0.071454965,     0.109337576,      0.15149662,     -0.12996024,     -0.23150948, 
    -0.06297829,     -0.06252873,     -0.16997966,     -0.45064822,     -0.41960976, 
    -0.39275587,     -0.16521305,      0.14936161,     0.055587623,     -0.12842204, 
   -0.055179063,    -0.017136434,  -1.6001133e-12,     -9.4368e-40,   -1.062613e-39, 
   1.268133e-39,    1.650494e-39,   1.1177835e-31,  -4.1662493e-05,      0.14212212, 
     0.29744416,    -0.052092366,     0.057397395,       0.0501085,     0.044614233, 
    -0.09517349,    -0.059932116,    -0.026427189,     0.004179616,     -0.06556975, 
    -0.26209354,     -0.21495469,     -0.09706885,     -0.09764056,      0.19055589, 
     0.11079695,     0.013038532,     -0.11921039,    -0.036962826,  -1.1838697e-17, 
 -2.2094132e-12,     3.73368e-40,   -1.132821e-39,    1.143017e-39,     1.10089e-40, 
   -1.67302e-39,  -9.1568025e-18,     0.013127426,     0.076574795,      0.08901342, 
     0.11175549,      0.26265657,      0.28215474,      0.09300808,    -0.031504687, 
     0.07389267,      0.41301656,      0.53206116,      0.15061252,      0.11697386, 
     0.24597394,      0.36975813,      0.44039825,      0.46274593,      0.14787555, 
    0.018442327,     0.014498563,   -1.318405e-39,     7.68387e-40,   -1.770517e-39, 
   -9.19727e-40,    -8.06694e-40,    -3.66898e-40,     -8.2154e-40,    -1.51633e-40, 
 -4.3304933e-09,  -4.7571227e-09,      3.2369e-09,    0.0001069852,   0.00052797986, 
    0.010693184,     0.010715436,     0.008766039,    0.0057994593,    -0.012495869, 
     0.05508834,     0.002947993,      0.03226064,       0.0599149,      0.10724228, 
   0.0032593098,  -2.4514512e-26,    -4.75288e-40,      1.2917e-41,    -4.64027e-40, 
    -2.3413e-41,    1.342808e-39,     1.38107e-39,   -1.175227e-39}, {
  -1.133063e-39,    -8.53011e-40,      1.8227e-39,    1.220922e-39,    1.113376e-39, 
   1.410544e-39,     -4.9161e-40,      9.9814e-41,   -1.663693e-39,    1.064934e-39, 
  -1.992761e-39,    -9.00456e-40,      6.5542e-41,  -2.2572055e-19,    2.522011e-39, 
   -7.99637e-40,    -2.41524e-40,        -6.4e-43,     -5.5767e-41,   -1.891414e-39, 
  -1.740635e-39,    1.994584e-39,   -1.675517e-39,     3.08431e-40,    1.811239e-39, 
    -3.0243e-41,    1.371489e-39,   -1.136125e-39,    -6.38754e-40,      9.7917e-41, 
  -1.849158e-39,     3.17327e-40,  1.00301815e-25,    7.404524e-25,   -1.021934e-17, 
 -3.2002453e-11,    4.448867e-07,   1.8728633e-08,   6.7194557e-09,   4.4886637e-09, 
   9.433014e-06,      0.03909251,      0.03847131,     0.005736621,    -0.006371386, 
   -0.023044445,    0.0007745055,     0.023830423,     0.009666889,  -2.9827102e-06, 
  2.7318411e-21,   1.1134291e-36,    -5.26709e-40,    1.320218e-39,    1.757873e-39, 
   1.455007e-39,    -1.70224e-40,     -5.6348e-40,   -2.424478e-38,    -0.019142747, 
  -0.0070456425,   2.3641198e-06,     0.004952801,   0.00036287704,    -0.007943992, 
   -0.010949055,    -0.005109388,     0.016985828,     0.036204275,     0.082937494, 
     0.26094636,       0.2973159,      0.23281455,      0.20727776,      0.12163051, 
    0.047478095,       0.0993142,      0.10558887,     0.048643555,     0.010781238, 
    0.005422043,  -2.3762263e-07,    1.611025e-39,     -7.3749e-40,      6.4746e-41, 
    -1.1631e-41,    -0.025310865,    -0.049428776,    -0.023166582,     0.018361745, 
    0.019661838,    0.0012849197,     0.011712982,      0.03563074,     -0.10890253, 
    0.049740735,     0.031070465,     0.054857444,     0.022114893,      0.08647051, 
      0.1190814,      0.18452078,       0.2564731,     0.049725436,    -0.031548385, 
     0.22672504,      0.24955758,      0.12885766,     0.043317888,   -0.0037163496, 
   0.0008593821,      5.4694e-40,    -1.38733e-39,    6.993949e-27,    -0.029771114, 
    -0.02162518,   -0.0047785877,     0.007980664,   -0.0114837475,      0.03380446, 
   -0.075370744,   -0.0044805924,      0.07187349,      0.06987726,      0.14921893, 
   -0.027424265,     0.014340721,     -0.10641157,    -0.060227927,     0.120030336, 
     0.16745192,      0.13039677,      0.13942309,      0.17837425,     0.094685204, 
    0.044032514,      0.13848102,        0.044232,   -0.0076007554,    -0.012540062, 
    5.77115e-40,    -8.88737e-40,    -0.018507214,    -0.054790244,    -0.038522735, 
    -0.23727725,      -0.2708836,     -0.15466732,     -0.11278924,     -0.21293524, 
     0.06132356,      0.36501664,      0.29507315,   -0.0023314878,    -0.027105141, 
    -0.14414516,      -0.0756519,       0.1585772,      0.21985672,      0.26252115, 
     0.19396535,      0.14736569,     -0.09878861,     -0.17792292,     0.033600856, 
   0.0060508912,     -0.05107693,    -0.016918674,    1.923462e-39,   2.7486842e-15, 
    0.050407324,    -0.016100671,    -0.003621498,     -0.22905628,     -0.37287074, 
    -0.23488827,     -0.12693486,    0.0022516102,     0.060075685,      0.18046911, 
    0.033410747,     -0.12747853,      -0.2229753,     0.024480468,      0.03160898, 
   -0.019490682,     0.007992853,      0.12920223,     0.029775925,     0.007885075, 
     -0.0792417,     -0.06354606,     0.016274706,      0.07087171,     -0.04173131, 
  2.3877878e-06,     2.40677e-40,   0.00039582106,     0.050575778,      0.04206605, 
   -0.053330414,     -0.20749721,     -0.24352369,     -0.21113303,       0.1382302, 
    0.108386464,      0.12214129,    -0.019107938,     -0.17568107,     -0.09926052, 
    -0.13007927,       0.1780163,    -0.033592455,     -0.15661366,    -0.035271034, 
    -0.07495409,     -0.16330671,     -0.11513396,    -0.047242697,     -0.05970183, 
    -0.18005893,     -0.06215958,     -0.06382471,    -0.013051496,      2.6116e-40, 
 -0.00044063493,     0.030951884,     0.014843678,      -0.1421736,     -0.11832023, 
     0.06694146,      0.12537871,      0.13408308,      0.13020815,     -0.03117938, 
     0.03606026,    -0.033693798,      0.13360643,      0.14885497,      0.14746934, 
   -0.044786487,      -0.3006031,     -0.22391601,    -0.093107946,       -0.137237, 
    -0.18738632,     -0.26552027,       -0.243842,     -0.11587339,    -0.024378417, 
     -0.0323098,    -0.008613644,    -5.26912e-40,     2.80574e-40,    -0.004419811, 
    0.021983631,     -0.26827854,     0.016747989,      0.16508019,      0.11500704, 
     0.15490524,     0.089414164,     -0.08245373,     0.039619412,      0.12758213, 
     0.10786872,   -0.0087173665,     -0.09119791,     -0.24822761,     -0.24484695, 
    -0.18429552,    -0.025698274,     0.103340894,     -0.13951759,     -0.36100888, 
    -0.16182123,     -0.10362365,       0.1457619,    -0.051562928,     -0.04320449, 
    1.41451e-39,     1.75291e-40,    -0.014930653,    -0.019727249,    -0.119076446, 
   -0.010757931,      0.10156789,      0.11339603,     0.120850116,      0.07022336, 
    -0.05267075,     0.014296327,      0.07330315,     -0.13183726,     -0.20908937, 
     -0.4274727,       -0.444635,     -0.16734785,     0.034324527,     0.101893224, 
    0.120428905,     -0.16936773,       -0.195104,     -0.23757367,      -0.2067314, 
     -0.1558803,    -0.039335176,    -0.008950626,    -9.61362e-40,    -0.030106481, 
   0.0067872796,    -0.054877847,     -0.14363293,    -0.058051698,    0.0038256024, 
     0.08038993,     0.117258735,     0.104093954,     0.031639677,     0.046981268, 
     0.08027335,     -0.06651823,     -0.16716312,     -0.29979587,      -0.2506251, 
   -0.045903195,     0.063307986,      0.11833921,     -0.11532035,     -0.03531782, 
    -0.13286518,     -0.22560057,    0.0067610093,     0.042407487,     0.020284815, 
   4.493858e-06,    -1.34055e-39,     1.17797e-39,     0.025260238,   -0.0013864925, 
    -0.30165416,     -0.30296883,      -0.1474875,     0.086630724,     0.029500108, 
   -0.038444757,     -0.14097543,     0.086860344,      0.11288668,      0.10221335, 
   0.0046408772,     -0.11945897,     -0.06333408,      0.11163793,    -0.007882457, 
   -0.015823118,     -0.01438094,      0.14024879,     -0.04442759,      0.07515404, 
     0.20963071,     0.033129122,       0.0587105,    0.0001605073,    1.091501e-39, 
    -3.4561e-40,    0.0022808474,   -0.0024344875,     -0.37257925,      -0.3775075, 
    -0.32406598,    -0.010691418,     0.013238397,      0.03653647,     -0.05680007, 
       0.109727,      0.20696917,       0.2855983,      0.16673996,      0.22336213, 
     0.13270429,    0.0067649703,     -0.03336501,    -0.041154053,     0.077942945, 
     0.18219084,       0.2000917,      0.08114908,    -0.014922783,    -0.002848992, 
    0.068991885,     0.011043718,    1.150339e-39,    -7.95154e-40,      -4.229e-41, 
   6.370265e-05,     -0.34255788,     -0.27181298,    -0.124219656,      -0.1012624, 
      -0.150605,     0.011273795,     0.007911496,      0.15555441,      0.20722201, 
     0.39378113,       0.2463066,       0.1739686,      0.16034813,      0.06492144, 
    -0.04809309,     -0.17148095,    -0.036998577,      0.15648663,      0.16399857, 
   -0.074428365,    -0.057832584,      0.12366991,      0.03699647,   6.2452623e-31, 
    5.35865e-40,   -1.123952e-39,    -0.027373547,    -0.026702994,     -0.23212317, 
   -0.057517134,     -0.14148611,     -0.21768491,     0.002207216,      0.09825973, 
     0.10174592,      0.11980202,      0.14187898,      0.31696406,      0.36183175, 
     0.10111173,     0.042941317,     0.017491797,     0.010564096,     -0.14066024, 
    -0.13857278,     0.029658977,      0.21552642,     0.033073727,    -0.025425464, 
     0.29587123,      0.09136394,     0.026527593,    -2.16735e-40,    1.324435e-09, 
   -0.026601033,    -0.048713237,     -0.16376874,     0.018708628,     -0.12995121, 
   -0.094313785,      0.14774698,      0.12283155,     0.084081374,   -0.0020202782, 
     0.06297273,      0.12948614,      0.18516868,     0.053609643,     -0.07046184, 
    0.037182707,    -0.059078492,     -0.07025101,     -0.07768257,     -0.10924478, 
    -0.08806801,     0.021643115,     -0.10654568,      0.17240737,     0.022745466, 
   -0.007208655,   -2.031098e-39,  -2.9227682e-09,     -0.02589202,     -0.06491069, 
    -0.16604106,    -0.082290016,      0.05534411,      0.12256048,      0.24157076, 
    0.041629717,      0.13319969,    -0.030832395,    -0.077669375,        0.049311, 
    0.031648647,     0.057038296,    -0.050740518,    -0.036762476,    -0.008478613, 
   -0.009290096,     -0.09420885,     -0.09816643,     -0.12430839,     0.064270355, 
     0.03651309,      0.09267451,     0.042406928,    0.0038794004,    1.211511e-38, 
   5.700721e-35,   0.00011320489,      0.01381959,    -0.057279117,      0.13228966, 
     0.28642172,      0.14334661,      0.10161007,    -0.058148153,     0.061824523, 
      -0.155444,    -0.011048607,       0.1254612,     0.007120215,      0.05561734, 
     -0.1605885,    -0.047015283,    0.0011027539,      0.04448395,     -0.05389083, 
    -0.10023928,     -0.11209166,     -0.02317591,      0.23691416,      0.03204385, 
   -0.005073564,  -0.00047204987,  -1.6987123e-37,   2.3552451e-33,    0.0026683898, 
   -0.057426043,    -0.026788205,       0.1123573,    -0.044213478,     -0.05943927, 
    0.021218725,     -0.10678426,    -0.013418249,      -0.1638425,     -0.23043418, 
    -0.05838307,     -0.04227279,    -0.060505547,      -0.1116239,    0.0013203078, 
    0.002455528,      0.06261716,    -0.054721154,     -0.06882312,      0.04045834, 
     0.05124096,      0.09692097,     -0.06951129,    0.0032484496,   -1.253635e-06, 
   -1.05111e-40,     2.75417e-40,    0.0012915953,    -0.040853918,    -0.017541949, 
    0.019309387,     -0.14316663,      0.06679904,    -0.013759654,    -0.010011298, 
   0.0067536556,     -0.05346648,    -0.048686244,     0.025607008,     -0.04208928, 
   -0.026211724,      -0.1356862,      -0.1028633,      -0.0448146,     -0.02338801, 
  -0.0026675744,   -0.0043070335,     0.047694698,    -0.016930178,     0.018798294, 
     -0.0190198,     0.003956374,   1.5754077e-21,     5.76772e-40,     4.21033e-40, 
   0.0004989326,    -0.020357022,        0.032032,     -0.06153757,    -0.043889016, 
   -0.009052272,     0.012915946,      0.05021564,      0.08563067,      0.14263189, 
    0.025350593,      0.08140798,    -0.048613094,    -0.061382648,     -0.13214253, 
    0.023120644,     -0.19268785,     -0.12266009,    -0.021897199,    -0.025704514, 
     0.07660147,     0.029617371,    -0.064642794,    -0.048556753,   -6.506797e-08, 
  -1.806319e-39,    1.508411e-39,     5.08229e-40,   -5.605812e-08,     0.033009738, 
     0.25493908,     0.079418406,    -0.004413488,     0.007704545,      -0.1171392, 
    -0.10212639,     0.055098195,     0.016263328,     0.097875625,    -0.023530813, 
   -0.042344697,    -0.029200384,     -0.06929667,    -0.078060955,     -0.14930093, 
    -0.09728821,    -0.034471028,      0.04746904,       0.0565273,     0.116903506, 
     0.03939729,     -0.04790118,    1.372086e-16,   -1.784294e-39,   -1.213985e-39, 
   -5.22733e-40,   6.4953967e-12,      0.06277202,       0.2620543,       0.2473528, 
     0.04174057,     0.038665663,      0.06588957,     -0.04224682,     0.017328843, 
    -0.02094366,    0.0152321635,      -0.0729067,     -0.12389607,     -0.16964798, 
    -0.11735193,    -0.035512038,      0.14369033,    -0.018269515,      0.17707343, 
      0.1262504,      0.23701549,      0.17969243,     0.039523564,   -0.0055524497, 
 -1.0364397e-06,    1.713516e-39,    1.382866e-39,    1.179406e-39,   0.00044646283, 
    0.038116843,     0.106440924,      0.14426298,      0.08712346,       0.0770234, 
     0.17507073,       0.0954668,     0.110887356,     0.054549526,      0.07346641, 
    -0.03281702,     -0.12254346,      -0.1656179,    -0.039117686,    -0.084216386, 
     0.08889967,      0.03796807,      0.19968739,      0.04091209,      0.08544501, 
     0.00238049,    0.0062751644,  -1.3487918e-12,     6.38922e-40,    1.547164e-39, 
   -5.87429e-40,    1.276841e-39,   3.4237926e-31,   -0.0002259154,    -0.008759058, 
    -0.04289325,      0.09020684,         0.07402,      0.05661606,     0.043787964, 
     0.23946549,      0.15206975,     0.060054105,     0.122599296,     0.008217358, 
      0.0789315,      0.09610111,       0.3376862,       0.1675989,    -0.054303955, 
    0.053330738,      0.10279369,      0.10005349,       0.0863888,     0.017166879, 
   1.971706e-12,     1.52055e-40,    -2.39814e-40,    -1.02262e-39,   -1.775029e-39, 
   -5.05647e-40,   2.2146104e-18,      0.01628317,     0.053773325,     0.061618876, 
    0.053381983,      0.20988582,      0.23660848,        0.079022,      0.08351525, 
     0.21293916,      0.26283696,       0.2848984,      0.13227111,     0.060067695, 
     0.24769992,      0.03621919,    -0.054783378,     -0.04671006,     -0.04012382, 
  -0.0007952174,    0.0031093631,    7.464872e-14,     6.22017e-40,    1.531629e-39, 
   -5.08439e-40,   -1.265029e-39,     3.89631e-40,    -1.44325e-39,   -1.619845e-39, 
  -1.223476e-39,    1.619915e-39,    -2.21548e-40,    9.002208e-27,   0.00019325271, 
   0.0053426023,     0.007748851,      0.01089322,    0.0027570247,    3.068715e-05, 
  -0.0046183374,     0.022988562,    0.0055659455,      0.00550687,    0.0073995986, 
    0.014127526,     4.45759e-40,     -8.0398e-41,    1.163655e-39,    -4.73431e-40, 
   1.516418e-39,     1.25307e-39,    1.471918e-39,    -7.73804e-40}, {
     6.3964e-40,     9.27756e-40,     1.97032e-40,   -1.684777e-39,    -2.02444e-39, 
   -7.38197e-40,    1.265073e-39,    1.245602e-39,    1.844957e-39,     -1.3781e-39, 
  -1.064652e-39,    1.439547e-39,    1.149147e-39,   -1.235313e-39,     4.65338e-40, 
  -1.543153e-39,     7.26357e-40,     -3.6507e-41,   -1.063499e-39,      8.9491e-41, 
   -1.92989e-39,     5.81993e-40,    1.653147e-39,      2.2515e-41,    -8.23027e-40, 
     7.1954e-41,    -7.37562e-40,     6.06008e-40,     4.06958e-40,   -1.135862e-39, 
  -1.549627e-39,    1.065923e-39,     1.25296e-39,    1.504878e-39,  -1.8983272e-07, 
   -0.000886228,   -0.0005644077,   -3.238181e-16,    4.533546e-21,  -2.1481093e-10, 
  -4.321279e-07,   0.00019366879,   0.00040609846,   0.00012639914,  -0.00018087884, 
   4.945404e-06,  -2.8992401e-08,    -0.002403738,  -4.8397127e-05,   -1.100166e-39, 
    -5.2822e-40,      9.0242e-41,    -1.70576e-39,    1.331427e-39,    1.350944e-39, 
     4.1456e-40,   -1.706037e-39,   -1.251099e-39,    -6.85322e-40,    -5.35911e-40, 
    8.30313e-40,     4.62503e-40,  -2.8572716e-16,  -0.00034720523,   -0.0008952631, 
 -0.00010428097,   -0.0045109396,     0.019414255,     0.002055057,      -0.1062098, 
   -0.107782885,     -0.10517352,    -0.018814808,    0.0072796447,     0.030259173, 
    0.018671772,     0.011704101,   3.1183412e-05,     -5.2849e-40,     1.59946e-39, 
   -6.19527e-40,    1.173293e-39,   -1.333183e-39,    1.132279e-39,     7.66603e-40, 
    -6.6133e-41,    -7.88218e-40,    6.534874e-39,    -0.015837368,    -0.016117582, 
   -0.021765264,     -0.02099286,     -0.04499901,    -0.018586209,    -0.093731105, 
    -0.24532498,      -0.1966354,     -0.11201379,     -0.24203707,     -0.23900388, 
    -0.20208618,     -0.04120328,     0.025842069,    -0.012744152,    -0.042465325, 
    -0.02946856,   2.6201993e-33,    -3.88085e-40,      1.7422e-41,   -1.527854e-39, 
   -6.67067e-40,     -2.5503e-40,    -9.40409e-40,    2.011354e-39,   -1.544307e-39, 
  1.7007362e-05,     0.004275603,     0.050340254,    -0.001814863,      0.12591037, 
     0.07759159,     -0.14139727,     -0.10211846,      0.13968748,      0.17397065, 
     0.18290006,     -0.04942541,     -0.19446416,     -0.27228767,     -0.62750953, 
     -0.5003248,     -0.07868563,     -0.15890633,     -0.15164334,     -0.07904954, 
  -5.004579e-07,   -1.335851e-15,   -1.757834e-39,   -1.266558e-39,   -1.189857e-39, 
   1.806108e-39,    -1.29079e-40,    -1.20945e-40,     0.023400532,     0.040132217, 
     0.34359345,      0.21360911,      0.32917896,       0.3129394,    -0.010672039, 
     -0.1405584,    -0.011133266,     -0.03189503,    -0.029180601,     0.047335643, 
     0.20630042,     -0.03986911,      -0.3970553,     -0.39449745,     -0.27255452, 
    -0.14330123,     -0.29318964,     -0.27739638,     -0.09946084,  -0.00022812562, 
  -4.393935e-06,  -3.1883435e-08,     6.46043e-40,    -9.75295e-40,    1.369069e-39, 
   -0.016807474,    0.0099181775,     -0.06036022,      0.08564924,      0.26897278, 
      0.3327593,      0.29330018,     0.052995365,    -0.050584108,     -0.08073561, 
     0.14496812,     0.104748406,      0.07796753,      0.16025868,      0.14658579, 
    0.060767118,     -0.13938254,     -0.09415532,    -0.100711994,     0.060827065, 
    -0.21083097,     -0.16351803,    -0.056725264,   -0.0013860317,   -0.0039776214, 
  -0.0005459616,   -0.0002008555,     0.016786601,      0.05080092,      0.17875868, 
    0.010856674,    -0.041572433,      0.26089144,        0.252502,      0.09716398, 
   0.0067839967,    0.0049378197,     0.018246794,     0.108710915,     0.029860308, 
